{"learner":{"attributes":{},"feature_names":["day_of_week","hour_of_day"],"feature_types":[],"gradient_booster":{"model":{"cats":{"enc":[],"feature_segments":[],"sorted_idx":[]},"gbtree_model_param":{"num_parallel_tree":"1","num_trees":"50"},"iteration_indptr":[0,1,2,3,4,5,6,7,8,9,10,11,12,13,14,15,16,17,18,19,20,21,22,23,24,25,26,27,28,29,30,31,32,33,34,35,36,37,38,39,40,41,42,43,44,45,46,47,48,49,50],"tree_info":[0,0,0,0,0,0,0,0,0,0,0,0,0,0,0,0,0,0,0,0,0,0,0,0,0,0,0,0,0,0,0,0,0,0,0,0,0,0,0,0,0,0,0,0,0,0,0,0,0,0],"trees":[{"base_weights":[3.2528426E-8,-1.0584923E1,1.3267422E0,-1.1053031E1,-7.4278617E0,3.1829224E0,-4.421194E0,-1.2169418E0,-9.397673E-1,-3.3961916E-1,-9.156987E-1,-1.4819511E0,3.9684563E0,-2.2861497E0,-7.180897E0,2.9734597E-1,-7.36751E-1,4.401289E-1,-2.8114831E-2,-4.4932732E-1,-7.9676814E-2,-1.0936258E0,-4.934492E-1],"categories":[],"categories_nodes":[],"categories_segments":[],"categories_sizes":[],"default_left":[0,0,0,0,0,0,0,0,0,0,0,0,0,0,0,0,0,0,0,0,0,0,0],"id":0,"left_children":[1,3,5,7,9,11,13,-1,-1,-1,-1,15,17,19,21,-1,-1,-1,-1,-1,-1,-1,-1],"loss_changes":[6.342028E4,6.612539E2,4.2829594E4,6.913789E2,4.4294702E2,1.1123721E4,5.75783E3,0E0,0E0,0E0,0E0,1.1507398E4,4.778074E3,1.8175564E3,3.5482344E3,0E0,0E0,0E0,0E0,0E0,0E0,0E0,0E0],"parents":[2147483647,0,0,1,1,2,2,3,3,4,4,5,5,6,6,11,11,12,12,13,13,14,14],"right_children":[2,4,6,8,10,12,14,-1,-1,-1,-1,16,18,20,22,-1,-1,-1,-1,-1,-1,-1,-1],"split_conditions":[4E0,3E0,2E1,5E0,2E0,7E0,2.2E1,-1.2169418E0,-9.397673E-1,-3.3961916E-1,-9.156987E-1,5E0,1.9E1,4E0,4E0,2.9734597E-1,-7.36751E-1,4.401289E-1,-2.8114831E-2,-4.4932732E-1,-7.9676814E-2,-1.0936258E0,-4.934492E-1],"split_indices":[1,1,1,0,0,1,1,0,0,0,0,0,1,0,0,0,0,0,0,0,0,0,0],"split_type":[0,0,0,0,0,0,0,0,0,0,0,0,0,0,0,0,0,0,0,0,0,0,0],"sum_hessian":[4.514E3,5.02E2,4.012E3,4.35E2,6.7E1,3.033E3,9.79E2,2.56E2,1.79E2,2.1E1,4.6E1,4.37E2,2.596E3,5.53E2,4.26E2,2.49E2,1.88E2,2.356E3,2.4E2,2.22E2,3.31E2,1.58E2,2.68E2],"tree_param":{"num_deleted":"0","num_feature":"2","num_nodes":"23","size_leaf_vector":"1"}},{"base_weights":[-1.2307158E-3,-9.533214E0,1.1935335E0,-9.952675E0,-6.703536E0,2.8646207E0,-3.981234E0,-1.0957211E0,-8.463127E-1,-3.07201E-1,-8.260771E0,-1.3347595E0,3.571769E0,-2.0584898E0,-6.4665246E0,-6.991142E-1,-9.385752E-1,2.677303E-1,-6.634658E-1,3.9613461E-1,-2.5314962E-2,-4.045961E-1,-7.1733154E-2,-9.8495096E-1,-4.4428775E-1],"categories":[],"categories_nodes":[],"categories_segments":[],"categories_sizes":[],"default_left":[0,0,0,0,0,0,0,0,0,0,0,0,0,0,0,0,0,0,0,0,0,0,0,0,0],"id":1,"left_children":[1,3,5,7,9,11,13,-1,-1,-1,15,17,19,21,23,-1,-1,-1,-1,-1,-1,-1,-1,-1,-1],"loss_changes":[5.143033E4,5.303164E2,3.4713773E4,5.5965625E2,3.5917212E2,9.014488E3,4.6696943E3,0E0,0E0,0E0,1.5134277E0,9.331187E3,3.870793E3,1.4737922E3,2.8794688E3,0E0,0E0,0E0,0E0,0E0,0E0,0E0,0E0,0E0,0E0],"parents":[2147483647,0,0,1,1,2,2,3,3,4,4,5,5,6,6,10,10,11,11,12,12,13,13,14,14],"right_children":[2,4,6,8,10,12,14,-1,-1,-1,16,18,20,22,24,-1,-1,-1,-1,-1,-1,-1,-1,-1,-1],"split_conditions":[4E0,3E0,2E1,5E0,2E0,7E0,2.2E1,-1.0957211E0,-8.463127E-1,-3.07201E-1,7E0,5E0,1.9E1,4E0,4E0,-6.991142E-1,-9.385752E-1,2.677303E-1,-6.634658E-1,3.9613461E-1,-2.5314962E-2,-4.045961E-1,-7.1733154E-2,-9.8495096E-1,-4.4428775E-1],"split_indices":[1,1,1,0,0,1,1,0,0,0,0,0,1,0,0,0,0,0,0,0,0,0,0,0,0],"split_type":[0,0,0,0,0,0,0,0,0,0,0,0,0,0,0,0,0,0,0,0,0,0,0,0,0],"sum_hessian":[4.514E3,5.02E2,4.012E3,4.35E2,6.7E1,3.033E3,9.79E2,2.56E2,1.79E2,2.1E1,4.6E1,4.37E2,2.596E3,5.53E2,4.26E2,2.5E1,2.1E1,2.49E2,1.88E2,2.356E3,2.4E2,2.22E2,3.31E2,1.58E2,2.68E2],"tree_param":{"num_deleted":"0","num_feature":"2","num_nodes":"25","size_leaf_vector":"1"}},{"base_weights":[-2.3958904E-3,-8.58762E0,1.0736994E0,-8.961862E0,-6.061784E0,2.326544E0,-4.5263066E0,-9.865754E-1,-7.621516E-1,-2.7787724E-1,-7.469538E0,-1.2021874E0,2.8693714E0,-7.3093247E0,-2.9195077E0,-6.3189167E-1,-8.4898394E-1,2.4106431E-1,-5.974703E-1,3.5653803E-1,-5.0508857E-2,-4.985903E-1,-8.8707525E-1,-2.230532E-1,-6.668325E-1],"categories":[],"categories_nodes":[],"categories_segments":[],"categories_sizes":[],"default_left":[0,0,0,0,0,0,0,0,0,0,0,0,0,0,0,0,0,0,0,0,0,0,0,0,0],"id":2,"left_children":[1,3,5,7,9,11,13,-1,-1,-1,15,17,19,21,23,-1,-1,-1,-1,-1,-1,-1,-1,-1,-1],"loss_changes":[4.1721133E4,4.2114844E2,2.8165488E4,4.5303516E2,2.9351782E2,6.2862617E3,3.2609248E3,0E0,0E0,0E0,1.5305176E0,7.5665254E3,6.6790215E3,9.280371E2,1.1913142E3,0E0,0E0,0E0,0E0,0E0,0E0,0E0,0E0,0E0,0E0],"parents":[2147483647,0,0,1,1,2,2,3,3,4,4,5,5,6,6,10,10,11,11,12,12,13,13,14,14],"right_children":[2,4,6,8,10,12,14,-1,-1,-1,16,18,20,22,24,-1,-1,-1,-1,-1,-1,-1,-1,-1,-1],"split_conditions":[4E0,3E0,2.1E1,5E0,2E0,7E0,4E0,-9.865754E-1,-7.621516E-1,-2.7787724E-1,7E0,5E0,1.9E1,2.2E1,7E0,-6.3189167E-1,-8.4898394E-1,2.4106431E-1,-5.974703E-1,3.5653803E-1,-5.0508857E-2,-4.985903E-1,-8.8707525E-1,-2.230532E-1,-6.668325E-1],"split_indices":[1,1,1,0,0,1,0,0,0,0,0,0,1,1,0,0,0,0,0,0,0,0,0,0,0],"split_type":[0,0,0,0,0,0,0,0,0,0,0,0,0,0,0,0,0,0,0,0,0,0,0,0,0],"sum_hessian":[4.514E3,5.02E2,4.012E3,4.35E2,6.7E1,3.279E3,7.33E2,2.56E2,1.79E2,2.1E1,4.6E1,4.37E2,2.842E3,2.67E2,4.66E2,2.5E1,2.1E1,2.49E2,1.88E2,2.356E3,4.86E2,1.09E2,1.58E2,3.95E2,7.1E1],"tree_param":{"num_deleted":"0","num_feature":"2","num_nodes":"25","size_leaf_vector":"1"}},{"base_weights":[-3.4481804E-3,-7.7358313E0,9.6575E-1,-8.069686E0,-5.4814696E0,2.3225207E0,-3.2356873E0,-8.883018E-1,-6.863598E-1,-2.5135264E-1,-6.7540927E0,-1.0827823E0,2.8959517E0,-1.6332288E0,-5.307177E0,-5.711329E-1,-7.679446E-1,2.1705432E-1,-5.380394E-1,3.375878E-1,8.3574675E-2,-5.6460935E-1,-1.1068406E-1,-7.9892564E-1,-3.70213E-1],"categories":[],"categories_nodes":[],"categories_segments":[],"categories_sizes":[],"default_left":[0,0,0,0,0,0,0,0,0,0,0,0,0,0,0,0,0,0,0,0,0,0,0,0,0],"id":3,"left_children":[1,3,5,7,9,11,13,-1,-1,-1,15,17,19,21,23,-1,-1,-1,-1,-1,-1,-1,-1,-1,-1],"loss_changes":[3.3843836E4,3.343379E2,2.2883168E4,3.6672266E2,2.3986438E2,5.9276484E3,3.24442E3,0E0,0E0,0E0,1.4916992E0,6.135588E3,2.5649512E3,1.1639781E3,1.8085996E3,0E0,0E0,0E0,0E0,0E0,0E0,0E0,0E0,0E0,0E0],"parents":[2147483647,0,0,1,1,2,2,3,3,4,4,5,5,6,6,10,10,11,11,12,12,13,13,14,14],"right_children":[2,4,6,8,10,12,14,-1,-1,-1,16,18,20,22,24,-1,-1,-1,-1,-1,-1,-1,-1,-1,-1],"split_conditions":[4E0,3E0,2E1,5E0,2E0,7E0,2.2E1,-8.883018E-1,-6.863598E-1,-2.5135264E-1,7E0,5E0,1.8E1,2E0,4E0,-5.711329E-1,-7.679446E-1,2.1705432E-1,-5.380394E-1,3.375878E-1,8.3574675E-2,-5.6460935E-1,-1.1068406E-1,-7.9892564E-1,-3.70213E-1],"split_indices":[1,1,1,0,0,1,1,0,0,0,0,0,1,0,0,0,0,0,0,0,0,0,0,0,0],"split_type":[0,0,0,0,0,0,0,0,0,0,0,0,0,0,0,0,0,0,0,0,0,0,0,0,0],"sum_hessian":[4.514E3,5.02E2,4.012E3,4.35E2,6.7E1,3.033E3,9.79E2,2.56E2,1.79E2,2.1E1,4.6E1,4.37E2,2.596E3,5.53E2,4.26E2,2.5E1,2.1E1,2.49E2,1.88E2,2.105E3,4.91E2,6.3E1,4.9E2,1.58E2,2.68E2],"tree_param":{"num_deleted":"0","num_feature":"2","num_nodes":"25","size_leaf_vector":"1"}},{"base_weights":[-4.190632E-3,-6.9685407E0,8.6874044E-1,-7.2663293E0,-4.956712E0,1.8902795E0,-3.697359E0,-7.9981726E-1,-6.1810523E-1,-2.2735992E-1,-6.107175E0,-9.7523695E-1,2.3310835E0,-5.9963994E0,-2.3700783E0,-5.1621634E-1,-6.946408E-1,1.954357E-1,-4.845201E-1,2.8985995E-1,-4.2038616E-2,-4.20885E-1,-7.195356E-1,-1.552167E-1,-4.918649E-1],"categories":[],"categories_nodes":[],"categories_segments":[],"categories_sizes":[],"default_left":[0,0,0,0,0,0,0,0,0,0,0,0,0,0,0,0,0,0,0,0,0,0,0,0,0],"id":4,"left_children":[1,3,5,7,9,11,13,-1,-1,-1,15,17,19,21,23,-1,-1,-1,-1,-1,-1,-1,-1,-1,-1],"loss_changes":[2.7454533E4,2.6533008E2,1.8725426E4,2.9685547E2,1.9601868E2,4.145343E3,2.2255693E3,0E0,0E0,0E0,1.4162598E0,4.975261E3,4.4405713E3,5.440908E2,9.6582935E2,0E0,0E0,0E0,0E0,0E0,0E0,0E0,0E0,0E0,0E0],"parents":[2147483647,0,0,1,1,2,2,3,3,4,4,5,5,6,6,10,10,11,11,12,12,13,13,14,14],"right_children":[2,4,6,8,10,12,14,-1,-1,-1,16,18,20,22,24,-1,-1,-1,-1,-1,-1,-1,-1,-1,-1],"split_conditions":[4E0,3E0,2.1E1,5E0,2E0,7E0,4E0,-7.9981726E-1,-6.1810523E-1,-2.2735992E-1,7E0,5E0,1.9E1,2.2E1,2.3E1,-5.1621634E-1,-6.946408E-1,1.954357E-1,-4.845201E-1,2.8985995E-1,-4.2038616E-2,-4.20885E-1,-7.195356E-1,-1.552167E-1,-4.918649E-1],"split_indices":[1,1,1,0,0,1,0,0,0,0,0,0,1,1,1,0,0,0,0,0,0,0,0,0,0],"split_type":[0,0,0,0,0,0,0,0,0,0,0,0,0,0,0,0,0,0,0,0,0,0,0,0,0],"sum_hessian":[4.514E3,5.02E2,4.012E3,4.35E2,6.7E1,3.279E3,7.33E2,2.56E2,1.79E2,2.1E1,4.6E1,4.37E2,2.842E3,2.67E2,4.66E2,2.5E1,2.1E1,2.49E2,1.88E2,2.356E3,4.86E2,1.09E2,1.58E2,3.54E2,1.12E2],"tree_param":{"num_deleted":"0","num_feature":"2","num_nodes":"25","size_leaf_vector":"1"}},{"base_weights":[-4.809095E-3,-6.277365E0,7.814108E-1,-6.5429487E0,-4.4821906E0,1.7012392E0,-3.3300586E0,-7.201468E-1,-5.566381E-1,-2.056574E-1,-5.52222E0,-8.7837315E-1,2.0980625E0,-5.401015E0,-2.1344562E0,-4.6658015E-1,-6.2833416E-1,1.7597035E-1,-4.363245E-1,2.6088628E-1,-3.7843358E-2,-3.7917912E-1,-6.480345E-1,-1.5216592E-1,-5.4751956E-1],"categories":[],"categories_nodes":[],"categories_segments":[],"categories_sizes":[],"default_left":[0,0,0,0,0,0,0,0,0,0,0,0,0,0,0,0,0,0,0,0,0,0,0,0,0],"id":5,"left_children":[1,3,5,7,9,11,13,-1,-1,-1,15,17,19,21,23,-1,-1,-1,-1,-1,-1,-1,-1,-1,-1],"loss_changes":[2.227112E4,2.1048828E2,1.5182213E4,2.4030078E2,1.6018762E2,3.359417E3,1.8058848E3,0E0,0E0,0E0,1.3195801E0,4.034369E3,3.5973652E3,4.409121E2,9.4770874E2,0E0,0E0,0E0,0E0,0E0,0E0,0E0,0E0,0E0,0E0],"parents":[2147483647,0,0,1,1,2,2,3,3,4,4,5,5,6,6,10,10,11,11,12,12,13,13,14,14],"right_children":[2,4,6,8,10,12,14,-1,-1,-1,16,18,20,22,24,-1,-1,-1,-1,-1,-1,-1,-1,-1,-1],"split_conditions":[4E0,3E0,2.1E1,5E0,2E0,7E0,4E0,-7.201468E-1,-5.566381E-1,-2.056574E-1,7E0,5E0,1.9E1,2.2E1,7E0,-4.6658015E-1,-6.2833416E-1,1.7597035E-1,-4.363245E-1,2.6088628E-1,-3.7843358E-2,-3.7917912E-1,-6.480345E-1,-1.5216592E-1,-5.4751956E-1],"split_indices":[1,1,1,0,0,1,0,0,0,0,0,0,1,1,0,0,0,0,0,0,0,0,0,0,0],"split_type":[0,0,0,0,0,0,0,0,0,0,0,0,0,0,0,0,0,0,0,0,0,0,0,0,0],"sum_hessian":[4.514E3,5.02E2,4.012E3,4.35E2,6.7E1,3.279E3,7.33E2,2.56E2,1.79E2,2.1E1,4.6E1,4.37E2,2.842E3,2.67E2,4.66E2,2.5E1,2.1E1,2.49E2,1.88E2,2.356E3,4.86E2,1.09E2,1.58E2,3.95E2,7.1E1],"tree_param":{"num_deleted":"0","num_feature":"2","num_nodes":"25","size_leaf_vector":"1"}},{"base_weights":[-5.289594E-3,-5.6547527E0,7.028303E-1,-5.891582E0,-4.0530977E0,1.5311041E0,-2.9994054E0,-6.484122E-1,-5.012836E-1,-1.860265E-1,-4.9932942E0,-2.506111E-1,2.0032556E0,-4.8647466E0,-1.9225085E0,-4.2171666E-1,-5.683568E-1,2.0834582E-1,-3.188421E-1,2.7292904E-1,1.7463315E-2,-3.4160593E-1,-5.8363867E-1,-1.1921938E-1,-4.1998467E-1],"categories":[],"categories_nodes":[],"categories_segments":[],"categories_sizes":[],"default_left":[0,0,0,0,0,0,0,0,0,0,0,0,0,0,0,0,0,0,0,0,0,0,0,0,0],"id":6,"left_children":[1,3,5,7,9,11,13,-1,-1,-1,15,17,19,21,23,-1,-1,-1,-1,-1,-1,-1,-1,-1,-1],"loss_changes":[1.8066219E4,1.6691797E2,1.2310315E4,1.9451855E2,1.3090637E2,2.759768E3,1.4650918E3,0E0,0E0,0E0,1.2111816E0,4.724295E3,3.4421016E3,3.573003E2,7.7169495E2,0E0,0E0,0E0,0E0,0E0,0E0,0E0,0E0,0E0,0E0],"parents":[2147483647,0,0,1,1,2,2,3,3,4,4,5,5,6,6,10,10,11,11,12,12,13,13,14,14],"right_children":[2,4,6,8,10,12,14,-1,-1,-1,16,18,20,22,24,-1,-1,-1,-1,-1,-1,-1,-1,-1,-1],"split_conditions":[4E0,3E0,2.1E1,5E0,2E0,9E0,4E0,-6.484122E-1,-5.012836E-1,-1.860265E-1,7E0,5E0,1.8E1,2.2E1,2.3E1,-4.2171666E-1,-5.683568E-1,2.0834582E-1,-3.188421E-1,2.7292904E-1,1.7463315E-2,-3.4160593E-1,-5.8363867E-1,-1.1921938E-1,-4.1998467E-1],"split_indices":[1,1,1,0,0,1,0,0,0,0,0,0,1,1,1,0,0,0,0,0,0,0,0,0,0],"split_type":[0,0,0,0,0,0,0,0,0,0,0,0,0,0,0,0,0,0,0,0,0,0,0,0,0],"sum_hessian":[4.514E3,5.02E2,4.012E3,4.35E2,6.7E1,3.279E3,7.33E2,2.56E2,1.79E2,2.1E1,4.6E1,6.87E2,2.592E3,2.67E2,4.66E2,2.5E1,2.1E1,3.83E2,3.04E2,1.855E3,7.37E2,1.09E2,1.58E2,3.54E2,1.12E2],"tree_param":{"num_deleted":"0","num_feature":"2","num_nodes":"25","size_leaf_vector":"1"}},{"base_weights":[-5.559952E-3,-5.093901E0,6.3222754E-1,-5.305061E0,-3.6650836E0,1.6801693E0,-1.7682492E0,-5.838233E-1,-4.5143372E-1,-1.6826941E-1,-4.5150304E0,2.776308E0,5.056503E-1,-7.9186827E-1,-3.5796733E0,-3.8116696E-1,-5.141046E-1,5.955376E-2,3.098014E-1,-3.5351774E-1,1.3692723E-1,-3.9812952E-1,-3.3706207E-2,-5.7373315E-1,-2.7942923E-1],"categories":[],"categories_nodes":[],"categories_segments":[],"categories_sizes":[],"default_left":[0,0,0,0,0,0,0,0,0,0,0,0,0,0,0,0,0,0,0,0,0,0,0,0,0],"id":7,"left_children":[1,3,5,7,9,11,13,-1,-1,-1,15,17,19,21,23,-1,-1,-1,-1,-1,-1,-1,-1,-1,-1],"loss_changes":[1.4655661E4,1.3231543E2,1.0097912E4,1.5745898E2,1.0697742E2,3.5956914E3,2.154906E3,0E0,0E0,0E0,1.098877E0,1.01191895E3,4.7160005E3,1.1504115E3,7.0755566E2,0E0,0E0,0E0,0E0,0E0,0E0,0E0,0E0,0E0,0E0],"parents":[2147483647,0,0,1,1,2,2,3,3,4,4,5,5,6,6,10,10,11,11,12,12,13,13,14,14],"right_children":[2,4,6,8,10,12,14,-1,-1,-1,16,18,20,22,24,-1,-1,-1,-1,-1,-1,-1,-1,-1,-1],"split_conditions":[4E0,3E0,1.9E1,5E0,2E0,5E0,2.2E1,-5.838233E-1,-4.5143372E-1,-1.6826941E-1,7E0,5E0,8E0,2E0,3E0,-3.8116696E-1,-5.141046E-1,5.955376E-2,3.098014E-1,-3.5351774E-1,1.3692723E-1,-3.9812952E-1,-3.3706207E-2,-5.7373315E-1,-2.7942923E-1],"split_indices":[1,1,1,0,0,0,1,0,0,0,0,1,1,0,0,0,0,0,0,0,0,0,0,0,0],"split_type":[0,0,0,0,0,0,0,0,0,0,0,0,0,0,0,0,0,0,0,0,0,0,0,0,0],"sum_hessian":[4.514E3,5.02E2,4.012E3,4.35E2,6.7E1,2.793E3,1.219E3,2.56E2,1.79E2,2.1E1,4.6E1,1.444E3,1.349E3,7.93E2,4.26E2,2.5E1,2.1E1,1.86E2,1.258E3,2.37E2,1.112E3,9.8E1,6.95E2,1.12E2,3.14E2],"tree_param":{"num_deleted":"0","num_feature":"2","num_nodes":"25","size_leaf_vector":"1"}},{"base_weights":[-5.71933E-3,-4.5886836E0,5.687229E-1,-4.7769294E0,-3.3142154E0,1.3836727E0,-1.9548755E0,-5.2566814E-1,-4.0654108E-1,-1.5220736E-1,-4.0825753E0,2.2406707E0,4.6309385E-1,-3.401385E0,-1.0330836E0,-3.4451625E-1,-4.6503097E-1,2.4989331E-1,-7.154701E-2,-3.1831452E-1,1.169974E-1,-2.409278E-1,-4.771439E-1,-5.0652213E-2,-3.826842E-1],"categories":[],"categories_nodes":[],"categories_segments":[],"categories_sizes":[],"default_left":[0,0,0,0,0,0,0,0,0,0,0,0,0,0,0,0,0,0,0,0,0,0,0,0,0],"id":8,"left_children":[1,3,5,7,9,11,13,-1,-1,-1,15,17,19,21,23,-1,-1,-1,-1,-1,-1,-1,-1,-1,-1],"loss_changes":[1.1889016E4,1.0484375E2,8.255865E3,1.2745996E2,8.742273E1,2.392588E3,1.3031995E3,0E0,0E0,0E0,9.873657E-1,1.2011841E3,3.7771167E3,5.063745E2,8.8071277E2,0E0,0E0,0E0,0E0,0E0,0E0,0E0,0E0,0E0,0E0],"parents":[2147483647,0,0,1,1,2,2,3,3,4,4,5,5,6,6,10,10,11,11,12,12,13,13,14,14],"right_children":[2,4,6,8,10,12,14,-1,-1,-1,16,18,20,22,24,-1,-1,-1,-1,-1,-1,-1,-1,-1,-1],"split_conditions":[4E0,3E0,2E1,5E0,2E0,5E0,4E0,-5.2566814E-1,-4.0654108E-1,-1.5220736E-1,7E0,1.9E1,8E0,2.2E1,7E0,-3.4451625E-1,-4.6503097E-1,2.4989331E-1,-7.154701E-2,-3.1831452E-1,1.169974E-1,-2.409278E-1,-4.771439E-1,-5.0652213E-2,-3.826842E-1],"split_indices":[1,1,1,0,0,0,0,0,0,0,0,1,1,1,0,0,0,0,0,0,0,0,0,0,0],"split_type":[0,0,0,0,0,0,0,0,0,0,0,0,0,0,0,0,0,0,0,0,0,0,0,0,0],"sum_hessian":[4.514E3,5.02E2,4.012E3,4.35E2,6.7E1,3.033E3,9.79E2,2.56E2,1.79E2,2.1E1,4.6E1,1.57E3,1.463E3,3.8E2,5.99E2,2.5E1,2.1E1,1.444E3,1.26E2,2.37E2,1.226E3,2.22E2,1.58E2,5.05E2,9.4E1],"tree_param":{"num_deleted":"0","num_feature":"2","num_nodes":"25","size_leaf_vector":"1"}},{"base_weights":[-5.8268574E-3,-4.1335807E0,5.115581E-1,-4.3013744E0,-2.9969375E0,1.1308761E0,-2.256663E0,-4.733059E-1,-3.6611286E-1,-1.3767847E-1,-3.6915421E0,-1.1719838E0,1.3656555E0,-3.643883E0,-1.4557389E0,-3.113897E-1,-4.2064163E-1,2.8774504E-2,-3.475351E-1,1.7778268E-1,1.127702E-2,-2.6662776E-1,-4.297296E-1,-9.6146226E-2,-4.1540417E-1],"categories":[],"categories_nodes":[],"categories_segments":[],"categories_sizes":[],"default_left":[0,0,0,0,0,0,0,0,0,0,0,0,0,0,0,0,0,0,0,0,0,0,0,0,0],"id":9,"left_children":[1,3,5,7,9,11,13,-1,-1,-1,15,17,19,21,23,-1,-1,-1,-1,-1,-1,-1,-1,-1,-1],"loss_changes":[9.644519E3,8.304199E1,6.882475E3,1.0317578E2,7.1442444E1,1.7749795E3,8.102124E2,0E0,0E0,0E0,8.800659E-1,1.0231365E3,1.5371323E3,1.5973535E2,6.1884766E2,0E0,0E0,0E0,0E0,0E0,0E0,0E0,0E0,0E0,0E0],"parents":[2147483647,0,0,1,1,2,2,3,3,4,4,5,5,6,6,10,10,11,11,12,12,13,13,14,14],"right_children":[2,4,6,8,10,12,14,-1,-1,-1,16,18,20,22,24,-1,-1,-1,-1,-1,-1,-1,-1,-1,-1],"split_conditions":[4E0,3E0,2.1E1,5E0,2E0,6E0,4E0,-4.733059E-1,-3.6611286E-1,-1.3767847E-1,7E0,5E0,1.8E1,2.2E1,7E0,-3.113897E-1,-4.2064163E-1,2.8774504E-2,-3.475351E-1,1.7778268E-1,1.127702E-2,-2.6662776E-1,-4.297296E-1,-9.6146226E-2,-4.1540417E-1],"split_indices":[1,1,1,0,0,1,0,0,0,0,0,0,1,1,0,0,0,0,0,0,0,0,0,0,0],"split_type":[0,0,0,0,0,0,0,0,0,0,0,0,0,0,0,0,0,0,0,0,0,0,0,0,0],"sum_hessian":[4.514E3,5.02E2,4.012E3,4.35E2,6.7E1,3.279E3,7.33E2,2.56E2,1.79E2,2.1E1,4.6E1,3.03E2,2.976E3,2.67E2,4.66E2,2.5E1,2.1E1,1.86E2,1.17E2,2.239E3,7.37E2,1.09E2,1.58E2,3.95E2,7.1E1],"tree_param":{"num_deleted":"0","num_feature":"2","num_nodes":"25","size_leaf_vector":"1"}},{"base_weights":[-5.9186546E-3,-3.7236204E0,4.6006936E-1,-3.8731625E0,-2.7100337E0,1.0177493E0,-2.0326424E0,-4.2615947E-1,-3.2970497E-1,-1.2453647E-1,-3.337963E0,-3.1083342E-1,1.3698694E0,-3.2820933E0,-1.31126E0,-2.814484E-1,-3.8048947E-1,1.3334887E-1,-2.3800425E-1,1.8734686E-1,1.0150857E-2,-2.4020743E-1,-3.8702694E-1,-6.972714E-2,-3.2285586E-1],"categories":[],"categories_nodes":[],"categories_segments":[],"categories_sizes":[],"default_left":[0,0,0,0,0,0,0,0,0,0,0,0,0,0,0,0,0,0,0,0,0,0,0,0,0],"id":10,"left_children":[1,3,5,7,9,11,13,-1,-1,-1,15,17,19,21,23,-1,-1,-1,-1,-1,-1,-1,-1,-1,-1],"loss_changes":[7.8235195E3,6.574512E1,5.580682E3,8.351807E1,5.838324E1,1.5348772E3,6.572737E2,0E0,0E0,0E0,7.793579E-1,2.3440566E3,1.6560776E3,1.2942212E2,5.47501E2,0E0,0E0,0E0,0E0,0E0,0E0,0E0,0E0,0E0,0E0],"parents":[2147483647,0,0,1,1,2,2,3,3,4,4,5,5,6,6,10,10,11,11,12,12,13,13,14,14],"right_children":[2,4,6,8,10,12,14,-1,-1,-1,16,18,20,22,24,-1,-1,-1,-1,-1,-1,-1,-1,-1,-1],"split_conditions":[4E0,3E0,2.1E1,5E0,2E0,9E0,4E0,-4.2615947E-1,-3.2970497E-1,-1.2453647E-1,7E0,5E0,1.8E1,2.2E1,2.3E1,-2.814484E-1,-3.8048947E-1,1.3334887E-1,-2.3800425E-1,1.8734686E-1,1.0150857E-2,-2.4020743E-1,-3.8702694E-1,-6.972714E-2,-3.2285586E-1],"split_indices":[1,1,1,0,0,1,0,0,0,0,0,0,1,1,1,0,0,0,0,0,0,0,0,0,0],"split_type":[0,0,0,0,0,0,0,0,0,0,0,0,0,0,0,0,0,0,0,0,0,0,0,0,0],"sum_hessian":[4.514E3,5.02E2,4.012E3,4.35E2,6.7E1,3.279E3,7.33E2,2.56E2,1.79E2,2.1E1,4.6E1,6.87E2,2.592E3,2.67E2,4.66E2,2.5E1,2.1E1,3.83E2,3.04E2,1.855E3,7.37E2,1.09E2,1.58E2,3.54E2,1.12E2],"tree_param":{"num_deleted":"0","num_feature":"2","num_nodes":"25","size_leaf_vector":"1"}},{"base_weights":[-5.8739022E-3,-3.3543248E0,4.1383123E-1,-3.48758E0,-2.450596E0,9.1600245E-1,-1.8307675E0,-3.8370937E-1,-2.9691768E-1,-1.126489E-1,-3.0182507E0,1.1351166E0,-8.9829993E-1,-2.9562244E0,-1.1809748E0,-2.5438604E-1,-3.4417006E-1,1.3469568E-1,-1.39653105E-2,-3.5925987E-1,1.0382737E-2,-3.7200648E-1,-2.3924898E-1,-7.391176E-2,-3.5947877E-1],"categories":[],"categories_nodes":[],"categories_segments":[],"categories_sizes":[],"default_left":[0,0,0,0,0,0,0,0,0,0,0,0,0,0,0,0,0,0,0,0,0,0,0,0,0],"id":11,"left_children":[1,3,5,7,9,11,13,-1,-1,-1,15,17,19,21,23,-1,-1,-1,-1,-1,-1,-1,-1,-1,-1],"loss_changes":[6.3465977E3,5.2027832E1,4.525022E3,6.760547E1,4.771118E1,1.3049482E3,5.3329297E2,0E0,0E0,0E0,6.8618774E-1,7.906167E2,9.561837E2,1.06501465E2,4.9542688E2,0E0,0E0,0E0,0E0,0E0,0E0,0E0,0E0,0E0,0E0],"parents":[2147483647,0,0,1,1,2,2,3,3,4,4,5,5,6,6,10,10,11,11,12,12,13,13,14,14],"right_children":[2,4,6,8,10,12,14,-1,-1,-1,16,18,20,22,24,-1,-1,-1,-1,-1,-1,-1,-1,-1,-1],"split_conditions":[4E0,3E0,2.1E1,5E0,2E0,7E0,4E0,-3.8370937E-1,-2.9691768E-1,-1.126489E-1,7E0,1.9E1,9E0,2E0,7E0,-2.5438604E-1,-3.4417006E-1,1.3469568E-1,-1.39653105E-2,-3.5925987E-1,1.0382737E-2,-3.7200648E-1,-2.3924898E-1,-7.391176E-2,-3.5947877E-1],"split_indices":[1,1,1,0,0,0,0,0,0,0,0,1,1,0,0,0,0,0,0,0,0,0,0,0,0],"split_type":[0,0,0,0,0,0,0,0,0,0,0,0,0,0,0,0,0,0,0,0,0,0,0,0,0],"sum_hessian":[4.514E3,5.02E2,4.012E3,4.35E2,6.7E1,3.279E3,7.33E2,2.56E2,1.79E2,2.1E1,4.6E1,2.926E3,3.53E2,2.67E2,4.66E2,2.5E1,2.1E1,2.509E3,4.17E2,9.5E1,2.58E2,1.11E2,1.56E2,3.95E2,7.1E1],"tree_param":{"num_deleted":"0","num_feature":"2","num_nodes":"25","size_leaf_vector":"1"}},{"base_weights":[-5.876398E-3,-2.3007858E0,4.926958E-1,-3.0216594E0,-1.100456E0,1.262138E0,-1.0787576E0,-3.140383E0,-2.2159953E0,-7.485497E-3,-2.8232105E0,2.0862784E0,4.1959542E-1,-3.3101113E0,-7.217338E-1,-3.454877E-1,-2.6739088E-1,-1.0189604E-1,-2.7291608E-1,-4.749093E-2,4.8034243E-2,-1.9421902E-1,-3.9825544E-1,1.7799838E-1,2.9870436E-1,-1.6725664E-1,7.9522334E-2,-3.0399546E-1,-3.6449027E-1,-5.6448625E-3,-2.0131214E-1],"categories":[],"categories_nodes":[],"categories_segments":[],"categories_sizes":[],"default_left":[0,0,0,0,0,0,0,0,0,0,0,0,0,0,0,0,0,0,0,0,0,0,0,0,0,0,0,0,0,0,0],"id":12,"left_children":[1,3,5,7,9,11,13,15,17,19,21,23,25,27,29,-1,-1,-1,-1,-1,-1,-1,-1,-1,-1,-1,-1,-1,-1,-1,-1],"loss_changes":[5.167097E3,6.940957E2,4.4872812E3,4.115332E1,5.7238654E2,1.7288091E3,9.695199E2,5.472461E1,3.898993E1,4.2868298E1,1.12791016E2,3.4204053E2,9.7031335E2,4.114624E0,9.045618E2,0E0,0E0,0E0,0E0,0E0,0E0,0E0,0E0,0E0,0E0,0E0,0E0,0E0,0E0,0E0,0E0],"parents":[2147483647,0,0,1,1,2,2,3,3,4,4,5,5,6,6,7,7,8,8,9,9,10,10,11,11,12,12,13,13,14,14],"right_children":[2,4,6,8,10,12,14,16,18,20,22,24,26,28,30,-1,-1,-1,-1,-1,-1,-1,-1,-1,-1,-1,-1,-1,-1,-1,-1],"split_conditions":[6E0,4E0,1.9E1,3E0,5E0,5E0,2E0,5E0,2E0,3E0,7E0,4E0,9E0,2.2E1,2.2E1,-3.454877E-1,-2.6739088E-1,-1.0189604E-1,-2.7291608E-1,-4.749093E-2,4.8034243E-2,-1.9421902E-1,-3.9825544E-1,1.7799838E-1,2.9870436E-1,-1.6725664E-1,7.9522334E-2,-3.0399546E-1,-3.6449027E-1,-5.6448625E-3,-2.0131214E-1],"split_indices":[1,1,1,1,0,0,0,0,0,0,0,0,1,1,1,0,0,0,0,0,0,0,0,0,0,0,0,0,0,0,0],"split_type":[0,0,0,0,0,0,0,0,0,0,0,0,0,0,0,0,0,0,0,0,0,0,0,0,0,0,0,0,0,0,0],"sum_hessian":[4.514E3,8.05E2,3.709E3,5.02E2,3.03E2,2.49E3,1.219E3,4.35E2,6.7E1,1.86E2,1.17E2,1.258E3,1.232E3,1.67E2,1.052E3,2.56E2,1.79E2,2.1E1,4.6E1,9.5E1,9.1E1,6.8E1,4.9E1,9.41E2,3.17E2,1.87E2,1.045E3,9.8E1,6.9E1,6.95E2,3.57E2],"tree_param":{"num_deleted":"0","num_feature":"2","num_nodes":"31","size_leaf_vector":"1"}},{"base_weights":[-5.7464126E-3,-2.0726671E0,4.4329506E-1,-2.7214572E0,-9.923578E-1,1.1360804E0,-9.715996E-1,-2.8277507E0,-1.9999077E0,-6.734185E-3,-2.5459108E0,1.87803E0,3.7756404E-1,-2.0422015E0,-3.1864882E-1,-3.110734E-1,-2.4080037E-1,-9.2169575E-2,-2.4620514E-1,-4.2791292E-2,4.3282986E-2,-1.7507865E-1,-3.5922644E-1,1.6021752E-1,2.689279E-1,-2.0665768E-1,6.4294E-2,-2.9830799E-1,-1.4994566E-1,7.6382854E-3,-2.5776473E-1],"categories":[],"categories_nodes":[],"categories_segments":[],"categories_sizes":[],"default_left":[0,0,0,0,0,0,0,0,0,0,0,0,0,0,0,0,0,0,0,0,0,0,0,0,0,0,0,0,0,0,0],"id":13,"left_children":[1,3,5,7,9,11,13,15,17,19,21,23,25,27,29,-1,-1,-1,-1,-1,-1,-1,-1,-1,-1,-1,-1,-1,-1,-1,-1],"loss_changes":[4.19144E3,5.6222E2,3.6377136E3,3.292285E1,4.6547327E2,1.4011777E3,8.521907E2,4.429785E1,3.161441E1,3.480546E1,9.188452E1,2.7743945E2,8.010726E2,2.3145032E2,6.775102E2,0E0,0E0,0E0,0E0,0E0,0E0,0E0,0E0,0E0,0E0,0E0,0E0,0E0,0E0,0E0,0E0],"parents":[2147483647,0,0,1,1,2,2,3,3,4,4,5,5,6,6,7,7,8,8,9,9,10,10,11,11,12,12,13,13,14,14],"right_children":[2,4,6,8,10,12,14,16,18,20,22,24,26,28,30,-1,-1,-1,-1,-1,-1,-1,-1,-1,-1,-1,-1,-1,-1,-1,-1],"split_conditions":[6E0,4E0,1.9E1,3E0,5E0,5E0,4E0,5E0,2E0,3E0,7E0,4E0,8E0,2E0,2.3E1,-3.110734E-1,-2.4080037E-1,-9.2169575E-2,-2.4620514E-1,-4.2791292E-2,4.3282986E-2,-1.7507865E-1,-3.5922644E-1,1.6021752E-1,2.689279E-1,-2.0665768E-1,6.4294E-2,-2.9830799E-1,-1.4994566E-1,7.6382854E-3,-2.5776473E-1],"split_indices":[1,1,1,1,0,0,0,0,0,0,0,0,1,0,1,0,0,0,0,0,0,0,0,0,0,0,0,0,0,0,0],"split_type":[0,0,0,0,0,0,0,0,0,0,0,0,0,0,0,0,0,0,0,0,0,0,0,0,0,0,0,0,0,0,0],"sum_hessian":[4.514E3,8.05E2,3.709E3,5.02E2,3.03E2,2.49E3,1.219E3,4.35E2,6.7E1,1.86E2,1.17E2,1.258E3,1.232E3,4.61E2,7.58E2,2.56E2,1.79E2,2.1E1,4.6E1,9.5E1,9.1E1,6.8E1,4.9E1,9.41E2,3.17E2,1.2E2,1.112E3,1.67E2,2.94E2,6.46E2,1.12E2],"tree_param":{"num_deleted":"0","num_feature":"2","num_nodes":"31","size_leaf_vector":"1"}},{"base_weights":[-5.578504E-3,-1.8671674E0,3.9885443E-1,-2.4510813E0,-8.9487815E-1,1.0225871E0,-8.750119E-1,-2.5462413E0,-1.8048929E0,-6.058321E-3,-2.295848E0,1.6905679E0,3.396915E-1,-3.1523767E-1,-1.9138545E0,-2.8008708E-1,-2.168541E-1,-8.337155E-2,-2.2210847E-1,-3.855673E-2,3.9001685E-2,-1.5782453E-1,-3.2402226E-1,1.2316326E-1,2.1410456E-1,-1.3972041E-1,6.51543E-2,-1.379374E-1,3.442586E-2,-1.622815E-1,-4.2324123E-1],"categories":[],"categories_nodes":[],"categories_segments":[],"categories_sizes":[],"default_left":[0,0,0,0,0,0,0,0,0,0,0,0,0,0,0,0,0,0,0,0,0,0,0,0,0,0,0,0,0,0,0],"id":14,"left_children":[1,3,5,7,9,11,13,15,17,19,21,23,25,27,29,-1,-1,-1,-1,-1,-1,-1,-1,-1,-1,-1,-1,-1,-1,-1,-1],"loss_changes":[3.4000332E3,4.5539966E2,2.9486829E3,2.6334473E1,3.785298E2,1.1357231E3,7.088478E2,3.5858154E1,2.563356E1,2.825911E1,7.485303E1,2.5764917E2,6.6876904E2,5.5769916E2,2.8126782E2,0E0,0E0,0E0,0E0,0E0,0E0,0E0,0E0,0E0,0E0,0E0,0E0,0E0,0E0,0E0,0E0],"parents":[2147483647,0,0,1,1,2,2,3,3,4,4,5,5,6,6,7,7,8,8,9,9,10,10,11,11,12,12,13,13,14,14],"right_children":[2,4,6,8,10,12,14,16,18,20,22,24,26,28,30,-1,-1,-1,-1,-1,-1,-1,-1,-1,-1,-1,-1,-1,-1,-1,-1],"split_conditions":[6E0,4E0,1.9E1,3E0,5E0,5E0,2.2E1,5E0,2E0,3E0,7E0,1.3E1,9E0,4E0,7E0,-2.8008708E-1,-2.168541E-1,-8.337155E-2,-2.2210847E-1,-3.855673E-2,3.9001685E-2,-1.5782453E-1,-3.2402226E-1,1.2316326E-1,2.1410456E-1,-1.3972041E-1,6.51543E-2,-1.379374E-1,3.442586E-2,-1.622815E-1,-4.2324123E-1],"split_indices":[1,1,1,1,0,0,1,0,0,0,0,1,1,0,0,0,0,0,0,0,0,0,0,0,0,0,0,0,0,0,0],"split_type":[0,0,0,0,0,0,0,0,0,0,0,0,0,0,0,0,0,0,0,0,0,0,0,0,0,0,0,0,0,0,0],"sum_hessian":[4.514E3,8.05E2,3.709E3,5.02E2,3.03E2,2.49E3,1.219E3,4.35E2,6.7E1,1.86E2,1.17E2,1.258E3,1.232E3,7.93E2,4.26E2,2.56E2,1.79E2,2.1E1,4.6E1,9.5E1,9.1E1,6.8E1,4.9E1,6.25E2,6.33E2,1.87E2,1.045E3,3.03E2,4.9E2,3.8E2,4.6E1],"tree_param":{"num_deleted":"0","num_feature":"2","num_nodes":"31","size_leaf_vector":"1"}},{"base_weights":[-5.399483E-3,-1.6820434E0,3.58854E-1,-2.2075686E0,-8.0697376E-1,7.586469E-1,-1.2631382E0,-2.292757E0,-1.6288961E0,-5.4498254E-3,-2.0703466E0,1.0082006E0,1.6584499E-4,-2.0905247E0,-7.856163E-1,-2.521874E-1,-1.9528916E-1,-7.54134E-2,-2.0037019E-1,-3.4741186E-2,3.5143934E-2,-1.4227082E-1,-2.9226807E-1,1.6680126E-1,3.5042852E-2,-1.7591272E-1,5.3384878E-2,-1.4148645E-1,-2.5448146E-1,-4.2210355E-2,-2.774025E-1],"categories":[],"categories_nodes":[],"categories_segments":[],"categories_sizes":[],"default_left":[0,0,0,0,0,0,0,0,0,0,0,0,0,0,0,0,0,0,0,0,0,0,0,0,0,0,0,0,0,0,0],"id":15,"left_children":[1,3,5,7,9,11,13,15,17,19,21,23,25,27,29,-1,-1,-1,-1,-1,-1,-1,-1,-1,-1,-1,-1,-1,-1,-1,-1],"loss_changes":[2.75802E3,3.6887476E2,2.406748E3,2.1061035E1,3.0782623E2,5.634917E2,2.8835754E2,2.9026123E1,2.0783829E1,2.2944048E1,6.0978424E1,9.715886E2,6.938507E2,7.866077E1,3.3638223E2,0E0,0E0,0E0,0E0,0E0,0E0,0E0,0E0,0E0,0E0,0E0,0E0,0E0,0E0,0E0,0E0],"parents":[2147483647,0,0,1,1,2,2,3,3,4,4,5,5,6,6,7,7,8,8,9,9,10,10,11,11,12,12,13,13,14,14],"right_children":[2,4,6,8,10,12,14,16,18,20,22,24,26,28,30,-1,-1,-1,-1,-1,-1,-1,-1,-1,-1,-1,-1,-1,-1,-1,-1],"split_conditions":[6E0,4E0,2.1E1,3E0,5E0,1.8E1,4E0,5E0,2E0,3E0,7E0,5E0,3E0,2.2E1,7E0,-2.521874E-1,-1.9528916E-1,-7.54134E-2,-2.0037019E-1,-3.4741186E-2,3.5143934E-2,-1.4227082E-1,-2.9226807E-1,1.6680126E-1,3.5042852E-2,-1.7591272E-1,5.3384878E-2,-1.4148645E-1,-2.5448146E-1,-4.2210355E-2,-2.774025E-1],"split_indices":[1,1,1,1,0,1,0,0,0,0,0,0,0,1,0,0,0,0,0,0,0,0,0,0,0,0,0,0,0,0,0],"split_type":[0,0,0,0,0,0,0,0,0,0,0,0,0,0,0,0,0,0,0,0,0,0,0,0,0,0,0,0,0,0,0],"sum_hessian":[4.514E3,8.05E2,3.709E3,5.02E2,3.03E2,2.976E3,7.33E2,4.35E2,6.7E1,1.86E2,1.17E2,2.239E3,7.37E2,2.67E2,4.66E2,2.56E2,1.79E2,2.1E1,4.6E1,9.5E1,9.1E1,6.8E1,4.9E1,1.117E3,1.122E3,1.71E2,5.66E2,1.09E2,1.58E2,3.95E2,7.1E1],"tree_param":{"num_deleted":"0","num_feature":"2","num_nodes":"31","size_leaf_vector":"1"}},{"base_weights":[-5.257025E-3,-1.5152752E0,3.2279688E-1,-1.9882497E0,-7.277048E-1,6.828085E-1,-1.1377993E0,-2.1694484E0,-1.7601833E0,-4.903508E-3,-1.8669943E0,9.074702E-1,-1.661435E-5,-1.88295E0,-7.077389E-1,-2.3352902E-1,-1.8123816E-1,-1.8717863E-1,-1.470062E-1,-3.130333E-2,3.1667653E-2,-1.282499E-1,-2.6362577E-1,1.5013604E-1,3.1541616E-2,-1.13953136E-1,7.11241E-2,-1.2746647E-1,-2.2919337E-1,-3.7999958E-2,-2.500475E-1],"categories":[],"categories_nodes":[],"categories_segments":[],"categories_sizes":[],"default_left":[0,0,0,0,0,0,0,0,0,0,0,0,0,0,0,0,0,0,0,0,0,0,0,0,0,0,0,0,0,0,0],"id":16,"left_children":[1,3,5,7,9,11,13,15,17,19,21,23,25,27,29,-1,-1,-1,-1,-1,-1,-1,-1,-1,-1,-1,-1,-1,-1,-1,-1],"loss_changes":[2.2370728E3,2.987887E2,1.951612E3,1.6967896E1,2.5032872E2,4.5668567E2,2.3388477E2,1.2111328E1,4.6306763E0,1.862866E1,4.9675446E1,7.871444E2,5.98951E2,6.375128E1,2.7343567E2,0E0,0E0,0E0,0E0,0E0,0E0,0E0,0E0,0E0,0E0,0E0,0E0,0E0,0E0,0E0,0E0],"parents":[2147483647,0,0,1,1,2,2,3,3,4,4,5,5,6,6,7,7,8,8,9,9,10,10,11,11,12,12,13,13,14,14],"right_children":[2,4,6,8,10,12,14,16,18,20,22,24,26,28,30,-1,-1,-1,-1,-1,-1,-1,-1,-1,-1,-1,-1,-1,-1,-1,-1],"split_conditions":[6E0,4E0,2.1E1,2E0,5E0,1.8E1,4E0,5E0,3E0,3E0,7E0,5E0,4E0,2.2E1,7E0,-2.3352902E-1,-1.8123816E-1,-1.8717863E-1,-1.470062E-1,-3.130333E-2,3.1667653E-2,-1.282499E-1,-2.6362577E-1,1.5013604E-1,3.1541616E-2,-1.13953136E-1,7.11241E-2,-1.2746647E-1,-2.2919337E-1,-3.7999958E-2,-2.500475E-1],"split_indices":[1,1,1,1,0,1,0,0,1,0,0,0,0,1,0,0,0,0,0,0,0,0,0,0,0,0,0,0,0,0,0],"split_type":[0,0,0,0,0,0,0,0,0,0,0,0,0,0,0,0,0,0,0,0,0,0,0,0,0,0,0,0,0,0,0],"sum_hessian":[4.514E3,8.05E2,3.709E3,5.02E2,3.03E2,2.976E3,7.33E2,2.75E2,2.27E2,1.86E2,1.17E2,2.239E3,7.37E2,2.67E2,4.66E2,1.84E2,9.1E1,1.6E2,6.7E1,9.5E1,9.1E1,6.8E1,4.9E1,1.117E3,1.122E3,2.83E2,4.54E2,1.09E2,1.58E2,3.95E2,7.1E1],"tree_param":{"num_deleted":"0","num_feature":"2","num_nodes":"31","size_leaf_vector":"1"}},{"base_weights":[-5.096261E-3,-1.3651627E0,2.9038045E-1,-1.7909137E0,-6.562222E-1,6.1457384E-1,-1.0248977E0,-1.9540064E0,-1.5856308E0,-4.4111977E-3,-1.6836157E0,7.3604995E-1,-4.5204952E-1,-1.695986E0,-6.3758165E-1,-2.1030235E-1,-1.6331135E-1,-1.6857703E-1,-1.3252178E-1,-2.8205598E-2,2.8535305E-2,-1.15610756E-1,-2.3779047E-1,9.432798E-2,8.434999E-3,-1.4621867E-1,3.3754606E-2,-1.1483572E-1,-2.064182E-1,-2.2195438E-2,-1.937671E-1],"categories":[],"categories_nodes":[],"categories_segments":[],"categories_sizes":[],"default_left":[0,0,0,0,0,0,0,0,0,0,0,0,0,0,0,0,0,0,0,0,0,0,0,0,0,0,0,0,0,0,0],"id":17,"left_children":[1,3,5,7,9,11,13,15,17,19,21,23,25,27,29,-1,-1,-1,-1,-1,-1,-1,-1,-1,-1,-1,-1,-1,-1,-1,-1],"loss_changes":[1.8148303E3,2.4210132E2,1.5825905E3,1.374231E1,2.0357115E2,3.8606042E2,1.8970227E2,9.763306E0,3.711609E0,1.512492E1,4.046756E1,3.6091345E2,2.4376152E2,5.1667725E1,2.5191458E2,0E0,0E0,0E0,0E0,0E0,0E0,0E0,0E0,0E0,0E0,0E0,0E0,0E0,0E0,0E0,0E0],"parents":[2147483647,0,0,1,1,2,2,3,3,4,4,5,5,6,6,7,7,8,8,9,9,10,10,11,11,12,12,13,13,14,14],"right_children":[2,4,6,8,10,12,14,16,18,20,22,24,26,28,30,-1,-1,-1,-1,-1,-1,-1,-1,-1,-1,-1,-1,-1,-1,-1,-1],"split_conditions":[6E0,4E0,2.1E1,2E0,5E0,7E0,4E0,5E0,3E0,3E0,7E0,1.8E1,1.4E1,2.2E1,2.3E1,-2.1030235E-1,-1.6331135E-1,-1.6857703E-1,-1.3252178E-1,-2.8205598E-2,2.8535305E-2,-1.15610756E-1,-2.3779047E-1,9.432798E-2,8.434999E-3,-1.4621867E-1,3.3754606E-2,-1.1483572E-1,-2.064182E-1,-2.2195438E-2,-1.937671E-1],"split_indices":[1,1,1,1,0,0,0,0,1,0,0,1,1,1,1,0,0,0,0,0,0,0,0,0,0,0,0,0,0,0,0],"split_type":[0,0,0,0,0,0,0,0,0,0,0,0,0,0,0,0,0,0,0,0,0,0,0,0,0,0,0,0,0,0,0],"sum_hessian":[4.514E3,8.05E2,3.709E3,5.02E2,3.03E2,2.976E3,7.33E2,2.75E2,2.27E2,1.86E2,1.17E2,2.672E3,3.04E2,2.67E2,4.66E2,1.84E2,9.1E1,1.6E2,6.7E1,9.5E1,9.1E1,6.8E1,4.9E1,2.027E3,6.45E2,1.33E2,1.71E2,1.09E2,1.58E2,3.54E2,1.12E2],"tree_param":{"num_deleted":"0","num_feature":"2","num_nodes":"31","size_leaf_vector":"1"}},{"base_weights":[-4.935309E-3,-1.2299216E0,2.6119512E-1,-1.6131637E0,-5.917614E-1,6.752427E-1,-5.8442277E-1,-1.7599593E0,-1.4283884E0,-3.968448E-3,-1.5182488E0,1.1629248E0,1.7672937E-1,-2.0662439E-1,-3.4745187E-1,-1.8938579E-1,-1.4715771E-1,-1.5182403E-1,-1.19464494E-1,-2.5414392E-2,2.5712738E-2,-1.04217194E-1,-2.1448699E-1,6.9805674E-2,1.6200928E-1,-1.838909E-1,3.9570108E-2,6.2281797E-3,-1.14305854E-1],"categories":[],"categories_nodes":[],"categories_segments":[],"categories_sizes":[],"default_left":[0,0,0,0,0,0,0,0,0,0,0,0,0,0,0,0,0,0,0,0,0,0,0,0,0,0,0,0,0],"id":18,"left_children":[1,3,5,7,9,11,13,15,17,19,21,23,25,-1,27,-1,-1,-1,-1,-1,-1,-1,-1,-1,-1,-1,-1,-1,-1],"loss_changes":[1.4722389E3,1.961687E2,1.2993623E3,1.1129517E1,1.6554716E2,6.053965E2,4.2768317E2,7.8706055E0,2.9747314E0,1.2280144E1,3.29664E1,2.6643542E2,5.449341E2,0E0,3.4333533E2,0E0,0E0,0E0,0E0,0E0,0E0,0E0,0E0,0E0,0E0,0E0,0E0,0E0,0E0],"parents":[2147483647,0,0,1,1,2,2,3,3,4,4,5,5,6,6,7,7,8,8,9,9,10,10,11,11,12,12,14,14],"right_children":[2,4,6,8,10,12,14,16,18,20,22,24,26,-1,28,-1,-1,-1,-1,-1,-1,-1,-1,-1,-1,-1,-1,-1,-1],"split_conditions":[6E0,4E0,1.9E1,2E0,5E0,5E0,2E0,5E0,3E0,3E0,7E0,1.3E1,8E0,-2.0662439E-1,2.2E1,-1.8938579E-1,-1.4715771E-1,-1.5182403E-1,-1.19464494E-1,-2.5414392E-2,2.5712738E-2,-1.04217194E-1,-2.1448699E-1,6.9805674E-2,1.6200928E-1,-1.838909E-1,3.9570108E-2,6.2281797E-3,-1.14305854E-1],"split_indices":[1,1,1,1,0,0,0,0,1,0,0,1,1,0,1,0,0,0,0,0,0,0,0,0,0,0,0,0,0],"split_type":[0,0,0,0,0,0,0,0,0,0,0,0,0,0,0,0,0,0,0,0,0,0,0,0,0,0,0,0,0],"sum_hessian":[4.514E3,8.05E2,3.709E3,5.02E2,3.03E2,2.49E3,1.219E3,2.75E2,2.27E2,1.86E2,1.17E2,1.258E3,1.232E3,1.67E2,1.052E3,1.84E2,9.1E1,1.6E2,6.7E1,9.5E1,9.1E1,6.8E1,4.9E1,6.25E2,6.33E2,1.2E2,1.112E3,6.95E2,3.57E2],"tree_param":{"num_deleted":"0","num_feature":"2","num_nodes":"29","size_leaf_vector":"1"}},{"base_weights":[-4.697293E-3,-1.1080785E0,2.3501429E-1,-1.4530556E0,-5.336325E-1,6.760263E-1,-4.3670693E-1,-1.5851827E0,-1.2867393E0,-3.5700006E-3,-1.3691247E0,1.1467947E0,2.0675199E-1,-1.2235473E0,3.4504525E-2,-1.7054956E-1,-1.326019E-1,-1.3673593E-1,-1.0769373E-1,-2.2899404E-2,2.3169389E-2,-9.394649E-2,-1.9346726E-1,6.283631E-2,1.802761E-1,-1.2561515E-1,5.003621E-2,-1.788396E-1,-9.284509E-2,6.67439E-2,-5.9576463E-2],"categories":[],"categories_nodes":[],"categories_segments":[],"categories_sizes":[],"default_left":[0,0,0,0,0,0,0,0,0,0,0,0,0,0,0,0,0,0,0,0,0,0,0,0,0,0,0,0,0,0,0],"id":19,"left_children":[1,3,5,7,9,11,13,15,17,19,21,23,25,27,29,-1,-1,-1,-1,-1,-1,-1,-1,-1,-1,-1,-1,-1,-1,-1,-1],"loss_changes":[1.1944475E3,1.5895013E2,1.099335E3,9.013672E0,1.3462547E2,4.9462244E2,5.4544226E2,6.3442993E0,2.3839111E0,9.970441E0,2.6855637E1,3.7906958E2,4.829832E2,9.018286E1,3.678021E2,0E0,0E0,0E0,0E0,0E0,0E0,0E0,0E0,0E0,0E0,0E0,0E0,0E0,0E0,0E0,0E0],"parents":[2147483647,0,0,1,1,2,2,3,3,4,4,5,5,6,6,7,7,8,8,9,9,10,10,11,11,12,12,13,13,14,14],"right_children":[2,4,6,8,10,12,14,16,18,20,22,24,26,28,30,-1,-1,-1,-1,-1,-1,-1,-1,-1,-1,-1,-1,-1,-1,-1,-1],"split_conditions":[6E0,4E0,1.8E1,2E0,5E0,5E0,4E0,5E0,3E0,3E0,7E0,1.3E1,9E0,2E0,6E0,-1.7054956E-1,-1.326019E-1,-1.3673593E-1,-1.0769373E-1,-2.2899404E-2,2.3169389E-2,-9.394649E-2,-1.9346726E-1,6.283631E-2,1.802761E-1,-1.2561515E-1,5.003621E-2,-1.788396E-1,-9.284509E-2,6.67439E-2,-5.9576463E-2],"split_indices":[1,1,1,1,0,0,0,0,1,0,0,1,1,0,0,0,0,0,0,0,0,0,0,0,0,0,0,0,0,0,0],"split_type":[0,0,0,0,0,0,0,0,0,0,0,0,0,0,0,0,0,0,0,0,0,0,0,0,0,0,0,0,0,0,0],"sum_hessian":[4.514E3,8.05E2,3.709E3,5.02E2,3.03E2,2.239E3,1.47E3,2.75E2,2.27E2,1.86E2,1.17E2,1.117E3,1.122E3,5.5E2,9.2E2,1.84E2,9.1E1,1.6E2,6.7E1,9.5E1,9.1E1,6.8E1,4.9E1,6.25E2,4.92E2,1.87E2,9.35E2,1.87E2,3.63E2,4.59E2,4.61E2],"tree_param":{"num_deleted":"0","num_feature":"2","num_nodes":"31","size_leaf_vector":"1"}},{"base_weights":[-4.4337725E-3,-9.983062E-1,2.1148688E-1,-1.3088387E0,-4.8121357E-1,4.5925134E-1,-7.9369885E-1,-1.4277629E0,-1.1591375E0,-3.211042E-3,-1.234648E0,5.5864215E-1,-4.1330856E-1,-6.563325E-1,-2.0475905E0,-1.1727343E-1,-1.5428688E-1,-1.23147264E-1,-9.7082734E-2,-2.0633295E-2,2.0877717E-2,-8.4688E-2,-1.7450748E-1,7.078837E-2,8.926066E-3,-1.3090101E-1,2.8690835E-2,-1.2774883E-1,-2.3429697E-2,-2.0002572E-2,-3.026082E-1],"categories":[],"categories_nodes":[],"categories_segments":[],"categories_sizes":[],"default_left":[0,0,0,0,0,0,0,0,0,0,0,0,0,0,0,0,0,0,0,0,0,0,0,0,0,0,0,0,0,0,0],"id":20,"left_children":[1,3,5,7,9,11,13,15,17,19,21,23,25,27,29,-1,-1,-1,-1,-1,-1,-1,-1,-1,-1,-1,-1,-1,-1,-1,-1],"loss_changes":[9.6911926E2,1.2879291E2,9.243375E2,7.2998657E0,1.0947967E2,2.5840942E2,1.2508209E2,6.2927246E0,1.9101562E0,8.095194E0,2.1877518E1,1.8718372E2,1.9166708E2,1.7350598E2,1.2955817E2,0E0,0E0,0E0,0E0,0E0,0E0,0E0,0E0,0E0,0E0,0E0,0E0,0E0,0E0,0E0,0E0],"parents":[2147483647,0,0,1,1,2,2,3,3,4,4,5,5,6,6,7,7,8,8,9,9,10,10,11,11,12,12,13,13,14,14],"right_children":[2,4,6,8,10,12,14,16,18,20,22,24,26,28,30,-1,-1,-1,-1,-1,-1,-1,-1,-1,-1,-1,-1,-1,-1,-1,-1],"split_conditions":[6E0,4E0,2.1E1,2E0,5E0,7E0,7E0,1E0,3E0,3E0,7E0,1.8E1,1.4E1,4E0,2.2E1,-1.1727343E-1,-1.5428688E-1,-1.23147264E-1,-9.7082734E-2,-2.0633295E-2,2.0877717E-2,-8.4688E-2,-1.7450748E-1,7.078837E-2,8.926066E-3,-1.3090101E-1,2.8690835E-2,-1.2774883E-1,-2.3429697E-2,-2.0002572E-2,-3.026082E-1],"split_indices":[1,1,1,1,0,0,0,1,1,0,0,1,1,0,1,0,0,0,0,0,0,0,0,0,0,0,0,0,0,0,0],"split_type":[0,0,0,0,0,0,0,0,0,0,0,0,0,0,0,0,0,0,0,0,0,0,0,0,0,0,0,0,0,0,0],"sum_hessian":[4.514E3,8.05E2,3.709E3,5.02E2,3.03E2,2.976E3,7.33E2,2.75E2,2.27E2,1.86E2,1.17E2,2.672E3,3.04E2,6.62E2,7.1E1,8.9E1,1.86E2,1.6E2,6.7E1,9.5E1,9.1E1,6.8E1,4.9E1,2.027E3,6.45E2,1.33E2,1.71E2,2.67E2,3.95E2,2.5E1,4.6E1],"tree_param":{"num_deleted":"0","num_feature":"2","num_nodes":"31","size_leaf_vector":"1"}},{"base_weights":[-4.266207E-3,-8.9940697E-1,1.9020487E-1,-1.1789325E0,-4.3394384E-1,4.133192E-1,-7.1497434E-1,-1.2859704E0,-1.0441896E0,-2.8884858E-3,-1.1133795E0,5.0280833E-1,-3.723126E-1,-5.2423143E-1,-1.565135E0,-1.3916184E-1,-1.0595485E-1,-1.1090901E-1,-8.7517224E-2,-3.0935949E-2,1.1431284E-2,-7.634191E-2,-1.5740572E-1,6.37131E-2,8.034809E-3,-1.1790856E-1,2.583844E-2,-1.1060798E-1,-1.1791936E-2,-1.1201946E-1,-3.557771E-1],"categories":[],"categories_nodes":[],"categories_segments":[],"categories_sizes":[],"default_left":[0,0,0,0,0,0,0,0,0,0,0,0,0,0,0,0,0,0,0,0,0,0,0,0,0,0,0,0,0,0,0],"id":21,"left_children":[1,3,5,7,9,11,13,15,17,19,21,23,25,27,29,-1,-1,-1,-1,-1,-1,-1,-1,-1,-1,-1,-1,-1,-1,-1,-1],"loss_changes":[7.8613776E2,1.0435614E2,7.495614E2,5.911804E0,8.9030594E1,2.0948663E2,1.1820651E2,5.127716E0,1.530365E0,6.752181E0,1.7822174E1,1.5163092E2,1.5549759E2,1.4195323E2,1.1481958E2,0E0,0E0,0E0,0E0,0E0,0E0,0E0,0E0,0E0,0E0,0E0,0E0,0E0,0E0,0E0,0E0],"parents":[2147483647,0,0,1,1,2,2,3,3,4,4,5,5,6,6,7,7,8,8,9,9,10,10,11,11,12,12,13,13,14,14],"right_children":[2,4,6,8,10,12,14,16,18,20,22,24,26,28,30,-1,-1,-1,-1,-1,-1,-1,-1,-1,-1,-1,-1,-1,-1,-1,-1],"split_conditions":[6E0,4E0,2.1E1,2E0,5E0,7E0,2.3E1,5E0,3E0,2E0,7E0,1.8E1,1.4E1,4E0,7E0,-1.3916184E-1,-1.0595485E-1,-1.1090901E-1,-8.7517224E-2,-3.0935949E-2,1.1431284E-2,-7.634191E-2,-1.5740572E-1,6.37131E-2,8.034809E-3,-1.1790856E-1,2.583844E-2,-1.1060798E-1,-1.1791936E-2,-1.1201946E-1,-3.557771E-1],"split_indices":[1,1,1,1,0,0,1,0,1,0,0,1,1,0,0,0,0,0,0,0,0,0,0,0,0,0,0,0,0,0,0],"split_type":[0,0,0,0,0,0,0,0,0,0,0,0,0,0,0,0,0,0,0,0,0,0,0,0,0,0,0,0,0,0,0],"sum_hessian":[4.514E3,8.05E2,3.709E3,5.02E2,3.03E2,2.976E3,7.33E2,2.75E2,2.27E2,1.86E2,1.17E2,2.672E3,3.04E2,6E2,1.33E2,1.84E2,9.1E1,1.6E2,6.7E1,5.1E1,1.35E2,6.8E1,4.9E1,2.027E3,6.45E2,1.33E2,1.71E2,2.46E2,3.54E2,1.1E2,2.3E1],"tree_param":{"num_deleted":"0","num_feature":"2","num_nodes":"31","size_leaf_vector":"1"}},{"base_weights":[-4.1291453E-3,-8.1033075E-1,1.7101981E-1,-1.0619211E0,-3.9138237E-1,3.1772712E-1,-9.57687E-1,-1.1582617E0,-9.40641E-1,-2.7037635E-3,-1.0040224E0,5.3806084E-1,-3.300701E-2,-7.587417E-1,-2.5500376E0,-9.350141E-2,-1.259513E-1,-9.9887006E-2,-7.889422E-2,-1.7471898E-2,1.7681977E-2,-6.8818346E-2,-1.4197996E-1,2.4574436E-2,1.5241753E-1,-1.2172418E-1,1.40325455E-2,-1.2509517E-1,-4.851242E-3,-1.777006E-1,-3.216818E-1],"categories":[],"categories_nodes":[],"categories_segments":[],"categories_sizes":[],"default_left":[0,0,0,0,0,0,0,0,0,0,0,0,0,0,0,0,0,0,0,0,0,0,0,0,0,0,0,0,0,0,0],"id":22,"left_children":[1,3,5,7,9,11,13,15,17,19,21,23,25,27,29,-1,-1,-1,-1,-1,-1,-1,-1,-1,-1,-1,-1,-1,-1,-1,-1],"loss_changes":[6.3768085E2,8.453955E1,6.146415E2,4.7876587E0,7.238577E1,2.538005E2,1.3333481E2,5.0610657E0,1.2259216E0,5.8055987E0,1.4518509E1,5.8104083E2,2.6044852E2,1.3313005E2,1.850946E1,0E0,0E0,0E0,0E0,0E0,0E0,0E0,0E0,0E0,0E0,0E0,0E0,0E0,0E0,0E0,0E0],"parents":[2147483647,0,0,1,1,2,2,3,3,4,4,5,5,6,6,7,7,8,8,9,9,10,10,11,11,12,12,13,13,14,14],"right_children":[2,4,6,8,10,12,14,16,18,20,22,24,26,28,30,-1,-1,-1,-1,-1,-1,-1,-1,-1,-1,-1,-1,-1,-1,-1,-1],"split_conditions":[6E0,4E0,2.2E1,2E0,5E0,1.7E1,7E0,1E0,3E0,3E0,7E0,1.5E1,2E0,5E0,2.3E1,-9.350141E-2,-1.259513E-1,-9.9887006E-2,-7.889422E-2,-1.7471898E-2,1.7681977E-2,-6.8818346E-2,-1.4197996E-1,2.4574436E-2,1.5241753E-1,-1.2172418E-1,1.40325455E-2,-1.2509517E-1,-4.851242E-3,-1.777006E-1,-3.216818E-1],"split_indices":[1,1,1,1,0,1,0,1,1,0,0,1,0,0,1,0,0,0,0,0,0,0,0,0,0,0,0,0,0,0,0],"split_type":[0,0,0,0,0,0,0,0,0,0,0,0,0,0,0,0,0,0,0,0,0,0,0,0,0,0,0,0,0,0,0],"sum_hessian":[4.514E3,8.05E2,3.709E3,5.02E2,3.03E2,3.283E3,4.26E2,2.75E2,2.27E2,1.86E2,1.17E2,2.016E3,1.267E3,3.8E2,4.6E1,8.9E1,1.86E2,1.6E2,6.7E1,9.5E1,9.1E1,6.8E1,4.9E1,1.556E3,4.6E2,1.61E2,1.106E3,2.24E2,1.56E2,2.3E1,2.3E1],"tree_param":{"num_deleted":"0","num_feature":"2","num_nodes":"31","size_leaf_vector":"1"}},{"base_weights":[-3.9750217E-3,-7.300529E-1,1.5376696E-1,-9.565208E-1,-3.529364E-1,4.524763E-1,-3.012043E-1,-1.0435003E0,-8.452959E-1,-2.4316502E-3,-9.054063E-1,8.516524E-1,5.4674596E-2,-9.3988067E-1,8.121903E-2,-1.13330595E-1,5.302438E-3,-5.8279157E-2,-9.037926E-2,9.997442E-3,-3.0106535E-2,-7.333441E-2,-1.5842135E-1,4.0680707E-2,1.4147793E-1,-1.6200285E-1,2.5665307E-2,-1.3541608E-1,-7.2332986E-2,6.293183E-2,-4.6468325E-2],"categories":[],"categories_nodes":[],"categories_segments":[],"categories_sizes":[],"default_left":[0,0,0,0,0,0,0,0,0,0,0,0,0,0,0,0,0,0,0,0,0,0,0,0,0,0,0,0,0,0,0],"id":23,"left_children":[1,3,5,7,9,11,13,15,17,19,21,23,25,27,29,-1,-1,-1,-1,-1,-1,-1,-1,-1,-1,-1,-1,-1,-1,-1,-1],"loss_changes":[5.172286E2,6.849863E1,5.0434076E2,3.9841003E0,5.8865368E1,3.556496E2,3.5936038E2,2.7435913E1,2.9436493E0,5.748915E0,1.2620277E1,2.7948828E2,3.8027502E2,4.8452118E1,2.7586353E2,0E0,0E0,0E0,0E0,0E0,0E0,0E0,0E0,0E0,0E0,0E0,0E0,0E0,0E0,0E0,0E0],"parents":[2147483647,0,0,1,1,2,2,3,3,4,4,5,5,6,6,7,7,8,8,9,9,10,10,11,11,12,12,13,13,14,14],"right_children":[2,4,6,8,10,12,14,16,18,20,22,24,26,28,30,-1,-1,-1,-1,-1,-1,-1,-1,-1,-1,-1,-1,-1,-1,-1,-1],"split_conditions":[6E0,4E0,1.8E1,5E0,5E0,5E0,4E0,3E0,1E0,4E0,5E0,1.3E1,8E0,2E0,6E0,-1.13330595E-1,5.302438E-3,-5.8279157E-2,-9.037926E-2,9.997442E-3,-3.0106535E-2,-7.333441E-2,-1.5842135E-1,4.0680707E-2,1.4147793E-1,-1.6200285E-1,2.5665307E-2,-1.3541608E-1,-7.2332986E-2,6.293183E-2,-4.6468325E-2],"split_indices":[1,1,1,0,0,0,0,1,1,0,1,1,1,0,0,0,0,0,0,0,0,0,0,0,0,0,0,0,0,0,0],"split_type":[0,0,0,0,0,0,0,0,0,0,0,0,0,0,0,0,0,0,0,0,0,0,0,0,0,0,0,0,0,0,0],"sum_hessian":[4.514E3,8.05E2,3.709E3,5.02E2,3.03E2,2.239E3,1.47E3,2.77E2,2.25E2,1.86E2,1.17E2,1.117E3,1.122E3,5.5E2,9.2E2,2.56E2,2.1E1,4.3E1,1.82E2,1.39E2,4.7E1,9.5E1,2.2E1,6.25E2,4.92E2,1.2E2,1.002E3,1.87E2,3.63E2,4.59E2,4.61E2],"tree_param":{"num_deleted":"0","num_feature":"2","num_nodes":"31","size_leaf_vector":"1"}},{"base_weights":[-3.7222202E-3,-6.5767866E-1,1.3835126E-1,-8.61379E-1,-3.1847152E-1,2.6459298E-1,-8.32881E-1,-9.42879E-1,-7.589432E-1,-2.2964173E-3,-8.168298E-1,4.4332626E-1,-1.9925661E-2,-6.54624E-1,-2.2601795E0,-7.567826E-2,-1.02740206E-1,-7.995217E-2,-6.5170676E-2,-1.6732192E-2,1.6992904E-2,-5.2096155E-2,-1.20879136E-1,1.9385789E-2,1.2849292E-1,-1.035185E-1,1.2866686E-2,-1.07473314E-1,-4.8387116E-3,-1.5621775E-1,-2.8640074E-1],"categories":[],"categories_nodes":[],"categories_segments":[],"categories_sizes":[],"default_left":[0,0,0,0,0,0,0,0,0,0,0,0,0,0,0,0,0,0,0,0,0,0,0,0,0,0,0,0,0,0,0],"id":24,"left_children":[1,3,5,7,9,11,13,15,17,19,21,23,25,27,29,-1,-1,-1,-1,-1,-1,-1,-1,-1,-1,-1,-1,-1,-1,-1,-1],"loss_changes":[4.19579E2,5.5417572E1,4.5510358E2,3.483673E0,4.789894E1,1.6700993E2,1.0716028E2,3.5638275E0,4.7109985E-1,5.3432703E0,1.3054604E1,4.2322678E2,1.9142361E2,9.6983246E1,1.5335129E1,0E0,0E0,0E0,0E0,0E0,0E0,0E0,0E0,0E0,0E0,0E0,0E0,0E0,0E0,0E0,0E0],"parents":[2147483647,0,0,1,1,2,2,3,3,4,4,5,5,6,6,7,7,8,8,9,9,10,10,11,11,12,12,13,13,14,14],"right_children":[2,4,6,8,10,12,14,16,18,20,22,24,26,28,30,-1,-1,-1,-1,-1,-1,-1,-1,-1,-1,-1,-1,-1,-1,-1,-1],"split_conditions":[6E0,4E0,2.2E1,2E0,5E0,1.7E1,7E0,1E0,3E0,3E0,7E0,1.5E1,2E0,5E0,2.3E1,-7.567826E-2,-1.02740206E-1,-7.995217E-2,-6.5170676E-2,-1.6732192E-2,1.6992904E-2,-5.2096155E-2,-1.20879136E-1,1.9385789E-2,1.2849292E-1,-1.035185E-1,1.2866686E-2,-1.07473314E-1,-4.8387116E-3,-1.5621775E-1,-2.8640074E-1],"split_indices":[1,1,1,1,0,1,0,1,1,0,0,1,0,0,1,0,0,0,0,0,0,0,0,0,0,0,0,0,0,0,0],"split_type":[0,0,0,0,0,0,0,0,0,0,0,0,0,0,0,0,0,0,0,0,0,0,0,0,0,0,0,0,0,0,0],"sum_hessian":[4.514E3,8.05E2,3.709E3,5.02E2,3.03E2,3.283E3,4.26E2,2.75E2,2.27E2,1.86E2,1.17E2,2.016E3,1.267E3,3.8E2,4.6E1,8.9E1,1.86E2,1.6E2,6.7E1,9.5E1,9.1E1,6.8E1,4.9E1,1.556E3,4.6E2,1.61E2,1.106E3,2.24E2,1.56E2,2.3E1,2.3E1],"tree_param":{"num_deleted":"0","num_feature":"2","num_nodes":"31","size_leaf_vector":"1"}},{"base_weights":[-3.5702635E-3,-5.9252644E-1,1.2438182E-1,-7.758843E-1,-2.871924E-1,2.3815091E-1,-7.5089234E-1,-8.5038596E-1,-6.808075E-1,-2.0652148E-3,-7.366126E-1,4.5648086E-1,1.0581515E-2,-5.8945626E-1,-2.0435789E0,-9.293038E-2,1.1017097E-2,-4.35854E-2,-7.409853E-2,9.606165E-3,-2.8822554E-2,-5.7411224E-2,-1.3828485E-1,2.0102166E-2,1.1916435E-1,-1.47859E-1,1.3158835E-2,-1.2933849E-1,-2.9156258E-2,-1.412469E-1,-2.58954E-1],"categories":[],"categories_nodes":[],"categories_segments":[],"categories_sizes":[],"default_left":[0,0,0,0,0,0,0,0,0,0,0,0,0,0,0,0,0,0,0,0,0,0,0,0,0,0,0,0,0,0,0],"id":25,"left_children":[1,3,5,7,9,11,13,15,17,19,21,23,25,27,29,-1,-1,-1,-1,-1,-1,-1,-1,-1,-1,-1,-1,-1,-1,-1,-1],"loss_changes":[3.403158E2,4.4901398E1,3.6961743E2,2.9840088E0,3.895363E1,1.6316139E2,8.7904465E1,2.1176178E1,3.0084457E0,5.27865E0,1.1597694E1,3.1452005E2,2.9013626E2,7.951703E1,1.2536728E1,0E0,0E0,0E0,0E0,0E0,0E0,0E0,0E0,0E0,0E0,0E0,0E0,0E0,0E0,0E0,0E0],"parents":[2147483647,0,0,1,1,2,2,3,3,4,4,5,5,6,6,7,7,8,8,9,9,10,10,11,11,12,12,13,13,14,14],"right_children":[2,4,6,8,10,12,14,16,18,20,22,24,26,28,30,-1,-1,-1,-1,-1,-1,-1,-1,-1,-1,-1,-1,-1,-1,-1,-1],"split_conditions":[6E0,4E0,2.2E1,5E0,5E0,5E0,7E0,3E0,6E0,4E0,5E0,4E0,8E0,3E0,2.3E1,-9.293038E-2,1.1017097E-2,-4.35854E-2,-7.409853E-2,9.606165E-3,-2.8822554E-2,-5.7411224E-2,-1.3828485E-1,2.0102166E-2,1.1916435E-1,-1.47859E-1,1.3158835E-2,-1.2933849E-1,-2.9156258E-2,-1.412469E-1,-2.58954E-1],"split_indices":[1,1,1,0,0,0,0,1,0,0,1,0,1,0,1,0,0,0,0,0,0,0,0,0,0,0,0,0,0,0,0],"split_type":[0,0,0,0,0,0,0,0,0,0,0,0,0,0,0,0,0,0,0,0,0,0,0,0,0,0,0,0,0,0,0],"sum_hessian":[4.514E3,8.05E2,3.709E3,5.02E2,3.03E2,3.283E3,4.26E2,2.77E2,2.25E2,1.86E2,1.17E2,1.675E3,1.608E3,3.8E2,4.6E1,2.56E2,2.1E1,4.6E1,1.79E2,1.39E2,4.7E1,9.5E1,2.2E1,1.244E3,4.31E2,1.2E2,1.488E3,1.12E2,2.68E2,2.3E1,2.3E1],"tree_param":{"num_deleted":"0","num_feature":"2","num_nodes":"31","size_leaf_vector":"1"}},{"base_weights":[-3.4275886E-3,-5.337881E-1,1.1179451E-1,-6.986927E-1,-2.5918016E-1,2.8762418E-1,-3.7831017E-1,-7.6793844E-1,-6.118045E-1,-1.062252E-1,-1.0340669E-1,5.674195E-1,-2.77989E-4,-7.815892E-1,-1.21597454E-1,-6.0650356E-2,-8.415277E-2,-6.380061E-2,-5.4077126E-2,7.192399E-4,-1.2505762E-1,3.7002712E-2,1.1221441E-1,-1.3319533E-1,1.3104473E-2,-1.1176894E-1,-5.9892695E-2,1.0218667E-2,-1.3122624E-1],"categories":[],"categories_nodes":[],"categories_segments":[],"categories_sizes":[],"default_left":[0,0,0,0,0,0,0,0,0,0,0,0,0,0,0,0,0,0,0,0,0,0,0,0,0,0,0,0,0],"id":26,"left_children":[1,3,5,7,9,11,13,15,17,19,-1,21,23,25,27,-1,-1,-1,-1,-1,-1,-1,-1,-1,-1,-1,-1,-1,-1],"loss_changes":[2.7596796E2,3.6317886E1,3.1981787E2,2.5565338E0,3.592108E1,2.199923E2,1.0136128E2,2.7684479E0,7.9338074E-2,3.310533E1,0E0,1.5124005E2,2.3573686E2,2.2721252E1,1.6000523E2,0E0,0E0,0E0,0E0,0E0,0E0,0E0,0E0,0E0,0E0,0E0,0E0,0E0,0E0],"parents":[2147483647,0,0,1,1,2,2,3,3,4,4,5,5,6,6,7,7,8,8,9,9,11,11,12,12,13,13,14,14],"right_children":[2,4,6,8,10,12,14,16,18,20,-1,22,24,26,28,-1,-1,-1,-1,-1,-1,-1,-1,-1,-1,-1,-1,-1,-1],"split_conditions":[6E0,4E0,2E1,2E0,7E0,5E0,4E0,1E0,3E0,5E0,-1.0340669E-1,4E0,8E0,2E0,7E0,-6.0650356E-2,-8.415277E-2,-6.380061E-2,-5.4077126E-2,7.192399E-4,-1.2505762E-1,3.7002712E-2,1.1221441E-1,-1.3319533E-1,1.3104473E-2,-1.1176894E-1,-5.9892695E-2,1.0218667E-2,-1.3122624E-1],"split_indices":[1,1,1,1,0,0,0,1,1,1,0,0,1,0,0,0,0,0,0,0,0,0,0,0,0,0,0,0,0],"split_type":[0,0,0,0,0,0,0,0,0,0,0,0,0,0,0,0,0,0,0,0,0,0,0,0,0,0,0,0,0],"sum_hessian":[4.514E3,8.05E2,3.709E3,5.02E2,3.03E2,2.73E3,9.79E2,2.75E2,2.27E2,2.54E2,4.9E1,1.384E3,1.346E3,3.8E2,5.99E2,8.9E1,1.86E2,1.6E2,6.7E1,2.32E2,2.2E1,1.022E3,3.62E2,1.2E2,1.226E3,1.32E2,2.48E2,5.05E2,9.4E1],"tree_param":{"num_deleted":"0","num_feature":"2","num_nodes":"29","size_leaf_vector":"1"}},{"base_weights":[-3.252042E-3,-4.8101768E-1,1.0054374E-1,-6.2934566E-1,-2.3401114E-1,3.5282078E-1,-1.9989508E-1,-6.9322395E-1,-5.4798496E-1,-9.6090116E-2,-9.327281E-2,1.350226E-1,1.0876559E0,-8.53631E-2,-1.1393404E0,-7.628182E-2,1.5127398E-2,-4.8537392E-2,-7.761129E-2,6.476414E-4,-1.1309558E-1,2.3436055E-2,-7.78081E-2,8.851789E-2,3.1402212E-1,-9.365816E-2,6.8201944E-3,-3.430726E-1,-8.389842E-2],"categories":[],"categories_nodes":[],"categories_segments":[],"categories_sizes":[],"default_left":[0,0,0,0,0,0,0,0,0,0,0,0,0,0,0,0,0,0,0,0,0,0,0,0,0,0,0,0,0],"id":27,"left_children":[1,3,5,7,9,11,13,15,17,19,-1,21,23,25,27,-1,-1,-1,-1,-1,-1,-1,-1,-1,-1,-1,-1,-1,-1],"loss_changes":[2.2394748E2,2.938292E1,2.8126562E2,2.234314E0,2.9206177E1,3.226654E2,1.821713E2,1.6454071E1,2.851326E0,2.7073683E1,0E0,1.4141135E2,1.8881073E2,1.9757785E2,1.2375639E2,0E0,0E0,0E0,0E0,0E0,0E0,0E0,0E0,0E0,0E0,0E0,0E0,0E0,0E0],"parents":[2147483647,0,0,1,1,2,2,3,3,4,4,5,5,6,6,7,7,8,8,9,9,11,11,12,12,13,13,14,14],"right_children":[2,4,6,8,10,12,14,16,18,20,-1,22,24,26,28,-1,-1,-1,-1,-1,-1,-1,-1,-1,-1,-1,-1,-1,-1],"split_conditions":[6E0,4E0,1.7E1,5E0,7E0,1.5E1,7E0,3E0,3E0,5E0,-9.327281E-2,7E0,7E0,2E0,1.8E1,-7.628182E-2,1.5127398E-2,-4.8537392E-2,-7.761129E-2,6.476414E-4,-1.1309558E-1,2.3436055E-2,-7.78081E-2,8.851789E-2,3.1402212E-1,-9.365816E-2,6.8201944E-3,-3.430726E-1,-8.389842E-2],"split_indices":[1,1,1,0,0,1,0,1,1,1,0,0,0,0,1,0,0,0,0,0,0,0,0,0,0,0,0,0,0],"split_type":[0,0,0,0,0,0,0,0,0,0,0,0,0,0,0,0,0,0,0,0,0,0,0,0,0,0,0,0,0],"sum_hessian":[4.514E3,8.05E2,3.709E3,5.02E2,3.03E2,2.016E3,1.693E3,2.77E2,2.25E2,2.54E2,4.9E1,1.556E3,4.6E2,1.51E3,1.83E2,2.56E2,2.1E1,1.79E2,4.6E1,2.32E2,2.2E1,1.404E3,1.52E2,4.2E2,4E1,2.3E2,1.28E3,2E1,1.63E2],"tree_param":{"num_deleted":"0","num_feature":"2","num_nodes":"29","size_leaf_vector":"1"}},{"base_weights":[-3.0504062E-3,-4.3340364E-1,9.0444945E-2,-5.667835E-1,-2.1128695E-1,1.8260236E-1,-6.1853725E-1,-6.2481153E-1,-4.9405316E-1,-8.6922295E-2,-8.413209E-2,3.5692695E-1,9.052583E-4,-4.9125338E-1,-1.6371884E0,-4.843486E-2,-6.8907276E-2,-5.139584E-2,-4.3965913E-2,5.831293E-4,-1.0227773E-1,1.5100757E-2,9.49549E-2,-9.491708E-2,1.2651244E-2,-8.098494E-2,-3.1537798E-3,-1.07094646E-1,-2.1352144E-1],"categories":[],"categories_nodes":[],"categories_segments":[],"categories_sizes":[],"default_left":[0,0,0,0,0,0,0,0,0,0,0,0,0,0,0,0,0,0,0,0,0,0,0,0,0,0,0,0,0],"id":28,"left_children":[1,3,5,7,9,11,13,15,17,19,-1,21,23,25,27,-1,-1,-1,-1,-1,-1,-1,-1,-1,-1,-1,-1,-1,-1],"loss_changes":[1.8170485E2,2.3758713E1,2.4251678E2,1.8141632E0,2.3746468E1,1.04018E2,5.4559616E1,2.1575165E0,2.0896912E-2,2.214096E1,0E0,2.0438286E2,1.9213232E2,5.5777084E1,1.0967453E1,0E0,0E0,0E0,0E0,0E0,0E0,0E0,0E0,0E0,0E0,0E0,0E0,0E0,0E0],"parents":[2147483647,0,0,1,1,2,2,3,3,4,4,5,5,6,6,7,7,8,8,9,9,11,11,12,12,13,13,14,14],"right_children":[2,4,6,8,10,12,14,16,18,20,-1,22,24,26,28,-1,-1,-1,-1,-1,-1,-1,-1,-1,-1,-1,-1,-1,-1],"split_conditions":[6E0,4E0,2.2E1,2E0,7E0,5E0,7E0,1E0,3E0,5E0,-8.413209E-2,4E0,9E0,5E0,2.3E1,-4.843486E-2,-6.8907276E-2,-5.139584E-2,-4.3965913E-2,5.831293E-4,-1.0227773E-1,1.5100757E-2,9.49549E-2,-9.491708E-2,1.2651244E-2,-8.098494E-2,-3.1537798E-3,-1.07094646E-1,-2.1352144E-1],"split_indices":[1,1,1,1,0,0,0,1,1,1,0,0,1,0,1,0,0,0,0,0,0,0,0,0,0,0,0,0,0],"split_type":[0,0,0,0,0,0,0,0,0,0,0,0,0,0,0,0,0,0,0,0,0,0,0,0,0,0,0,0,0],"sum_hessian":[4.514E3,8.05E2,3.709E3,5.02E2,3.03E2,3.283E3,4.26E2,2.75E2,2.27E2,2.54E2,4.9E1,1.675E3,1.608E3,3.8E2,4.6E1,8.9E1,1.86E2,1.6E2,6.7E1,2.32E2,2.2E1,1.244E3,4.31E2,1.87E2,1.421E3,2.24E2,1.56E2,2.3E1,2.3E1],"tree_param":{"num_deleted":"0","num_feature":"2","num_nodes":"29","size_leaf_vector":"1"}},{"base_weights":[-2.9171333E-3,-3.905577E-1,8.129883E-2,-5.1052797E-1,-1.9076954E-1,2.8099024E-1,-2.2284125E-1,-5.65269E-1,-4.4093275E-1,8.45882E-2,-4.2325023E-1,7.737413E-1,1.0513592E-1,-7.0316887E-1,6.476282E-2,-6.267643E-2,1.7880224E-2,-2.1647215E-2,-4.9709227E-2,-1.6219933E-2,6.091885E-2,-2.7493728E-2,-7.5887136E-2,5.5168043E-3,1.6401286E-1,-6.349896E-2,2.5599537E-2,-1.2438966E-1,-5.9631027E-2,2.197354E-2,-1.0453042E-1],"categories":[],"categories_nodes":[],"categories_segments":[],"categories_sizes":[],"default_left":[0,0,0,0,0,0,0,0,0,0,0,0,0,0,0,0,0,0,0,0,0,0,0,0,0,0,0,0,0,0,0],"id":29,"left_children":[1,3,5,7,9,11,13,15,17,19,21,23,25,27,29,-1,-1,-1,-1,-1,-1,-1,-1,-1,-1,-1,-1,-1,-1,-1,-1],"loss_changes":[1.474263E2,1.9221329E1,2.2538638E2,1.667038E0,1.9496471E1,1.9402E2,2.0325565E2,1.2832481E1,2.7412605E0,1.8223883E1,8.004555E0,3.6659897E2,1.8461647E2,3.1095825E1,1.5866927E2,0E0,0E0,0E0,0E0,0E0,0E0,0E0,0E0,0E0,0E0,0E0,0E0,0E0,0E0,0E0,0E0],"parents":[2147483647,0,0,1,1,2,2,3,3,4,4,5,5,6,6,7,7,8,8,9,9,10,10,11,11,12,12,13,13,14,14],"right_children":[2,4,6,8,10,12,14,16,18,20,22,24,26,28,30,-1,-1,-1,-1,-1,-1,-1,-1,-1,-1,-1,-1,-1,-1,-1,-1],"split_conditions":[6E0,4E0,1.8E1,5E0,4E0,3E0,4E0,3E0,6E0,3E0,7E0,1.3E1,9E0,1.9E1,2.3E1,-6.267643E-2,1.7880224E-2,-2.1647215E-2,-4.9709227E-2,-1.6219933E-2,6.091885E-2,-2.7493728E-2,-7.5887136E-2,5.5168043E-3,1.6401286E-1,-6.349896E-2,2.5599537E-2,-1.2438966E-1,-5.9631027E-2,2.197354E-2,-1.0453042E-1],"split_indices":[1,1,1,0,0,0,0,1,0,0,0,1,1,1,1,0,0,0,0,0,0,0,0,0,0,0,0,0,0,0,0],"split_type":[0,0,0,0,0,0,0,0,0,0,0,0,0,0,0,0,0,0,0,0,0,0,0,0,0,0,0,0,0,0,0],"sum_hessian":[4.514E3,8.05E2,3.709E3,5.02E2,3.03E2,2.239E3,1.47E3,2.77E2,2.25E2,1.39E2,1.64E2,5.88E2,1.651E3,5.5E2,9.2E2,2.56E2,2.1E1,4.6E1,1.79E2,9.5E1,4.4E1,1.15E2,4.9E1,3.22E2,2.66E2,2.79E2,1.372E3,8.9E1,4.61E2,8.08E2,1.12E2],"tree_param":{"num_deleted":"0","num_feature":"2","num_nodes":"31","size_leaf_vector":"1"}},{"base_weights":[-2.6941944E-3,6.089072E-2,-4.768373E-1,-5.251357E-1,1.1697774E-1,-1.9939098E-1,-1.0035049E0,-6.152433E-1,-4.4426638E-1,2.12253E-1,-3.1042853E-1,-7.20989E-1,2.3423758E0,-3.1404203E-1,-7.237565E-1,-5.5252858E-2,-7.569384E-2,-2.0613208E-2,-5.1394444E-2,1.1590949E-2,5.3266834E-2,-2.3207776E-2,-6.97974E-2,-5.2467864E-2,-2.796596E-1,1.2942216E-1,2.7965394E-1,-5.3025614E-2,-1.8304147E-1],"categories":[],"categories_nodes":[],"categories_segments":[],"categories_sizes":[],"default_left":[0,0,0,0,0,0,0,0,0,0,0,0,0,0,0,0,0,0,0,0,0,0,0,0,0,0,0,0,0],"id":30,"left_children":[1,3,5,7,9,11,13,15,17,19,21,23,25,-1,27,-1,-1,-1,-1,-1,-1,-1,-1,-1,-1,-1,-1,-1,-1],"loss_changes":[1.3614882E2,1.309437E2,7.782904E1,2.2625122E0,1.4808762E2,4.6703775E2,1.0772203E2,1.0213585E0,2.9969025E0,9.17146E1,1.9969666E1,1.1751192E2,2.4942657E1,0E0,3.4148163E1,0E0,0E0,0E0,0E0,0E0,0E0,0E0,0E0,0E0,0E0,0E0,0E0,0E0,0E0],"parents":[2147483647,0,0,1,1,2,2,3,3,4,4,5,5,6,6,7,7,8,8,9,9,10,10,11,11,12,12,14,14],"right_children":[2,4,6,8,10,12,14,16,18,20,22,24,26,-1,28,-1,-1,-1,-1,-1,-1,-1,-1,-1,-1,-1,-1,-1,-1],"split_conditions":[7E0,3E0,1.7E1,3E0,2.1E1,1.4E1,1.8E1,2E0,1E0,6E0,2.3E1,1.3E1,1.5E1,-3.1404203E-1,2.3E1,-5.5252858E-2,-7.569384E-2,-2.0613208E-2,-5.1394444E-2,1.1590949E-2,5.3266834E-2,-2.3207776E-2,-6.97974E-2,-5.2467864E-2,-2.796596E-1,1.2942216E-1,2.7965394E-1,-5.3025614E-2,-1.8304147E-1],"split_indices":[0,1,1,0,1,1,1,0,1,0,1,1,1,0,1,0,0,0,0,0,0,0,0,0,0,0,0,0,0],"split_type":[0,0,0,0,0,0,0,0,0,0,0,0,0,0,0,0,0,0,0,0,0,0,0,0,0,0,0,0,0],"sum_hessian":[4.514E3,3.981E3,5.33E2,3.47E2,3.634E3,3.5E2,1.83E2,1.61E2,1.86E2,2.972E3,6.62E2,2.91E2,5.9E1,2E1,1.63E2,1.15E2,4.6E1,4.3E1,1.43E2,2.286E3,6.86E2,5.52E2,1.1E2,2.67E2,2.4E1,1.9E1,4E1,1.4E2,2.3E1],"tree_param":{"num_deleted":"0","num_feature":"2","num_nodes":"29","size_leaf_vector":"1"}},{"base_weights":[-2.580744E-3,5.4743633E-2,-4.3003973E-1,-4.7320536E-1,1.0527225E-1,-1.7923267E-1,-9.0614426E-1,-5.545273E-1,-4.0022483E-1,1.9104958E-1,-2.7952603E-1,-6.5002763E-1,2.1149566E0,-2.8413334E-1,-6.5282035E-1,-4.977521E-2,-6.8285495E-2,-1.859874E-2,-4.6290692E-2,1.043236E-2,4.7947936E-2,-4.8139308E-2,-1.4220307E-2,-4.7240667E-2,-2.5281233E-1,1.17127135E-1,2.523707E-1,4.2799458E-2,-8.321589E-2],"categories":[],"categories_nodes":[],"categories_segments":[],"categories_sizes":[],"default_left":[0,0,0,0,0,0,0,0,0,0,0,0,0,0,0,0,0,0,0,0,0,0,0,0,0,0,0,0,0],"id":31,"left_children":[1,3,5,7,9,11,13,15,17,19,21,23,25,-1,27,-1,-1,-1,-1,-1,-1,-1,-1,-1,-1,-1,-1,-1,-1],"loss_changes":[1.10658295E2,1.0627576E2,6.3602715E1,1.8434143E0,1.2003372E2,3.8048734E2,8.834737E1,8.4041214E-1,2.4251022E0,7.431766E1,1.8310562E1,9.621372E1,2.0187927E1,0E0,3.2144577E1,0E0,0E0,0E0,0E0,0E0,0E0,0E0,0E0,0E0,0E0,0E0,0E0,0E0,0E0],"parents":[2147483647,0,0,1,1,2,2,3,3,4,4,5,5,6,6,7,7,8,8,9,9,10,10,11,11,12,12,14,14],"right_children":[2,4,6,8,10,12,14,16,18,20,22,24,26,-1,28,-1,-1,-1,-1,-1,-1,-1,-1,-1,-1,-1,-1,-1,-1],"split_conditions":[7E0,3E0,1.7E1,3E0,2.1E1,1.4E1,1.8E1,2E0,1E0,6E0,4E0,1.3E1,1.5E1,-2.8413334E-1,1.9E1,-4.977521E-2,-6.8285495E-2,-1.859874E-2,-4.6290692E-2,1.043236E-2,4.7947936E-2,-4.8139308E-2,-1.4220307E-2,-4.7240667E-2,-2.5281233E-1,1.17127135E-1,2.523707E-1,4.2799458E-2,-8.321589E-2],"split_indices":[0,1,1,0,1,1,1,0,1,0,0,1,1,0,1,0,0,0,0,0,0,0,0,0,0,0,0,0,0],"split_type":[0,0,0,0,0,0,0,0,0,0,0,0,0,0,0,0,0,0,0,0,0,0,0,0,0,0,0,0,0],"sum_hessian":[4.514E3,3.981E3,5.33E2,3.47E2,3.634E3,3.5E2,1.83E2,1.61E2,1.86E2,2.972E3,6.62E2,2.91E2,5.9E1,2E1,1.63E2,1.15E2,4.6E1,4.3E1,1.43E2,2.286E3,6.86E2,2.67E2,3.95E2,2.67E2,2.4E1,1.9E1,4E1,2.3E1,1.4E2],"tree_param":{"num_deleted":"0","num_feature":"2","num_nodes":"29","size_leaf_vector":"1"}},{"base_weights":[-2.4209747E-3,4.9221866E-2,-3.8751343E-1,-4.264106E-1,9.474343E-2,-1.611115E-1,-8.172937E-1,-3.0515715E-1,-4.6689862E-1,2.1771498E-1,-1.2419581E-1,-5.8605236E-1,1.9096193E0,-2.5707296E-1,-5.877849E-1,-7.0783995E-2,-1.5635798E-2,-3.766338E-2,-5.1437E-2,4.1779313E-2,-4.654921E-3,-6.0814884E-2,2.2775974E-2,-4.2534214E-2,-2.2854243E-1,1.0600012E-1,2.2774911E-1,-3.2185856E-2,-1.24292366E-1],"categories":[],"categories_nodes":[],"categories_segments":[],"categories_sizes":[],"default_left":[0,0,0,0,0,0,0,0,0,0,0,0,0,0,0,0,0,0,0,0,0,0,0,0,0,0,0,0,0],"id":32,"left_children":[1,3,5,7,9,11,13,15,17,19,21,23,25,-1,27,-1,-1,-1,-1,-1,-1,-1,-1,-1,-1,-1,-1,-1,-1],"loss_changes":[8.98101E1,8.62568E1,5.1828163E1,1.5659599E0,9.789323E1,3.0997745E2,7.2535904E1,5.2820225E0,9.160843E-1,1.2310891E2,2.2293007E2,7.8775E1,1.6338882E1,0E0,2.8171822E1,0E0,0E0,0E0,0E0,0E0,0E0,0E0,0E0,0E0,0E0,0E0,0E0,0E0,0E0],"parents":[2147483647,0,0,1,1,2,2,3,3,4,4,5,5,6,6,7,7,8,8,9,9,10,10,11,11,12,12,14,14],"right_children":[2,4,6,8,10,12,14,16,18,20,22,24,26,-1,28,-1,-1,-1,-1,-1,-1,-1,-1,-1,-1,-1,-1,-1,-1],"split_conditions":[7E0,3E0,1.7E1,1E0,1.8E1,1.4E1,1.8E1,2E0,2E0,5E0,4E0,1.3E1,1.5E1,-2.5707296E-1,2.2E1,-7.0783995E-2,-1.5635798E-2,-3.766338E-2,-5.1437E-2,4.1779313E-2,-4.654921E-3,-6.0814884E-2,2.2775974E-2,-4.2534214E-2,-2.2854243E-1,1.0600012E-1,2.2774911E-1,-3.2185856E-2,-1.24292366E-1],"split_indices":[0,1,1,1,1,1,1,0,0,0,0,1,1,0,1,0,0,0,0,0,0,0,0,0,0,0,0,0,0],"split_type":[0,0,0,0,0,0,0,0,0,0,0,0,0,0,0,0,0,0,0,0,0,0,0,0,0,0,0,0,0],"sum_hessian":[4.514E3,3.981E3,5.33E2,3.47E2,3.634E3,3.5E2,1.83E2,8.9E1,2.58E2,2.327E3,1.307E3,2.91E2,5.9E1,2E1,1.63E2,2.3E1,6.6E1,9.2E1,1.66E2,1.324E3,1.003E3,5.5E2,7.57E2,2.67E2,2.4E1,1.9E1,4E1,1.17E2,4.6E1],"tree_param":{"num_deleted":"0","num_feature":"2","num_nodes":"29","size_leaf_vector":"1"}},{"base_weights":[-2.2952603E-3,2.1190092E-2,-7.7028424E-1,-2.1934947E-1,1.1083021E-1,-3.76138E-1,-1.1706752E0,1.4781474E-1,-5.0746745E-1,-4.13001E-1,1.9053653E-1,-5.0077107E-2,-1.6371734E-2,-9.8412216E-2,-1.4561379E-1,-2.3136528E-2,1.0687765E-1,-2.9921297E-2,-8.4276795E-2,-1.5114932E-1,-2.1601908E-2,3.3188514E-2,-2.7139983E-4],"categories":[],"categories_nodes":[],"categories_segments":[],"categories_sizes":[],"default_left":[0,0,0,0,0,0,0,0,0,0,0,0,0,0,0,0,0,0,0,0,0,0,0],"id":33,"left_children":[1,3,5,7,9,11,13,15,17,19,21,-1,-1,-1,-1,-1,-1,-1,-1,-1,-1,-1,-1],"loss_changes":[8.145107E1,9.4508965E1,2.0706558E1,1.2596107E2,1.3339493E2,1.7447643E0,2.0817413E0,1.8323347E2,4.6322998E1,9.098716E1,7.572001E1,0E0,0E0,0E0,0E0,0E0,0E0,0E0,0E0,0E0,0E0,0E0,0E0],"parents":[2147483647,0,0,1,1,2,2,3,3,4,4,5,5,6,6,7,7,8,8,9,9,10,10],"right_children":[2,4,6,8,10,12,14,16,18,20,22,-1,-1,-1,-1,-1,-1,-1,-1,-1,-1,-1,-1],"split_conditions":[2.3E1,9E0,6E0,4E0,2E0,5E0,7E0,5E0,5E0,1E1,1.8E1,-5.0077107E-2,-1.6371734E-2,-9.8412216E-2,-1.4561379E-1,-2.3136528E-2,1.0687765E-1,-2.9921297E-2,-8.4276795E-2,-1.5114932E-1,-2.1601908E-2,3.3188514E-2,-2.7139983E-4],"split_indices":[1,1,0,0,0,0,0,1,1,1,1,0,0,0,0,0,0,0,0,0,0,0,0],"split_type":[0,0,0,0,0,0,0,0,0,0,0,0,0,0,0,0,0,0,0,0,0,0,0],"sum_hessian":[4.514E3,4.381E3,1.33E2,1.189E3,3.192E3,6.8E1,6.5E1,5.23E2,6.66E2,4.21E2,2.771E3,4.2E1,2.6E1,4.2E1,2.3E1,3.71E2,1.52E2,4.12E2,2.54E2,6.3E1,3.58E2,1.6E3,1.171E3],"tree_param":{"num_deleted":"0","num_feature":"2","num_nodes":"23","size_leaf_vector":"1"}},{"base_weights":[-2.1719309E-3,3.796825E-2,-3.8655373E-1,-1.9744022E-1,1.345538E-1,-3.0371088E-1,-1.0498853E0,1.3319279E-1,-4.5689186E-1,-3.4778976E-1,2.0588817E-1,-5.620691E-1,6.848221E-2,-7.394337E-2,-1.3165915E-1,-2.0829108E-2,9.6259676E-2,-2.6936403E-2,-7.5882174E-2,-1.3627052E-1,-1.3781427E-2,4.2072132E-2,3.8650935E-3,-7.219497E-2,-3.9721444E-2,5.947229E-2,-6.112845E-2],"categories":[],"categories_nodes":[],"categories_segments":[],"categories_sizes":[],"default_left":[0,0,0,0,0,0,0,0,0,0,0,0,0,0,0,0,0,0,0,0,0,0,0,0,0,0,0],"id":34,"left_children":[1,3,5,7,9,11,13,15,17,19,21,23,25,-1,-1,-1,-1,-1,-1,-1,-1,-1,-1,-1,-1,-1,-1],"loss_changes":[6.967731E1,9.29984E1,2.3145763E1,1.0214296E2,9.985385E1,3.667512E1,2.9180412E0,1.4861201E2,3.7561325E1,7.951437E1,9.077406E1,5.64357E0,5.6525723E1,0E0,0E0,0E0,0E0,0E0,0E0,0E0,0E0,0E0,0E0,0E0,0E0,0E0,0E0],"parents":[2147483647,0,0,1,1,2,2,3,3,4,4,5,5,6,6,7,7,8,8,9,9,10,10,11,11,12,12],"right_children":[2,4,6,8,10,12,14,16,18,20,22,24,26,-1,-1,-1,-1,-1,-1,-1,-1,-1,-1,-1,-1,-1,-1],"split_conditions":[2.2E1,9E0,7E0,4E0,2E0,5E0,2.3E1,5E0,5E0,1E1,5E0,3E0,2.3E1,-7.394337E-2,-1.3165915E-1,-2.0829108E-2,9.6259676E-2,-2.6936403E-2,-7.5882174E-2,-1.3627052E-1,-1.3781427E-2,4.2072132E-2,3.8650935E-3,-7.219497E-2,-3.9721444E-2,5.947229E-2,-6.112845E-2],"split_indices":[1,1,0,0,0,0,1,1,1,1,0,0,1,0,0,0,0,0,0,0,0,0,0,0,0,0,0],"split_type":[0,0,0,0,0,0,0,0,0,0,0,0,0,0,0,0,0,0,0,0,0,0,0,0,0,0,0],"sum_hessian":[4.514E3,4.088E3,4.26E2,1.189E3,2.899E3,3.8E2,4.6E1,5.23E2,6.66E2,3.73E2,2.526E3,2.24E2,1.56E2,2.3E1,2.3E1,3.71E2,1.52E2,4.12E2,2.54E2,6.3E1,3.1E2,1.105E3,1.421E3,1.12E2,1.12E2,8.8E1,6.8E1],"tree_param":{"num_deleted":"0","num_feature":"2","num_nodes":"27","size_leaf_vector":"1"}},{"base_weights":[-2.0544769E-3,4.0042672E-2,-3.1596607E-1,-3.3539614E-1,7.597463E-2,-1.13650136E-1,-7.001885E-1,-4.1514763E-1,-2.6451305E-1,1.7986883E-1,-1.08996086E-1,-4.8341888E-1,1.6877851E0,-2.3611866E-1,-4.832303E-1,-3.6091343E-2,-5.401693E-2,-1.9871648E-2,-4.6187397E-2,4.9142275E-2,4.4508385E-3,-5.3882804E-2,2.035981E-2,-3.3066593E-2,-2.1015938E-1,9.241008E-2,2.0191486E-1,4.1438054E-2,-6.32588E-2],"categories":[],"categories_nodes":[],"categories_segments":[],"categories_sizes":[],"default_left":[0,0,0,0,0,0,0,0,0,0,0,0,0,0,0,0,0,0,0,0,0,0,0,0,0,0,0,0,0],"id":35,"left_children":[1,3,5,7,9,11,13,15,17,19,21,23,25,-1,27,-1,-1,-1,-1,-1,-1,-1,-1,-1,-1,-1,-1,-1,-1],"loss_changes":[5.96774E1,5.3743664E1,4.143054E1,1.8574448E0,6.987481E1,2.3462207E2,6.5166565E1,9.034786E-1,2.3365374E0,9.8154724E1,1.7585646E2,7.14819E1,1.331752E1,0E0,2.2248806E1,0E0,0E0,0E0,0E0,0E0,0E0,0E0,0E0,0E0,0E0,0E0,0E0,0E0,0E0],"parents":[2147483647,0,0,1,1,2,2,3,3,4,4,5,5,6,6,7,7,8,8,9,9,10,10,11,11,12,12,14,14],"right_children":[2,4,6,8,10,12,14,16,18,20,22,24,26,-1,28,-1,-1,-1,-1,-1,-1,-1,-1,-1,-1,-1,-1,-1,-1],"split_conditions":[7E0,3E0,1.7E1,3E0,1.8E1,1.4E1,1.8E1,2E0,6E0,3E0,4E0,1.3E1,1.5E1,-2.3611866E-1,1.9E1,-3.6091343E-2,-5.401693E-2,-1.9871648E-2,-4.6187397E-2,4.9142275E-2,4.4508385E-3,-5.3882804E-2,2.035981E-2,-3.3066593E-2,-2.1015938E-1,9.241008E-2,2.0191486E-1,4.1438054E-2,-6.32588E-2],"split_indices":[0,1,1,0,1,1,1,0,0,0,0,1,1,0,1,0,0,0,0,0,0,0,0,0,0,0,0,0,0],"split_type":[0,0,0,0,0,0,0,0,0,0,0,0,0,0,0,0,0,0,0,0,0,0,0,0,0,0,0,0,0],"sum_hessian":[4.514E3,3.981E3,5.33E2,3.47E2,3.634E3,3.5E2,1.83E2,1.61E2,1.86E2,2.327E3,1.307E3,2.91E2,5.9E1,2E1,1.63E2,1.15E2,4.6E1,1.41E2,4.5E1,7.04E2,1.623E3,5.5E2,7.57E2,2.67E2,2.4E1,1.9E1,4E1,2.3E1,1.4E2],"tree_param":{"num_deleted":"0","num_feature":"2","num_nodes":"29","size_leaf_vector":"1"}},{"base_weights":[-1.9253492E-3,1.693386E-2,-6.186353E-1,-1.7305997E-1,8.7737404E-2,-2.7986085E-1,-9.6343535E-1,1.13077074E-1,-3.9759183E-1,-3.4193078E-1,1.53117E-1,-3.8082976E-2,-1.0869331E-2,-8.4817775E-2,-1.12979546E-1,-1.8286064E-2,8.318728E-2,-2.2170333E-2,-6.8090305E-2,-1.2769389E-1,-1.7429164E-2,2.6989374E-2,-6.535424E-4],"categories":[],"categories_nodes":[],"categories_segments":[],"categories_sizes":[],"default_left":[0,0,0,0,0,0,0,0,0,0,0,0,0,0,0,0,0,0,0,0,0,0,0],"id":36,"left_children":[1,3,5,7,9,11,13,15,17,19,21,-1,-1,-1,-1,-1,-1,-1,-1,-1,-1,-1,-1],"loss_changes":[5.252292E1,5.8962883E1,1.5382835E1,7.649876E1,8.974863E1,1.1511059E0,3.0723572E-1,1.1161675E2,3.3086426E1,6.592339E1,5.1682068E1,0E0,0E0,0E0,0E0,0E0,0E0,0E0,0E0,0E0,0E0,0E0,0E0],"parents":[2147483647,0,0,1,1,2,2,3,3,4,4,5,5,6,6,7,7,8,8,9,9,10,10],"right_children":[2,4,6,8,10,12,14,16,18,20,22,-1,-1,-1,-1,-1,-1,-1,-1,-1,-1,-1,-1],"split_conditions":[2.3E1,9E0,6E0,4E0,2E0,5E0,7E0,5E0,5E0,1E1,1.8E1,-3.8082976E-2,-1.0869331E-2,-8.4817775E-2,-1.12979546E-1,-1.8286064E-2,8.318728E-2,-2.2170333E-2,-6.8090305E-2,-1.2769389E-1,-1.7429164E-2,2.6989374E-2,-6.535424E-4],"split_indices":[1,1,0,0,0,0,0,1,1,1,1,0,0,0,0,0,0,0,0,0,0,0,0],"split_type":[0,0,0,0,0,0,0,0,0,0,0,0,0,0,0,0,0,0,0,0,0,0,0],"sum_hessian":[4.514E3,4.381E3,1.33E2,1.189E3,3.192E3,6.8E1,6.5E1,5.23E2,6.66E2,4.21E2,2.771E3,4.2E1,2.6E1,4.2E1,2.3E1,3.71E2,1.52E2,4.12E2,2.54E2,6.3E1,3.58E2,1.6E3,1.171E3],"tree_param":{"num_deleted":"0","num_feature":"2","num_nodes":"23","size_leaf_vector":"1"}},{"base_weights":[-1.8192363E-3,3.4907416E-2,-2.7568385E-1,8.115444E-2,-1.9672915E-1,-9.4462395E-2,-6.198852E-1,-5.39119E-4,3.6998433E-1,-1.0985394E-1,-4.5826858E-1,-4.212283E-1,1.4973726E0,-2.1620157E-1,-4.1863748E-1,1.3284168E-2,-4.3721728E-2,2.7839232E-2,1.7958236E-1,-2.6997922E-2,7.559185E-3,-3.471953E-2,-7.653324E-2,-2.7930936E-2,-1.9257502E-1,8.106726E-2,1.795827E-1,3.7529692E-2,-5.508062E-2],"categories":[],"categories_nodes":[],"categories_segments":[],"categories_sizes":[],"default_left":[0,0,0,0,0,0,0,0,0,0,0,0,0,0,0,0,0,0,0,0,0,0,0,0,0,0,0,0,0],"id":37,"left_children":[1,3,5,7,9,11,13,15,17,19,21,23,25,-1,27,-1,-1,-1,-1,-1,-1,-1,-1,-1,-1,-1,-1,-1,-1],"loss_changes":[4.542208E1,4.2673153E1,3.3250587E1,7.83374E1,1.5013878E1,1.83206E2,5.6199333E1,1.5085304E2,9.509598E1,1.4837991E1,5.361866E0,6.181001E1,1.084108E1,0E0,1.7415773E1,0E0,0E0,0E0,0E0,0E0,0E0,0E0,0E0,0E0,0E0,0E0,0E0,0E0,0E0],"parents":[2147483647,0,0,1,1,2,2,3,3,4,4,5,5,6,6,7,7,8,8,9,9,10,10,11,11,12,12,14,14],"right_children":[2,4,6,8,10,12,14,16,18,20,22,24,26,-1,28,-1,-1,-1,-1,-1,-1,-1,-1,-1,-1,-1,-1,-1,-1],"split_conditions":[7E0,2.1E1,1.7E1,6E0,6E0,1.4E1,1.8E1,5E0,2E1,4E0,2.3E1,1.3E1,1.5E1,-2.1620157E-1,1.9E1,1.3284168E-2,-4.3721728E-2,2.7839232E-2,1.7958236E-1,-2.6997922E-2,7.559185E-3,-3.471953E-2,-7.653324E-2,-2.7930936E-2,-1.9257502E-1,8.106726E-2,1.795827E-1,3.7529692E-2,-5.508062E-2],"split_indices":[0,1,1,0,0,1,1,0,1,0,1,1,1,0,1,0,0,0,0,0,0,0,0,0,0,0,0,0,0],"split_type":[0,0,0,0,0,0,0,0,0,0,0,0,0,0,0,0,0,0,0,0,0,0,0,0,0,0,0,0,0],"sum_hessian":[4.514E3,3.981E3,5.33E2,3.319E3,6.62E2,3.5E2,1.83E2,2.588E3,7.31E2,4.98E2,1.64E2,2.91E2,5.9E1,2E1,1.63E2,1.983E3,6.05E2,6.88E2,4.3E1,2.67E2,2.31E2,1.22E2,4.2E1,2.67E2,2.4E1,1.9E1,4E1,2.3E1,1.4E2],"tree_param":{"num_deleted":"0","num_feature":"2","num_nodes":"29","size_leaf_vector":"1"}},{"base_weights":[-1.6700622E-3,-1.575992E-1,5.4119878E-2,8.863425E-2,-3.5080567E-1,2.2258987E-1,-1.0831555E-1,-1.7787227E-1,7.360316E-1,-1.909979E-1,-6.082559E-1,5.151989E-2,6.573892E-1,-6.225868E-1,-2.709631E-2,-3.4037452E-2,3.7210647E-3,9.6406594E-2,2.1712184E-2,-1.21853E-2,-2.7230268E-2,-9.6298724E-2,-3.0529318E-2,-2.0126572E-2,5.837046E-2,1.7151368E-1,3.249755E-2,-9.0031035E-2,-3.19467E-2,4.9350313E-3,-5.5916708E-2],"categories":[],"categories_nodes":[],"categories_segments":[],"categories_sizes":[],"default_left":[0,0,0,0,0,0,0,0,0,0,0,0,0,0,0,0,0,0,0,0,0,0,0,0,0,0,0,0,0,0,0],"id":38,"left_children":[1,3,5,7,9,11,13,15,17,19,21,23,25,27,29,-1,-1,-1,-1,-1,-1,-1,-1,-1,-1,-1,-1,-1,-1,-1,-1],"loss_changes":[3.9285763E1,5.6644035E1,9.1041756E1,9.053958E1,2.7325912E1,1.2143048E2,7.0739334E1,1.3014608E1,1.7895042E1,2.2886257E0,2.7110947E1,1.5791957E2,1.6153473E2,1.9158775E1,5.957582E1,0E0,0E0,0E0,0E0,0E0,0E0,0E0,0E0,0E0,0E0,0E0,0E0,0E0,0E0,0E0,0E0],"parents":[2147483647,0,0,1,1,2,2,3,3,4,4,5,5,6,6,7,7,8,8,9,9,10,10,11,11,12,12,13,13,14,14],"right_children":[2,4,6,8,10,12,14,16,18,20,22,24,26,28,30,-1,-1,-1,-1,-1,-1,-1,-1,-1,-1,-1,-1,-1,-1,-1,-1],"split_conditions":[9E0,4E0,1.7E1,5E0,5E0,1.5E1,2E0,3E0,3E0,3E0,6E0,6E0,3E0,2.1E1,7E0,-3.4037452E-2,3.7210647E-3,9.6406594E-2,2.1712184E-2,-1.21853E-2,-2.7230268E-2,-9.6298724E-2,-3.0529318E-2,-2.0126572E-2,5.837046E-2,1.7151368E-1,3.249755E-2,-9.0031035E-2,-3.19467E-2,4.9350313E-3,-5.5916708E-2],"split_indices":[1,0,1,1,1,1,0,1,0,1,0,0,0,1,0,0,0,0,0,0,0,0,0,0,0,0,0,0,0,0,0],"split_type":[0,0,0,0,0,0,0,0,0,0,0,0,0,0,0,0,0,0,0,0,0,0,0,0,0,0,0,0,0,0,0],"sum_hessian":[4.514E3,1.189E3,3.325E3,5.23E2,6.66E2,1.632E3,1.693E3,3.71E2,1.52E2,4.12E2,2.54E2,1.172E3,4.6E2,2.3E2,1.463E3,2.11E2,1.6E2,1.05E2,4.7E1,2.24E2,1.88E2,1.16E2,1.38E2,7.95E2,3.77E2,1.09E2,3.51E2,1.19E2,1.11E2,1.28E3,1.83E2],"tree_param":{"num_deleted":"0","num_feature":"2","num_nodes":"31","size_leaf_vector":"1"}},{"base_weights":[-1.5051537E-3,2.7513973E-2,-2.7939206E-1,-1.4190523E-1,9.702478E-2,-4.401394E-1,-9.9847466E-2,7.993832E-2,-3.1597438E-1,-2.908143E-1,1.5438719E-1,-3.3505332E-1,-6.8295366E-1,5.3322476E-1,-4.594436E-1,-1.6016664E-2,6.632005E-2,-1.719935E-2,-5.4792788E-2,-1.14450626E-1,-1.1419987E-2,3.445112E-2,6.4043945E-4,-5.378697E-2,1.596979E-2,-8.1433974E-2,-3.7719395E-2,8.840751E-2,-1.1025817E-2,-1.20951785E-2,-7.858455E-2],"categories":[],"categories_nodes":[],"categories_segments":[],"categories_sizes":[],"default_left":[0,0,0,0,0,0,0,0,0,0,0,0,0,0,0,0,0,0,0,0,0,0,0,0,0,0,0,0,0,0,0],"id":39,"left_children":[1,3,5,7,9,11,13,15,17,19,21,23,25,27,29,-1,-1,-1,-1,-1,-1,-1,-1,-1,-1,-1,-1,-1,-1,-1,-1],"loss_changes":[3.6416805E1,4.816774E1,1.2279835E1,4.5978447E1,6.456232E1,5.5123672E0,4.6458008E1,7.348934E1,2.2181465E1,5.6258892E1,7.109514E1,1.604054E1,2.3843975E0,1.6804176E1,1.4267916E1,0E0,0E0,0E0,0E0,0E0,0E0,0E0,0E0,0E0,0E0,0E0,0E0,0E0,0E0,0E0,0E0],"parents":[2147483647,0,0,1,1,2,2,3,3,4,4,5,5,6,6,7,7,8,8,9,9,10,10,11,11,12,12,13,13,14,14],"right_children":[2,4,6,8,10,12,14,16,18,20,22,24,26,28,30,-1,-1,-1,-1,-1,-1,-1,-1,-1,-1,-1,-1,-1,-1,-1,-1],"split_conditions":[2.2E1,9E0,5E0,4E0,2E0,4E0,6E0,5E0,5E0,1E1,5E0,3E0,2.3E1,2.3E1,2.3E1,-1.6016664E-2,6.632005E-2,-1.719935E-2,-5.4792788E-2,-1.14450626E-1,-1.1419987E-2,3.445112E-2,6.4043945E-4,-5.378697E-2,1.596979E-2,-8.1433974E-2,-3.7719395E-2,8.840751E-2,-1.1025817E-2,-1.20951785E-2,-7.858455E-2],"split_indices":[1,1,0,0,0,0,0,1,1,1,0,0,1,1,1,0,0,0,0,0,0,0,0,0,0,0,0,0,0,0,0],"split_type":[0,0,0,0,0,0,0,0,0,0,0,0,0,0,0,0,0,0,0,0,0,0,0,0,0,0,0,0,0,0,0],"sum_hessian":[4.514E3,4.088E3,4.26E2,1.189E3,2.899E3,2.24E2,2.02E2,5.23E2,6.66E2,3.73E2,2.526E3,1.58E2,6.6E1,7.3E1,1.29E2,3.71E2,1.52E2,4.12E2,2.54E2,6.3E1,3.1E2,1.105E3,1.421E3,1.12E2,4.6E1,4.5E1,2.1E1,4.7E1,2.6E1,6.4E1,6.5E1],"tree_param":{"num_deleted":"0","num_feature":"2","num_nodes":"31","size_leaf_vector":"1"}},{"base_weights":[-1.4173704E-3,2.473494E-2,-2.5185153E-1,-1.2773302E-1,8.729085E-2,-3.9682302E-1,-8.9928195E-2,7.204042E-2,-2.8448498E-1,-2.6206985E-1,1.3896224E-1,-3.017858E-1,-6.164363E-1,4.8094788E-1,-4.1419667E-1,-1.4419298E-2,5.9731353E-2,-1.5483576E-2,-4.9335025E-2,-1.0318442E-1,-1.0281704E-2,3.1009153E-2,5.763976E-4,-4.845587E-2,1.4406788E-2,-7.3467575E-2,-3.411888E-2,7.975094E-2,-9.964106E-3,-1.0904259E-2,-7.084515E-2],"categories":[],"categories_nodes":[],"categories_segments":[],"categories_sizes":[],"default_left":[0,0,0,0,0,0,0,0,0,0,0,0,0,0,0,0,0,0,0,0,0,0,0,0,0,0,0,0,0,0,0],"id":40,"left_children":[1,3,5,7,9,11,13,15,17,19,21,23,25,27,29,-1,-1,-1,-1,-1,-1,-1,-1,-1,-1,-1,-1,-1,-1,-1,-1],"loss_changes":[2.9576914E1,3.9011105E1,9.987827E0,3.72852E1,5.238708E1,4.5100403E0,3.7777977E1,5.960288E1,1.7985443E1,4.574208E1,5.7598957E1,1.3026717E1,1.9298573E0,1.3680082E1,1.1595844E1,0E0,0E0,0E0,0E0,0E0,0E0,0E0,0E0,0E0,0E0,0E0,0E0,0E0,0E0,0E0,0E0],"parents":[2147483647,0,0,1,1,2,2,3,3,4,4,5,5,6,6,7,7,8,8,9,9,10,10,11,11,12,12,13,13,14,14],"right_children":[2,4,6,8,10,12,14,16,18,20,22,24,26,28,30,-1,-1,-1,-1,-1,-1,-1,-1,-1,-1,-1,-1,-1,-1,-1,-1],"split_conditions":[2.2E1,9E0,5E0,4E0,2E0,4E0,6E0,5E0,5E0,1E1,5E0,3E0,2.3E1,2.3E1,2.3E1,-1.4419298E-2,5.9731353E-2,-1.5483576E-2,-4.9335025E-2,-1.0318442E-1,-1.0281704E-2,3.1009153E-2,5.763976E-4,-4.845587E-2,1.4406788E-2,-7.3467575E-2,-3.411888E-2,7.975094E-2,-9.964106E-3,-1.0904259E-2,-7.084515E-2],"split_indices":[1,1,0,0,0,0,0,1,1,1,0,0,1,1,1,0,0,0,0,0,0,0,0,0,0,0,0,0,0,0,0],"split_type":[0,0,0,0,0,0,0,0,0,0,0,0,0,0,0,0,0,0,0,0,0,0,0,0,0,0,0,0,0,0,0],"sum_hessian":[4.514E3,4.088E3,4.26E2,1.189E3,2.899E3,2.24E2,2.02E2,5.23E2,6.66E2,3.73E2,2.526E3,1.58E2,6.6E1,7.3E1,1.29E2,3.71E2,1.52E2,4.12E2,2.54E2,6.3E1,3.1E2,1.105E3,1.421E3,1.12E2,4.6E1,4.5E1,2.1E1,4.7E1,2.6E1,6.4E1,6.5E1],"tree_param":{"num_deleted":"0","num_feature":"2","num_nodes":"31","size_leaf_vector":"1"}},{"base_weights":[-1.331969E-3,5.3726997E-2,-1.1530425E-1,-4.0065695E-2,3.775349E-1,-4.6570584E-1,9.445317E-2,-1.4770618E-1,1.835367E-1,1.3260593E0,-1.1629484E-2,-1.0913314E0,-3.4282273E-1,3.9994925E-1,-2.0992486E-1,-9.063355E-3,-2.0675948E-1,5.003975E-2,-2.8368449E-2,4.78408E-2,2.2678144E-1,-2.0149104E-1,4.3636963E-2,-2.5473386E-2,-1.3267201E-1,-5.2612204E-2,-2.0817278E-2,1.2822832E-1,1.728666E-2,-7.261559E-2,-1.1744115E-2],"categories":[],"categories_nodes":[],"categories_segments":[],"categories_sizes":[],"default_left":[0,0,0,0,0,0,0,0,0,0,0,0,0,0,0,0,0,0,0,0,0,0,0,0,0,0,0,0,0,0,0],"id":41,"left_children":[1,3,5,7,9,11,13,15,17,19,21,23,25,27,29,-1,-1,-1,-1,-1,-1,-1,-1,-1,-1,-1,-1,-1,-1,-1,-1],"loss_changes":[2.8338703E1,9.249426E1,1.08161514E2,5.6877308E1,2.5250165E2,4.198609E1,8.572434E1,1.7458167E2,1.13839806E2,1.577728E2,4.3704874E2,1.7385345E1,1.1293213E1,9.1945206E1,2.1971972E1,0E0,0E0,0E0,0E0,0E0,0E0,0E0,0E0,0E0,0E0,0E0,0E0,0E0,0E0,0E0,0E0],"parents":[2147483647,0,0,1,1,2,2,3,3,4,4,5,5,6,6,7,7,8,8,9,9,10,10,11,11,12,12,13,13,14,14],"right_children":[2,4,6,8,10,12,14,16,18,20,22,24,26,28,30,-1,-1,-1,-1,-1,-1,-1,-1,-1,-1,-1,-1,-1,-1,-1,-1],"split_conditions":[1.8E1,1.5E1,4E0,6E0,3E0,1.9E1,6E0,1.4E1,7E0,2E0,4E0,2E0,2.1E1,1.9E1,1.9E1,-9.063355E-3,-2.0675948E-1,5.003975E-2,-2.8368449E-2,4.78408E-2,2.2678144E-1,-2.0149104E-1,4.3636963E-2,-2.5473386E-2,-1.3267201E-1,-5.2612204E-2,-2.0817278E-2,1.2822832E-1,1.728666E-2,-7.261559E-2,-1.1744115E-2],"split_indices":[1,1,0,0,0,1,0,1,0,0,0,0,1,1,1,0,0,0,0,0,0,0,0,0,0,0,0,0,0,0,0],"split_type":[0,0,0,0,0,0,0,0,0,0,0,0,0,0,0,0,0,0,0,0,0,0,0,0,0,0,0,0,0,0,0],"sum_hessian":[4.514E3,3.044E3,1.47E3,2.361E3,6.83E2,5.5E2,9.2E2,1.594E3,7.67E2,1.98E2,4.85E2,8.9E1,4.61E2,4.59E2,4.61E2,1.549E3,4.5E1,4.57E2,3.1E2,1.05E2,9.3E1,8.8E1,3.97E2,2E1,6.9E1,1.94E2,2.67E2,9.3E1,3.66E2,6.9E1,3.92E2],"tree_param":{"num_deleted":"0","num_feature":"2","num_nodes":"31","size_leaf_vector":"1"}},{"base_weights":[-1.2534655E-3,5.8090493E-2,-1.0011261E-1,-3.6141075E-2,5.407735E-1,-4.9913308E-1,-3.708403E-2,-1.3307059E-1,1.6521141E-1,1.405582E0,2.689846E-1,-7.7785385E-1,-1.9604717E-1,2.5075898E-2,-4.6963722E-1,-8.157577E-3,-1.865329E-1,4.504674E-2,-2.5540743E-2,1.276914E-1,1.8622121E-1,-1.9543418E-1,7.888933E-2,-6.249736E-2,-1.430458E-1,-2.0922069E-2,-1.3264552E-2,1.5289265E-2,-1.4400256E-2,-1.9455734E-1,-2.7778177E-2],"categories":[],"categories_nodes":[],"categories_segments":[],"categories_sizes":[],"default_left":[0,0,0,0,0,0,0,0,0,0,0,0,0,0,0,0,0,0,0,0,0,0,0,0,0,0,0,0,0,0,0],"id":42,"left_children":[1,3,5,7,9,11,13,15,17,19,21,23,25,27,29,-1,-1,-1,-1,-1,-1,-1,-1,-1,-1,-1,-1,-1,-1,-1,-1],"loss_changes":[2.6493933E1,1.2837532E2,4.2585068E1,4.612113E1,1.07977844E2,1.9361538E1,3.937504E1,1.4212553E2,9.2262794E1,4.0850067E0,4.0842792E2,1.1078438E1,6.579256E-2,2.7705782E1,5.1562176E1,0E0,0E0,0E0,0E0,0E0,0E0,0E0,0E0,0E0,0E0,0E0,0E0,0E0,0E0,0E0,0E0],"parents":[2147483647,0,0,1,1,2,2,3,3,4,4,5,5,6,6,7,7,8,8,9,9,10,10,11,11,12,12,13,13,14,14],"right_children":[2,4,6,8,10,12,14,16,18,20,22,24,26,28,30,-1,-1,-1,-1,-1,-1,-1,-1,-1,-1,-1,-1,-1,-1,-1,-1],"split_conditions":[1.7E1,1.5E1,2E0,6E0,3E0,2.1E1,7E0,1.4E1,7E0,1.6E1,4E0,2E1,2.3E1,2.1E1,1.8E1,-8.157577E-3,-1.865329E-1,4.504674E-2,-2.5540743E-2,1.276914E-1,1.8622121E-1,-1.9543418E-1,7.888933E-2,-6.249736E-2,-1.430458E-1,-2.0922069E-2,-1.3264552E-2,1.5289265E-2,-1.4400256E-2,-1.9455734E-1,-2.7778177E-2],"split_indices":[1,1,0,0,0,1,0,1,0,1,0,1,1,1,1,0,0,0,0,0,0,0,0,0,0,0,0,0,0,0,0],"split_type":[0,0,0,0,0,0,0,0,0,0,0,0,0,0,0,0,0,0,0,0,0,0,0,0,0,0,0,0,0,0,0],"sum_hessian":[4.514E3,2.821E3,1.693E3,2.361E3,4.6E2,2.3E2,1.463E3,1.594E3,7.67E2,1.09E2,3.51E2,1.19E2,1.11E2,1.28E3,1.83E2,1.549E3,4.5E1,4.57E2,3.1E2,8.8E1,2.1E1,6.6E1,2.85E2,9.8E1,2.1E1,9E1,2.1E1,7.29E2,5.51E2,2E1,1.63E2],"tree_param":{"num_deleted":"0","num_feature":"2","num_nodes":"31","size_leaf_vector":"1"}},{"base_weights":[-1.225243E-3,6.7308985E-2,-7.644362E-2,-3.819824E-2,3.844319E-1,-2.8055477E-1,2.7165225E-2,1.2722799E-1,-4.0560934E-1,-1.2761115E-1,8.698575E-1,-5.108837E-1,3.8483474E-1,1.9272354E-1,-2.2194469E-1,-1.58183E-3,4.4864982E-2,-9.817896E-2,-2.9248849E-2,8.164116E-3,-9.588124E-2,2.253278E-1,-7.5062835E-3,-2.4121555E-2,-7.1698576E-2,1.7537032E-1,1.8216593E-2,-1.6344825E-2,4.8924904E-2,-5.0326865E-2,-9.324511E-3],"categories":[],"categories_nodes":[],"categories_segments":[],"categories_sizes":[],"default_left":[0,0,0,0,0,0,0,0,0,0,0,0,0,0,0,0,0,0,0,0,0,0,0,0,0,0,0,0,0,0,0],"id":43,"left_children":[1,3,5,7,9,11,13,15,17,19,21,23,25,27,29,-1,-1,-1,-1,-1,-1,-1,-1,-1,-1,-1,-1,-1,-1,-1,-1],"loss_changes":[2.328012E1,7.907773E1,4.5538666E1,1.0787432E2,1.4676071E2,1.1130896E2,5.8977905E1,5.6284424E1,3.5625916E1,5.017034E1,3.9625745E2,2.978424E1,5.1559372E1,9.08024E1,2.0626858E1,0E0,0E0,0E0,0E0,0E0,0E0,0E0,0E0,0E0,0E0,0E0,0E0,0E0,0E0,0E0,0E0],"parents":[2147483647,0,0,1,1,2,2,3,3,4,4,5,5,6,6,7,7,8,8,9,9,10,10,11,11,12,12,13,13,14,14],"right_children":[2,4,6,8,10,12,14,16,18,20,22,24,26,28,30,-1,-1,-1,-1,-1,-1,-1,-1,-1,-1,-1,-1,-1,-1,-1,-1],"split_conditions":[5E0,4E0,6E0,1.8E1,1.4E1,1.9E1,1.6E1,1.3E1,1.9E1,1.2E1,1.9E1,1.1E1,2E1,9E0,1.9E1,-1.58183E-3,4.4864982E-2,-9.817896E-2,-2.9248849E-2,8.164116E-3,-9.588124E-2,2.253278E-1,-7.5062835E-3,-2.4121555E-2,-7.1698576E-2,1.7537032E-1,1.8216593E-2,-1.6344825E-2,4.8924904E-2,-5.0326865E-2,-9.324511E-3],"split_indices":[0,0,0,1,1,1,1,1,1,1,1,1,1,1,1,0,0,0,0,0,0,0,0,0,0,0,0,0,0,0,0],"split_type":[0,0,0,0,0,0,0,0,0,0,0,0,0,0,0,0,0,0,0,0,0,0,0,0,0,0,0,0,0,0,0],"sum_hessian":[4.514E3,2.362E3,2.152E3,1.773E3,5.89E2,7.24E2,1.428E3,1.223E3,5.5E2,2.87E2,3.02E2,5.38E2,1.86E2,8.58E2,5.7E2,8.47E2,3.76E2,8.9E1,4.61E2,2.3E2,5.7E1,1.22E2,1.8E2,2.34E2,3.04E2,2.3E1,1.63E2,3.9E2,4.68E2,1.78E2,3.92E2],"tree_param":{"num_deleted":"0","num_feature":"2","num_nodes":"31","size_leaf_vector":"1"}},{"base_weights":[-1.0768701E-3,1.0583191E-2,-3.8237026E-1,-1.0703803E-1,5.109793E-2,-1.6953541E-1,-5.990859E-1,8.369016E-2,-2.7342892E-1,-2.2550762E-1,9.219565E-2,-9.2064375E-3,-2.0151098E-1,-5.1480006E-2,-7.251362E-2,-1.110599E-2,5.566531E-2,-1.7357096E-2,-8.024257E-2,-9.1176376E-2,-1.0253854E-2,2.6112175E-2,3.9894315E-3,-3.0421048E-2,-1.1036654E-2],"categories":[],"categories_nodes":[],"categories_segments":[],"categories_sizes":[],"default_left":[0,0,0,0,0,0,0,0,0,0,0,0,0,0,0,0,0,0,0,0,0,0,0,0,0],"id":44,"left_children":[1,3,5,7,9,11,13,15,17,19,21,-1,23,-1,-1,-1,-1,-1,-1,-1,-1,-1,-1,-1,-1],"loss_changes":[2.0077303E1,2.0887423E1,6.079136E0,3.5661774E1,3.708001E1,1.5237331E-1,3.2790184E-1,4.832723E1,3.1555447E1,3.5518364E1,2.5072323E1,0E0,4.157288E-1,0E0,0E0,0E0,0E0,0E0,0E0,0E0,0E0,0E0,0E0,0E0,0E0],"parents":[2147483647,0,0,1,1,2,2,3,3,4,4,5,5,6,6,7,7,8,8,9,9,10,10,12,12],"right_children":[2,4,6,8,10,12,14,16,18,20,22,-1,24,-1,-1,-1,-1,-1,-1,-1,-1,-1,-1,-1,-1],"split_conditions":[2.3E1,8E0,6E0,4E0,2E0,2E0,7E0,5E0,7E0,1E1,1.2E1,-9.2064375E-3,5E0,-5.1480006E-2,-7.251362E-2,-1.110599E-2,5.566531E-2,-1.7357096E-2,-8.024257E-2,-9.1176376E-2,-1.0253854E-2,2.6112175E-2,3.9894315E-3,-3.0421048E-2,-1.1036654E-2],"split_indices":[1,1,0,0,0,0,0,1,1,1,1,0,0,0,0,0,0,0,0,0,0,0,0,0,0],"split_type":[0,0,0,0,0,0,0,0,0,0,0,0,0,0,0,0,0,0,0,0,0,0,0,0,0],"sum_hessian":[4.514E3,4.381E3,1.33E2,1.122E3,3.259E3,6.8E1,6.5E1,5.23E2,5.99E2,4.21E2,2.838E3,2.1E1,4.7E1,4.2E1,2.3E1,3.71E2,1.52E2,5.05E2,9.4E1,6.3E1,3.58E2,6.7E2,2.168E3,2.1E1,2.6E1],"tree_param":{"num_deleted":"0","num_feature":"2","num_nodes":"25","size_leaf_vector":"1"}},{"base_weights":[-1.0355412E-3,6.0728043E-2,-6.8822965E-2,-3.5418697E-2,3.4971717E-1,-2.517994E-1,2.4057887E-2,1.1273606E-1,-3.644677E-1,-1.0629349E-1,7.819989E-1,-4.585614E-1,3.455082E-1,1.7075735E-1,-1.9667575E-1,-1.7207112E-3,4.04723E-2,-8.854821E-2,-2.621825E-2,8.554477E-3,-8.6850636E-2,2.0258239E-1,-6.757273E-3,6.2910385E-2,-5.0606187E-2,1.5818171E-1,1.6247818E-2,-1.3728126E-2,4.2720158E-2,-4.571903E-2,-7.7518537E-3],"categories":[],"categories_nodes":[],"categories_segments":[],"categories_sizes":[],"default_left":[0,0,0,0,0,0,0,0,0,0,0,0,0,0,0,0,0,0,0,0,0,0,0,0,0,0,0,0,0,0,0],"id":45,"left_children":[1,3,5,7,9,11,13,15,17,19,21,23,25,27,29,-1,-1,-1,-1,-1,-1,-1,-1,-1,-1,-1,-1,-1,-1,-1,-1],"loss_changes":[1.8907555E1,6.5669205E1,3.659631E1,8.6523895E1,1.1638691E2,8.9696304E1,4.6306755E1,4.6447617E1,2.9131767E1,4.218611E1,3.203225E2,2.816558E1,4.2057663E1,6.7915115E1,1.7689646E1,0E0,0E0,0E0,0E0,0E0,0E0,0E0,0E0,0E0,0E0,0E0,0E0,0E0,0E0,0E0,0E0],"parents":[2147483647,0,0,1,1,2,2,3,3,4,4,5,5,6,6,7,7,8,8,9,9,10,10,11,11,12,12,13,13,14,14],"right_children":[2,4,6,8,10,12,14,16,18,20,22,24,26,28,30,-1,-1,-1,-1,-1,-1,-1,-1,-1,-1,-1,-1,-1,-1,-1,-1],"split_conditions":[5E0,4E0,6E0,1.8E1,1.4E1,1.9E1,1.6E1,1.3E1,1.9E1,1.2E1,1.9E1,1E0,2E1,9E0,1.9E1,-1.7207112E-3,4.04723E-2,-8.854821E-2,-2.621825E-2,8.554477E-3,-8.6850636E-2,2.0258239E-1,-6.757273E-3,6.2910385E-2,-5.0606187E-2,1.5818171E-1,1.6247818E-2,-1.3728126E-2,4.2720158E-2,-4.571903E-2,-7.7518537E-3],"split_indices":[0,0,0,1,1,1,1,1,1,1,1,1,1,1,1,0,0,0,0,0,0,0,0,0,0,0,0,0,0,0,0],"split_type":[0,0,0,0,0,0,0,0,0,0,0,0,0,0,0,0,0,0,0,0,0,0,0,0,0,0,0,0,0,0,0],"sum_hessian":[4.514E3,2.362E3,2.152E3,1.773E3,5.89E2,7.24E2,1.428E3,1.223E3,5.5E2,2.87E2,3.02E2,5.38E2,1.86E2,8.58E2,5.7E2,8.47E2,3.76E2,8.9E1,4.61E2,2.3E2,5.7E1,1.22E2,1.8E2,2.2E1,5.16E2,2.3E1,1.63E2,3.9E2,4.68E2,1.78E2,3.92E2],"tree_param":{"num_deleted":"0","num_feature":"2","num_nodes":"31","size_leaf_vector":"1"}},{"base_weights":[-8.8698475E-4,9.472807E-3,-3.39661E-1,-1.5094213E-1,3.0266425E-2,-1.4940214E-1,-5.3342164E-1,-1.9419187E-1,5.3427937E-3,5.3721648E-2,-1.7279571E-1,-5.824979E-3,-1.8806775E-1,-4.5694575E-2,-6.4821504E-2,-1.5559631E-2,-3.6758296E-2,1.6023537E-2,-6.2151093E-2,9.5701887E-4,2.0548007E-2,-4.7684062E-2,8.089978E-3,-2.6872149E-2,-1.1538442E-2],"categories":[],"categories_nodes":[],"categories_segments":[],"categories_sizes":[],"default_left":[0,0,0,0,0,0,0,0,0,0,0,0,0,0,0,0,0,0,0,0,0,0,0,0,0],"id":46,"left_children":[1,3,5,7,9,11,13,15,17,19,21,-1,23,-1,-1,-1,-1,-1,-1,-1,-1,-1,-1,-1,-1],"loss_changes":[1.5849189E1,1.4621199E1,4.860173E0,3.400957E0,1.848921E1,2.3223281E-1,2.8320885E-1,2.5795012E0,1.0780036E1,2.330857E1,3.104677E1,0E0,2.503786E-1,0E0,0E0,0E0,0E0,0E0,0E0,0E0,0E0,0E0,0E0,0E0,0E0],"parents":[2147483647,0,0,1,1,2,2,3,3,4,4,5,5,6,6,7,7,8,8,9,9,10,10,12,12],"right_children":[2,4,6,8,10,12,14,16,18,20,22,-1,24,-1,-1,-1,-1,-1,-1,-1,-1,-1,-1,-1,-1],"split_conditions":[2.3E1,4E0,6E0,7E0,7E0,2E0,7E0,6E0,3E0,6E0,1.4E1,-5.824979E-3,5E0,-4.5694575E-2,-6.4821504E-2,-1.5559631E-2,-3.6758296E-2,1.6023537E-2,-6.2151093E-2,9.5701887E-4,2.0548007E-2,-4.7684062E-2,8.089978E-3,-2.6872149E-2,-1.1538442E-2],"split_indices":[1,1,0,0,0,0,0,0,1,0,1,0,0,0,0,0,0,0,0,0,0,0,0,0,0],"split_type":[0,0,0,0,0,0,0,0,0,0,0,0,0,0,0,0,0,0,0,0,0,0,0,0,0],"sum_hessian":[4.514E3,4.381E3,1.33E2,5.02E2,3.879E3,6.8E1,6.5E1,3.93E2,1.09E2,3.478E3,4.01E2,2.1E1,4.7E1,4.2E1,2.3E1,3.23E2,7E1,8.8E1,2.1E1,2.695E3,7.83E2,1.82E2,2.19E2,2.1E1,2.6E1],"tree_param":{"num_deleted":"0","num_feature":"2","num_nodes":"25","size_leaf_vector":"1"}},{"base_weights":[-8.5858715E-4,5.5959556E-2,-6.321828E-2,-3.0636214E-2,3.1623912E-1,-2.2582218E-1,1.9322688E-2,1.03668034E-1,-3.2892618E-1,-9.430925E-2,7.054196E-1,-5.4220617E-1,1.05457515E-1,1.5538296E-1,-1.8539727E-1,-1.192618E-3,3.6340337E-2,-5.3029824E-2,-1.1430456E-2,7.929164E-3,-7.840937E-2,1.8239377E-1,-5.8575748E-3,-1.623301E-2,-1.18986085E-1,1.3217354E-1,-6.640686E-3,-1.1178613E-2,3.777875E-2,-4.278444E-2,-7.449794E-3],"categories":[],"categories_nodes":[],"categories_segments":[],"categories_sizes":[],"default_left":[0,0,0,0,0,0,0,0,0,0,0,0,0,0,0,0,0,0,0,0,0,0,0,0,0,0,0,0,0,0,0],"id":47,"left_children":[1,3,5,7,9,11,13,15,17,19,21,23,25,27,29,-1,-1,-1,-1,-1,-1,-1,-1,-1,-1,-1,-1,-1,-1,-1,-1],"loss_changes":[1.6000914E1,5.3269604E1,2.8900816E1,7.1103386E1,9.433519E1,7.604558E1,3.983254E1,3.6753593E1,2.3752941E1,3.4549362E1,2.5903326E2,9.108344E1,7.4295135E1,5.108368E1,1.5320726E1,0E0,0E0,0E0,0E0,0E0,0E0,0E0,0E0,0E0,0E0,0E0,0E0,0E0,0E0,0E0,0E0],"parents":[2147483647,0,0,1,1,2,2,3,3,4,4,5,5,6,6,7,7,8,8,9,9,10,10,11,11,12,12,13,13,14,14],"right_children":[2,4,6,8,10,12,14,16,18,20,22,24,26,28,30,-1,-1,-1,-1,-1,-1,-1,-1,-1,-1,-1,-1,-1,-1,-1,-1],"split_conditions":[5E0,4E0,6E0,1.8E1,1.4E1,1.5E1,1.6E1,1.3E1,2.1E1,1.2E1,1.9E1,1.1E1,1.6E1,9E0,1.9E1,-1.192618E-3,3.6340337E-2,-5.3029824E-2,-1.1430456E-2,7.929164E-3,-7.840937E-2,1.8239377E-1,-5.8575748E-3,-1.623301E-2,-1.18986085E-1,1.3217354E-1,-6.640686E-3,-1.1178613E-2,3.777875E-2,-4.278444E-2,-7.449794E-3],"split_indices":[0,0,0,1,1,1,1,1,1,1,1,1,1,1,1,0,0,0,0,0,0,0,0,0,0,0,0,0,0,0,0],"split_type":[0,0,0,0,0,0,0,0,0,0,0,0,0,0,0,0,0,0,0,0,0,0,0,0,0,0,0,0,0,0,0],"sum_hessian":[4.514E3,2.362E3,2.152E3,1.773E3,5.89E2,7.24E2,1.428E3,1.223E3,5.5E2,2.87E2,3.02E2,3.7E2,3.54E2,8.58E2,5.7E2,8.47E2,3.76E2,2.83E2,2.67E2,2.3E2,5.7E1,1.22E2,1.8E2,2.34E2,1.36E2,4.3E1,3.11E2,3.9E2,4.68E2,1.78E2,3.92E2],"tree_param":{"num_deleted":"0","num_feature":"2","num_nodes":"31","size_leaf_vector":"1"}},{"base_weights":[-7.631636E-4,5.039595E-2,-5.6911897E-2,-2.7589286E-2,2.8479496E-1,-2.0325316E-1,1.7373852E-2,9.332963E-2,-2.961504E-1,-2.5728822E-1,5.2916473E-1,-3.841631E-1,3.1928006E-1,1.3987558E-1,-1.6694552E-1,1.984447E-2,-1.604948E-2,-7.464234E-2,-2.0779384E-2,-1.7796151E-2,-3.346806E-2,9.908279E-2,-5.2750628E-3,-1.4616589E-2,-5.6627847E-2,1.4356719E-1,1.5395882E-2,-1.006361E-2,3.400892E-2,-3.852996E-2,-6.7066834E-3],"categories":[],"categories_nodes":[],"categories_segments":[],"categories_sizes":[],"default_left":[0,0,0,0,0,0,0,0,0,0,0,0,0,0,0,0,0,0,0,0,0,0,0,0,0,0,0,0,0,0,0],"id":48,"left_children":[1,3,5,7,9,11,13,15,17,19,21,23,25,27,29,-1,-1,-1,-1,-1,-1,-1,-1,-1,-1,-1,-1,-1,-1,-1,-1],"loss_changes":[1.2972294E1,4.3202698E1,2.3408949E1,5.7636726E1,7.8292725E1,6.865797E1,3.2289375E1,3.268911E1,2.176619E1,1.0700684E0,1.0939235E2,2.3279076E1,3.4292305E1,4.1398266E1,1.2427052E1,0E0,0E0,0E0,0E0,0E0,0E0,0E0,0E0,0E0,0E0,0E0,0E0,0E0,0E0,0E0,0E0],"parents":[2147483647,0,0,1,1,2,2,3,3,4,4,5,5,6,6,7,7,8,8,9,9,10,10,11,11,12,12,13,13,14,14],"right_children":[2,4,6,8,10,12,14,16,18,20,22,24,26,28,30,-1,-1,-1,-1,-1,-1,-1,-1,-1,-1,-1,-1,-1,-1,-1,-1],"split_conditions":[5E0,4E0,6E0,1.8E1,1E1,1.9E1,1.6E1,3E0,1.9E1,5E0,1.9E1,1.1E1,2E1,9E0,1.9E1,1.984447E-2,-1.604948E-2,-7.464234E-2,-2.0779384E-2,-1.7796151E-2,-3.346806E-2,9.908279E-2,-5.2750628E-3,-1.4616589E-2,-5.6627847E-2,1.4356719E-1,1.5395882E-2,-1.006361E-2,3.400892E-2,-3.852996E-2,-6.7066834E-3],"split_indices":[0,0,0,1,1,1,1,0,1,1,1,1,1,1,1,0,0,0,0,0,0,0,0,0,0,0,0,0,0,0,0],"split_type":[0,0,0,0,0,0,0,0,0,0,0,0,0,0,0,0,0,0,0,0,0,0,0,0,0,0,0,0,0,0,0],"sum_hessian":[4.514E3,2.362E3,2.152E3,1.773E3,5.89E2,7.24E2,1.428E3,1.223E3,5.5E2,1.83E2,4.06E2,5.38E2,1.86E2,8.58E2,5.7E2,8.65E2,3.58E2,8.9E1,4.61E2,9.2E1,9.1E1,2.26E2,1.8E2,2.34E2,3.04E2,2.3E1,1.63E2,3.9E2,4.68E2,1.78E2,3.92E2],"tree_param":{"num_deleted":"0","num_feature":"2","num_nodes":"31","size_leaf_vector":"1"}},{"base_weights":[-6.828885E-4,8.313999E-3,-2.9488942E-1,-1.1009364E-1,2.97534E-2,-1.2521128E-1,-4.6781218E-1,2.1837758E-2,-4.004467E-1,-1.0713488E-1,7.183643E-2,-2.194382E-3,-1.6993363E-1,-3.9848696E-2,-5.7252772E-2,-1.736228E-2,8.93105E-2,-6.305448E-2,-9.262017E-3,1.0081224E-2,-2.0191884E-2,2.236153E-2,2.4849125E-3,-2.3244495E-2,-1.1270466E-2],"categories":[],"categories_nodes":[],"categories_segments":[],"categories_sizes":[],"default_left":[0,0,0,0,0,0,0,0,0,0,0,0,0,0,0,0,0,0,0,0,0,0,0,0,0],"id":49,"left_children":[1,3,5,7,9,11,13,15,17,19,21,-1,23,-1,-1,-1,-1,-1,-1,-1,-1,-1,-1,-1,-1],"loss_changes":[1.19534E1,1.1127372E1,3.873148E0,2.575084E1,2.1385555E1,3.1493807E-1,2.5097656E-1,7.900321E1,1.481596E1,1.722723E1,2.0241287E1,0E0,1.4552033E-1,0E0,0E0,0E0,0E0,0E0,0E0,0E0,0E0,0E0,0E0,0E0,0E0],"parents":[2147483647,0,0,1,1,2,2,3,3,4,4,5,5,6,6,7,7,8,8,9,9,10,10,12,12],"right_children":[2,4,6,8,10,12,14,16,18,20,22,-1,24,-1,-1,-1,-1,-1,-1,-1,-1,-1,-1,-1,-1],"split_conditions":[2.3E1,2E0,6E0,1.7E1,8E0,2E0,7E0,1.3E1,2.1E1,4E0,1.2E1,-2.194382E-3,5E0,-3.9848696E-2,-5.7252772E-2,-1.736228E-2,8.93105E-2,-6.305448E-2,-9.262017E-3,1.0081224E-2,-2.0191884E-2,2.236153E-2,2.4849125E-3,-2.3244495E-2,-1.1270466E-2],"split_indices":[1,0,0,1,1,0,0,1,1,0,1,0,0,0,0,0,0,0,0,0,0,0,0,0,0],"split_type":[0,0,0,0,0,0,0,0,0,0,0,0,0,0,0,0,0,0,0,0,0,0,0,0,0],"sum_hessian":[4.514E3,4.381E3,1.33E2,6.71E2,3.71E3,6.8E1,6.5E1,4.62E2,2.09E2,8.72E2,2.838E3,2.1E1,4.7E1,4.2E1,2.3E1,3.78E2,8.4E1,1.19E2,9E1,2.73E2,5.99E2,6.7E2,2.168E3,2.1E1,2.6E1],"tree_param":{"num_deleted":"0","num_feature":"2","num_nodes":"25","size_leaf_vector":"1"}}]},"name":"gbtree"},"learner_model_param":{"base_score":"[1.3986486E1]","boost_from_average":"1","num_class":"0","num_feature":"2","num_target":"1"},"objective":{"name":"reg:squarederror","reg_loss_param":{"scale_pos_weight":"1"}}},"version":[3,2,0]}