{"learner":{"attributes":{},"feature_names":["day_of_week","hour_of_day"],"feature_types":[],"gradient_booster":{"model":{"cats":{"enc":[],"feature_segments":[],"sorted_idx":[]},"gbtree_model_param":{"num_parallel_tree":"1","num_trees":"50"},"iteration_indptr":[0,1,2,3,4,5,6,7,8,9,10,11,12,13,14,15,16,17,18,19,20,21,22,23,24,25,26,27,28,29,30,31,32,33,34,35,36,37,38,39,40,41,42,43,44,45,46,47,48,49,50],"tree_info":[0,0,0,0,0,0,0,0,0,0,0,0,0,0,0,0,0,0,0,0,0,0,0,0,0,0,0,0,0,0,0,0,0,0,0,0,0,0,0,0,0,0,0,0,0,0,0,0,0,0],"trees":[{"base_weights":[-4.0702432E-7,-1.0472379E1,1.3053883E0,-1.0984769E1,-7.121694E0,3.509483E0,-3.5792506E0,-1.2104229E0,-9.642583E-1,-4.2786106E-1,-8.373672E-1,-1.1149517E0,4.234472E0,-1.7002019E0,-7.1705713E0,3.007422E-1,-7.477446E-1,4.984375E-1,3.3189774E-1,-4.2168638E-1,2.6472205E-2,-1.0407221E0,-4.7140366E-1],"categories":[],"categories_nodes":[],"categories_segments":[],"categories_sizes":[],"default_left":[0,0,0,0,0,0,0,0,0,0,0,0,0,0,0,0,0,0,0,0,0,0,0],"id":0,"left_children":[1,3,5,7,9,11,13,-1,-1,-1,-1,15,17,19,21,-1,-1,-1,-1,-1,-1,-1,-1],"loss_changes":[5.501019E4,6.874844E2,3.853405E4,4.617578E2,1.8485986E2,8.272391E3,7.498631E3,0E0,0E0,0E0,0E0,8.8090625E3,1.4471445E3,3.620892E3,2.9881992E3,0E0,0E0,0E0,0E0,0E0,0E0,0E0,0E0],"parents":[2147483647,0,0,1,1,2,2,3,3,4,4,5,5,6,6,11,11,12,12,13,13,14,14],"right_children":[2,4,6,8,10,12,14,-1,-1,-1,-1,16,18,20,22,-1,-1,-1,-1,-1,-1,-1,-1],"split_conditions":[4E0,3E0,1.9E1,5E0,2E0,7E0,2.2E1,-1.2104229E0,-9.642583E-1,-4.2786106E-1,-8.373672E-1,5E0,5E0,4E0,4E0,3.007422E-1,-7.477446E-1,4.984375E-1,3.3189774E-1,-4.2168638E-1,2.6472205E-2,-1.0407221E0,-4.7140366E-1],"split_indices":[1,1,1,0,0,1,1,0,0,0,0,0,0,0,0,0,0,0,0,0,0,0,0],"split_type":[0,0,0,0,0,0,0,0,0,0,0,0,0,0,0,0,0,0,0,0,0,0,0],"sum_hessian":[4.022E3,4.45E2,3.577E3,3.84E2,6.1E1,2.465E3,1.112E3,2.05E2,1.79E2,2E1,4.1E1,3.34E2,2.131E3,7.31E2,3.81E2,2.03E2,1.31E2,1.169E3,9.62E2,3.2E2,4.11E2,1.63E2,2.18E2],"tree_param":{"num_deleted":"0","num_feature":"2","num_nodes":"23","size_leaf_vector":"1"}},{"base_weights":[-1.2342236E-3,-9.432854E0,1.1744236E0,-9.89194E0,-6.429931E0,3.1586902E0,-3.2230392E0,-1.0899681E0,-8.6836815E-1,-3.8711238E-1,-7.5562415E0,-1.0047908E0,3.8114142E0,-1.5307214E0,-6.4574723E0,-6.23903E-1,-8.576357E-1,2.7081543E-1,-6.7353666E-1,4.4863638E-1,2.987424E-1,-3.7964913E-1,2.3831438E-2,-9.3728447E-1,-4.244785E-1],"categories":[],"categories_nodes":[],"categories_segments":[],"categories_sizes":[],"default_left":[0,0,0,0,0,0,0,0,0,0,0,0,0,0,0,0,0,0,0,0,0,0,0,0,0],"id":1,"left_children":[1,3,5,7,9,11,13,-1,-1,-1,15,17,19,21,23,-1,-1,-1,-1,-1,-1,-1,-1,-1,-1],"loss_changes":[4.461954E4,5.5125E2,3.1230875E4,3.741328E2,1.494336E2,6.7054395E3,6.082331E3,0E0,0E0,0E0,2.9274902E0,7.14614E3,1.1723125E3,2.9349272E3,2.4244229E3,0E0,0E0,0E0,0E0,0E0,0E0,0E0,0E0,0E0,0E0],"parents":[2147483647,0,0,1,1,2,2,3,3,4,4,5,5,6,6,10,10,11,11,12,12,13,13,14,14],"right_children":[2,4,6,8,10,12,14,-1,-1,-1,16,18,20,22,24,-1,-1,-1,-1,-1,-1,-1,-1,-1,-1],"split_conditions":[4E0,3E0,1.9E1,5E0,2E0,7E0,2.2E1,-1.0899681E0,-8.6836815E-1,-3.8711238E-1,7E0,5E0,5E0,4E0,4E0,-6.23903E-1,-8.576357E-1,2.7081543E-1,-6.7353666E-1,4.4863638E-1,2.987424E-1,-3.7964913E-1,2.3831438E-2,-9.3728447E-1,-4.244785E-1],"split_indices":[1,1,1,0,0,1,1,0,0,0,0,0,0,0,0,0,0,0,0,0,0,0,0,0,0],"split_type":[0,0,0,0,0,0,0,0,0,0,0,0,0,0,0,0,0,0,0,0,0,0,0,0,0],"sum_hessian":[4.022E3,4.45E2,3.577E3,3.84E2,6.1E1,2.465E3,1.112E3,2.05E2,1.79E2,2E1,4.1E1,3.34E2,2.131E3,7.31E2,3.81E2,2.1E1,2E1,2.03E2,1.31E2,1.169E3,9.62E2,3.2E2,4.11E2,1.63E2,2.18E2],"tree_param":{"num_deleted":"0","num_feature":"2","num_nodes":"25","size_leaf_vector":"1"}},{"base_weights":[-2.4032348E-3,-8.498149E0,1.0565976E0,-8.907833E0,-5.8170776E0,2.3643396E0,-4.4500194E0,-9.8150045E-1,-7.820138E-1,-3.5024452E-1,-6.835892E0,-1.632724E0,2.7398708E0,-7.198313E0,-2.518619E0,-5.6434864E-1,-7.759561E-1,1.3888381E-1,-6.804182E-1,3.5495868E-1,3.441476E-2,-5.439612E-1,-8.441276E-1,-9.784445E-2,-3.8222447E-1],"categories":[],"categories_nodes":[],"categories_segments":[],"categories_sizes":[],"default_left":[0,0,0,0,0,0,0,0,0,0,0,0,0,0,0,0,0,0,0,0,0,0,0,0,0],"id":2,"left_children":[1,3,5,7,9,11,13,-1,-1,-1,15,17,19,21,23,-1,-1,-1,-1,-1,-1,-1,-1,-1,-1],"loss_changes":[3.6203918E4,4.3806445E2,2.5776533E4,3.0313477E2,1.2226489E2,4.3454297E3,3.628505E3,0E0,0E0,0E0,2.4672852E0,3.900294E3,5.127754E3,5.727207E2,8.094238E2,0E0,0E0,0E0,0E0,0E0,0E0,0E0,0E0,0E0,0E0],"parents":[2147483647,0,0,1,1,2,2,3,3,4,4,5,5,6,6,10,10,11,11,12,12,13,13,14,14],"right_children":[2,4,6,8,10,12,14,-1,-1,-1,16,18,20,22,24,-1,-1,-1,-1,-1,-1,-1,-1,-1,-1],"split_conditions":[4E0,3E0,2.1E1,5E0,2E0,6E0,4E0,-9.8150045E-1,-7.820138E-1,-3.5024452E-1,7E0,5E0,1.8E1,2.2E1,2.2E1,-5.6434864E-1,-7.759561E-1,1.3888381E-1,-6.804182E-1,3.5495868E-1,3.441476E-2,-5.439612E-1,-8.441276E-1,-9.784445E-2,-3.8222447E-1],"split_indices":[1,1,1,0,0,1,0,0,0,0,0,0,1,1,1,0,0,0,0,0,0,0,0,0,0],"split_type":[0,0,0,0,0,0,0,0,0,0,0,0,0,0,0,0,0,0,0,0,0,0,0,0,0],"sum_hessian":[4.022E3,4.45E2,3.577E3,3.84E2,6.1E1,2.891E3,6.86E2,2.05E2,1.79E2,2E1,4.1E1,2.48E2,2.643E3,2.82E2,4.04E2,2.1E1,2E1,1.57E2,9.1E1,1.975E3,6.68E2,1.19E2,1.63E2,1.86E2,2.18E2],"tree_param":{"num_deleted":"0","num_feature":"2","num_nodes":"25","size_leaf_vector":"1"}},{"base_weights":[-3.5236506E-3,-7.656079E0,9.5037323E-1,-8.02163E0,-5.262637E0,2.127853E0,-4.007737E0,-8.8382685E-1,-7.042468E-1,-3.1688792E-1,-6.184215E0,-1.4716265E0,2.4660308E0,-6.483387E0,-2.267943E0,-5.10479E-1,-7.020555E-1,1.2508334E-1,-6.1311597E-1,3.0243096E-1,-4.3965567E-2,-4.9001843E-1,-7.602295E-1,-8.8112354E-2,-3.4417662E-1],"categories":[],"categories_nodes":[],"categories_segments":[],"categories_sizes":[],"default_left":[0,0,0,0,0,0,0,0,0,0,0,0,0,0,0,0,0,0,0,0,0,0,0,0,0],"id":3,"left_children":[1,3,5,7,9,11,13,-1,-1,-1,15,17,19,21,23,-1,-1,-1,-1,-1,-1,-1,-1,-1,-1],"loss_changes":[2.9374164E4,3.480039E2,2.0897156E4,2.4560938E2,1.0003589E2,3.52396E3,2.944287E3,0E0,0E0,0E0,2.0776367E0,3.1663315E3,4.290381E3,4.640713E2,6.5625903E2,0E0,0E0,0E0,0E0,0E0,0E0,0E0,0E0,0E0,0E0],"parents":[2147483647,0,0,1,1,2,2,3,3,4,4,5,5,6,6,10,10,11,11,12,12,13,13,14,14],"right_children":[2,4,6,8,10,12,14,-1,-1,-1,16,18,20,22,24,-1,-1,-1,-1,-1,-1,-1,-1,-1,-1],"split_conditions":[4E0,3E0,2.1E1,5E0,2E0,6E0,4E0,-8.8382685E-1,-7.042468E-1,-3.1688792E-1,7E0,5E0,1.9E1,2.2E1,2.2E1,-5.10479E-1,-7.020555E-1,1.2508334E-1,-6.1311597E-1,3.0243096E-1,-4.3965567E-2,-4.9001843E-1,-7.602295E-1,-8.8112354E-2,-3.4417662E-1],"split_indices":[1,1,1,0,0,1,0,0,0,0,0,0,1,1,1,0,0,0,0,0,0,0,0,0,0],"split_type":[0,0,0,0,0,0,0,0,0,0,0,0,0,0,0,0,0,0,0,0,0,0,0,0,0],"sum_hessian":[4.022E3,4.45E2,3.577E3,3.84E2,6.1E1,2.891E3,6.86E2,2.05E2,1.79E2,2E1,4.1E1,2.48E2,2.643E3,2.82E2,4.04E2,2.1E1,2E1,1.57E2,9.1E1,2.217E3,4.26E2,1.19E2,1.63E2,1.86E2,2.18E2],"tree_param":{"num_deleted":"0","num_feature":"2","num_nodes":"25","size_leaf_vector":"1"}},{"base_weights":[-4.4214767E-3,-6.897461E0,8.5480154E-1,-7.223592E0,-4.761041E0,1.9149883E0,-3.6094124E0,-7.9587317E-1,-6.3421345E-1,-2.8670812E-1,-5.594663E0,-1.7413308E-1,2.4189627E0,-5.839466E0,-2.0422158E0,-4.6175146E-1,-6.3519305E-1,2.4286495E-1,-3.9809367E-1,3.2992756E-1,2.2838099E-2,-4.414249E-1,-6.8467015E-1,-7.93482E-2,-3.099161E-1],"categories":[],"categories_nodes":[],"categories_segments":[],"categories_sizes":[],"default_left":[0,0,0,0,0,0,0,0,0,0,0,0,0,0,0,0,0,0,0,0,0,0,0,0,0],"id":4,"left_children":[1,3,5,7,9,11,13,-1,-1,-1,15,17,19,21,23,-1,-1,-1,-1,-1,-1,-1,-1,-1,-1],"loss_changes":[2.383275E4,2.7635938E2,1.6941232E4,1.9900195E2,8.184802E1,3.0453027E3,2.3890928E3,0E0,0E0,0E0,1.7484131E0,5.5880312E3,4.492414E3,3.7603125E2,5.3207764E2,0E0,0E0,0E0,0E0,0E0,0E0,0E0,0E0,0E0,0E0],"parents":[2147483647,0,0,1,1,2,2,3,3,4,4,5,5,6,6,10,10,11,11,12,12,13,13,14,14],"right_children":[2,4,6,8,10,12,14,-1,-1,-1,16,18,20,22,24,-1,-1,-1,-1,-1,-1,-1,-1,-1,-1],"split_conditions":[4E0,3E0,2.1E1,5E0,2E0,9E0,4E0,-7.9587317E-1,-6.3421345E-1,-2.8670812E-1,7E0,5E0,1.8E1,2.2E1,2.2E1,-4.6175146E-1,-6.3519305E-1,2.4286495E-1,-3.9809367E-1,3.2992756E-1,2.2838099E-2,-4.414249E-1,-6.8467015E-1,-7.93482E-2,-3.099161E-1],"split_indices":[1,1,1,0,0,1,0,0,0,0,0,0,1,1,1,0,0,0,0,0,0,0,0,0,0],"split_type":[0,0,0,0,0,0,0,0,0,0,0,0,0,0,0,0,0,0,0,0,0,0,0,0,0],"sum_hessian":[4.022E3,4.45E2,3.577E3,3.84E2,6.1E1,2.891E3,6.86E2,2.05E2,1.79E2,2E1,4.1E1,5.62E2,2.329E3,2.82E2,4.04E2,2.1E1,2E1,3.34E2,2.28E2,1.661E3,6.68E2,1.19E2,1.63E2,1.86E2,2.18E2],"tree_param":{"num_deleted":"0","num_feature":"2","num_nodes":"25","size_leaf_vector":"1"}},{"base_weights":[-5.006215E-3,-6.2140236E0,7.689532E-1,-6.5049477E0,-4.307254E0,2.0937803E0,-2.1670687E0,-7.166723E-1,-5.7114446E-1,-2.594026E-1,-5.0613146E0,-1.5699553E-1,2.7582197E0,-3.9990516E0,-7.5620055E-1,-4.176751E-1,-5.7469845E-1,2.1865097E-1,-3.5845816E-1,3.0631408E-1,1.7090048E-1,-2.879387E-1,-6.166206E-1,3.2705866E-2,-2.79066E-1],"categories":[],"categories_nodes":[],"categories_segments":[],"categories_sizes":[],"default_left":[0,0,0,0,0,0,0,0,0,0,0,0,0,0,0,0,0,0,0,0,0,0,0,0,0],"id":5,"left_children":[1,3,5,7,9,11,13,-1,-1,-1,15,17,19,21,23,-1,-1,-1,-1,-1,-1,-1,-1,-1,-1],"loss_changes":[1.9337416E4,2.1938867E2,1.3921959E4,1.6123926E2,6.696716E1,3.6883477E3,2.873732E3,0E0,0E0,0E0,1.4700928E0,4.5301724E3,6.039072E2,1.1566636E3,1.3893362E3,0E0,0E0,0E0,0E0,0E0,0E0,0E0,0E0,0E0,0E0],"parents":[2147483647,0,0,1,1,2,2,3,3,4,4,5,5,6,6,10,10,11,11,12,12,13,13,14,14],"right_children":[2,4,6,8,10,12,14,-1,-1,-1,16,18,20,22,24,-1,-1,-1,-1,-1,-1,-1,-1,-1,-1],"split_conditions":[4E0,3E0,1.9E1,5E0,2E0,9E0,4E0,-7.166723E-1,-5.7114446E-1,-2.594026E-1,7E0,5E0,1.7E1,2.2E1,2.2E1,-4.176751E-1,-5.7469845E-1,2.1865097E-1,-3.5845816E-1,3.0631408E-1,1.7090048E-1,-2.879387E-1,-6.166206E-1,3.2705866E-2,-2.79066E-1],"split_indices":[1,1,1,0,0,1,0,0,0,0,0,0,1,1,1,0,0,0,0,0,0,0,0,0,0],"split_type":[0,0,0,0,0,0,0,0,0,0,0,0,0,0,0,0,0,0,0,0,0,0,0,0,0],"sum_hessian":[4.022E3,4.45E2,3.577E3,3.84E2,6.1E1,2.465E3,1.112E3,2.05E2,1.79E2,2E1,4.1E1,5.62E2,1.903E3,4.83E2,6.29E2,2.1E1,2E1,3.34E2,2.28E2,1.473E3,4.3E2,3.2E2,1.63E2,4.11E2,2.18E2],"tree_param":{"num_deleted":"0","num_feature":"2","num_nodes":"25","size_leaf_vector":"1"}},{"base_weights":[-5.339037E-3,-5.5983157E0,6.918306E-1,-5.857798E0,-3.8967187E0,1.5626063E0,-2.9748003E0,-6.45353E-1,-5.143473E-1,-2.3469761E-1,-4.578811E0,-1.3409283E0,1.8354572E0,-4.783265E0,-1.7037624E0,-3.7780616E-1,-5.199653E-1,6.6794775E-2,-4.7763792E-1,2.3817098E-1,2.1926804E-2,-3.6909625E-1,-5.553345E-1,-1.1863776E-1,-3.475987E-1],"categories":[],"categories_nodes":[],"categories_segments":[],"categories_sizes":[],"default_left":[0,0,0,0,0,0,0,0,0,0,0,0,0,0,0,0,0,0,0,0,0,0,0,0,0],"id":6,"left_children":[1,3,5,7,9,11,13,-1,-1,-1,15,17,19,21,23,-1,-1,-1,-1,-1,-1,-1,-1,-1,-1],"loss_changes":[1.5690571E4,1.7409766E2,1.1428535E4,1.3064258E2,5.479187E1,2.2935952E3,1.5710073E3,0E0,0E0,0E0,1.2351685E0,1.7216377E3,2.3337266E3,2.1755176E2,3.672296E2,0E0,0E0,0E0,0E0,0E0,0E0,0E0,0E0,0E0,0E0],"parents":[2147483647,0,0,1,1,2,2,3,3,4,4,5,5,6,6,10,10,11,11,12,12,13,13,14,14],"right_children":[2,4,6,8,10,12,14,-1,-1,-1,16,18,20,22,24,-1,-1,-1,-1,-1,-1,-1,-1,-1,-1],"split_conditions":[4E0,3E0,2.1E1,5E0,2E0,6E0,4E0,-6.45353E-1,-5.143473E-1,-2.3469761E-1,7E0,5E0,1.8E1,2.2E1,2.3E1,-3.7780616E-1,-5.199653E-1,6.6794775E-2,-4.7763792E-1,2.3817098E-1,2.1926804E-2,-3.6909625E-1,-5.553345E-1,-1.1863776E-1,-3.475987E-1],"split_indices":[1,1,1,0,0,1,0,0,0,0,0,0,1,1,1,0,0,0,0,0,0,0,0,0,0],"split_type":[0,0,0,0,0,0,0,0,0,0,0,0,0,0,0,0,0,0,0,0,0,0,0,0,0],"sum_hessian":[4.022E3,4.45E2,3.577E3,3.84E2,6.1E1,2.891E3,6.86E2,2.05E2,1.79E2,2E1,4.1E1,2.48E2,2.643E3,2.82E2,4.04E2,2.1E1,2E1,1.57E2,9.1E1,1.975E3,6.68E2,1.19E2,1.63E2,3.14E2,9E1],"tree_param":{"num_deleted":"0","num_feature":"2","num_nodes":"25","size_leaf_vector":"1"}},{"base_weights":[-5.7578967E-3,-5.043624E0,6.2221694E-1,-5.2750306E0,-3.5253127E0,1.5687435E0,-2.1342518E0,-5.81131E-1,-4.631984E-1,-2.1234548E-1,-4.142306E0,-2.1580224E-1,2.0459702E0,-3.6710494E0,-9.7020495E-1,-3.4174287E-1,-4.7044477E-1,1.8113682E-1,-3.1803712E-1,2.4407072E-1,5.5368233E-2,-2.7106684E-1,-5.0013965E-1,-8.5475104E-4,-2.3006783E-1],"categories":[],"categories_nodes":[],"categories_segments":[],"categories_sizes":[],"default_left":[0,0,0,0,0,0,0,0,0,0,0,0,0,0,0,0,0,0,0,0,0,0,0,0,0],"id":7,"left_children":[1,3,5,7,9,11,13,-1,-1,-1,15,17,19,21,23,-1,-1,-1,-1,-1,-1,-1,-1,-1,-1],"loss_changes":[1.2730513E4,1.3810547E2,9.3386045E3,1.05850586E2,4.4830017E1,2.2691914E3,1.6332861E3,0E0,0E0,0E0,1.0372314E0,3.389214E3,1.2368555E3,4.89833E2,6.678582E2,0E0,0E0,0E0,0E0,0E0,0E0,0E0,0E0,0E0,0E0],"parents":[2147483647,0,0,1,1,2,2,3,3,4,4,5,5,6,6,10,10,11,11,12,12,13,13,14,14],"right_children":[2,4,6,8,10,12,14,-1,-1,-1,16,18,20,22,24,-1,-1,-1,-1,-1,-1,-1,-1,-1,-1],"split_conditions":[4E0,3E0,2E1,5E0,2E0,9E0,4E0,-5.81131E-1,-4.631984E-1,-2.1234548E-1,7E0,5E0,1.8E1,2.2E1,2.2E1,-3.4174287E-1,-4.7044477E-1,1.8113682E-1,-3.1803712E-1,2.4407072E-1,5.5368233E-2,-2.7106684E-1,-5.0013965E-1,-8.5475104E-4,-2.3006783E-1],"split_indices":[1,1,1,0,0,1,0,0,0,0,0,0,1,1,1,0,0,0,0,0,0,0,0,0,0],"split_type":[0,0,0,0,0,0,0,0,0,0,0,0,0,0,0,0,0,0,0,0,0,0,0,0,0],"sum_hessian":[4.022E3,4.45E2,3.577E3,3.84E2,6.1E1,2.663E3,9.14E2,2.05E2,1.79E2,2E1,4.1E1,5.62E2,2.101E3,3.93E2,5.21E2,2.1E1,2E1,3.34E2,2.28E2,1.661E3,4.4E2,2.3E2,1.63E2,3.03E2,2.18E2],"tree_param":{"num_deleted":"0","num_feature":"2","num_nodes":"25","size_leaf_vector":"1"}},{"base_weights":[-5.9048454E-3,-4.5439E0,5.597608E-1,-4.75024E0,-3.1893065E0,1.2722824E0,-2.4404895E0,-5.233E-1,-4.171358E-1,-1.9212215E-1,-3.7474132E0,-1.2064656E0,1.5052384E0,-3.9061573E0,-1.4103055E0,-3.09122E-1,-4.2564055E-1,4.215853E-2,-3.9893526E-1,1.8476924E-1,-2.7712211E-2,-4.781553E-1,-3.2694665E-1,-9.741237E-2,-2.904668E-1],"categories":[],"categories_nodes":[],"categories_segments":[],"categories_sizes":[],"default_left":[0,0,0,0,0,0,0,0,0,0,0,0,0,0,0,0,0,0,0,0,0,0,0,0,0],"id":8,"left_children":[1,3,5,7,9,11,13,-1,-1,-1,15,17,19,21,23,-1,-1,-1,-1,-1,-1,-1,-1,-1,-1],"loss_changes":[1.0329536E4,1.09509766E2,7.651948E3,8.576367E1,3.6679443E1,1.6717705E3,1.0317979E3,0E0,0E0,0E0,8.703613E-1,1.1298215E3,1.6143472E3,1.4209863E2,2.611551E2,0E0,0E0,0E0,0E0,0E0,0E0,0E0,0E0,0E0,0E0],"parents":[2147483647,0,0,1,1,2,2,3,3,4,4,5,5,6,6,10,10,11,11,12,12,13,13,14,14],"right_children":[2,4,6,8,10,12,14,-1,-1,-1,16,18,20,22,24,-1,-1,-1,-1,-1,-1,-1,-1,-1,-1],"split_conditions":[4E0,3E0,2.1E1,5E0,2E0,6E0,4E0,-5.233E-1,-4.171358E-1,-1.9212215E-1,7E0,5E0,1.9E1,2E0,2.3E1,-3.09122E-1,-4.2564055E-1,4.215853E-2,-3.9893526E-1,1.8476924E-1,-2.7712211E-2,-4.781553E-1,-3.2694665E-1,-9.741237E-2,-2.904668E-1],"split_indices":[1,1,1,0,0,1,0,0,0,0,0,0,1,0,1,0,0,0,0,0,0,0,0,0,0],"split_type":[0,0,0,0,0,0,0,0,0,0,0,0,0,0,0,0,0,0,0,0,0,0,0,0,0],"sum_hessian":[4.022E3,4.45E2,3.577E3,3.84E2,6.1E1,2.891E3,6.86E2,2.05E2,1.79E2,2E1,4.1E1,2.48E2,2.643E3,2.82E2,4.04E2,2.1E1,2E1,1.57E2,9.1E1,2.217E3,4.26E2,1.16E2,1.66E2,3.14E2,9E1],"tree_param":{"num_deleted":"0","num_feature":"2","num_nodes":"25","size_leaf_vector":"1"}},{"base_weights":[-6.12449E-3,-4.0936966E0,5.0339574E-1,-4.2776585E0,-2.8853257E0,1.1449853E0,-2.198177E0,-4.7122398E-1,-3.7565395E-1,-1.7382477E-1,-3.3901663E0,-1.0872515E0,1.3547742E0,-3.5183866E0,-1.2702328E0,-2.796149E-1,-3.8510337E-1,3.796942E-2,-3.5947534E-1,1.6630068E-1,-2.4947515E-2,-2.6714295E-1,-4.1166577E-1,-8.770209E-2,-2.6173925E-1],"categories":[],"categories_nodes":[],"categories_segments":[],"categories_sizes":[],"default_left":[0,0,0,0,0,0,0,0,0,0,0,0,0,0,0,0,0,0,0,0,0,0,0,0,0],"id":9,"left_children":[1,3,5,7,9,11,13,-1,-1,-1,15,17,19,21,23,-1,-1,-1,-1,-1,-1,-1,-1,-1,-1],"loss_changes":[8.380765E3,8.680127E1,6.204268E3,6.948828E1,3.0010742E1,1.3557927E3,8.3716187E2,0E0,0E0,0E0,7.2998047E-1,9.1727875E2,1.3078247E3,1.3240112E2,2.1224078E2,0E0,0E0,0E0,0E0,0E0,0E0,0E0,0E0,0E0,0E0],"parents":[2147483647,0,0,1,1,2,2,3,3,4,4,5,5,6,6,10,10,11,11,12,12,13,13,14,14],"right_children":[2,4,6,8,10,12,14,-1,-1,-1,16,18,20,22,24,-1,-1,-1,-1,-1,-1,-1,-1,-1,-1],"split_conditions":[4E0,3E0,2.1E1,5E0,2E0,6E0,4E0,-4.7122398E-1,-3.7565395E-1,-1.7382477E-1,7E0,5E0,1.9E1,2.2E1,2.3E1,-2.796149E-1,-3.8510337E-1,3.796942E-2,-3.5947534E-1,1.6630068E-1,-2.4947515E-2,-2.6714295E-1,-4.1166577E-1,-8.770209E-2,-2.6173925E-1],"split_indices":[1,1,1,0,0,1,0,0,0,0,0,0,1,1,1,0,0,0,0,0,0,0,0,0,0],"split_type":[0,0,0,0,0,0,0,0,0,0,0,0,0,0,0,0,0,0,0,0,0,0,0,0,0],"sum_hessian":[4.022E3,4.45E2,3.577E3,3.84E2,6.1E1,2.891E3,6.86E2,2.05E2,1.79E2,2E1,4.1E1,2.48E2,2.643E3,2.82E2,4.04E2,2.1E1,2E1,1.57E2,9.1E1,2.217E3,4.26E2,1.19E2,1.63E2,3.14E2,9E1],"tree_param":{"num_deleted":"0","num_feature":"2","num_nodes":"25","size_leaf_vector":"1"}},{"base_weights":[-6.231048E-3,-3.688106E0,4.527188E-1,-3.8520925E0,-2.6103182E0,1.030425E0,-1.9798561E0,-4.2433032E-1,-3.3829728E-1,-1.5727007E-1,-3.0669765E0,-2.9002568E-1,1.3490444E0,-3.1689463E0,-1.1440724E0,-2.529244E-1,-3.4842688E-1,1.4077294E-1,-2.772375E-1,1.8459268E-1,1.1262055E-2,-3.9586282E-1,-2.5967205E-1,-7.895974E-2,-2.3585291E-1],"categories":[],"categories_nodes":[],"categories_segments":[],"categories_sizes":[],"default_left":[0,0,0,0,0,0,0,0,0,0,0,0,0,0,0,0,0,0,0,0,0,0,0,0,0],"id":10,"left_children":[1,3,5,7,9,11,13,-1,-1,-1,15,17,19,21,23,-1,-1,-1,-1,-1,-1,-1,-1,-1,-1],"loss_changes":[6.799719E3,6.877197E1,5.0302515E3,5.6301758E1,2.4554443E1,1.2171174E3,6.791306E2,0E0,0E0,0E0,6.1190796E-1,2.3766216E3,1.4312441E3,1.1760181E2,1.7248804E2,0E0,0E0,0E0,0E0,0E0,0E0,0E0,0E0,0E0,0E0],"parents":[2147483647,0,0,1,1,2,2,3,3,4,4,5,5,6,6,10,10,11,11,12,12,13,13,14,14],"right_children":[2,4,6,8,10,12,14,-1,-1,-1,16,18,20,22,24,-1,-1,-1,-1,-1,-1,-1,-1,-1,-1],"split_conditions":[4E0,3E0,2.1E1,5E0,2E0,9E0,4E0,-4.2433032E-1,-3.3829728E-1,-1.5727007E-1,7E0,5E0,1.8E1,2E0,2.3E1,-2.529244E-1,-3.4842688E-1,1.4077294E-1,-2.772375E-1,1.8459268E-1,1.1262055E-2,-3.9586282E-1,-2.5967205E-1,-7.895974E-2,-2.3585291E-1],"split_indices":[1,1,1,0,0,1,0,0,0,0,0,0,1,0,1,0,0,0,0,0,0,0,0,0,0],"split_type":[0,0,0,0,0,0,0,0,0,0,0,0,0,0,0,0,0,0,0,0,0,0,0,0,0],"sum_hessian":[4.022E3,4.45E2,3.577E3,3.84E2,6.1E1,2.891E3,6.86E2,2.05E2,1.79E2,2E1,4.1E1,5.62E2,2.329E3,2.82E2,4.04E2,2.1E1,2E1,3.34E2,2.28E2,1.661E3,6.68E2,1.16E2,1.66E2,3.14E2,9E1],"tree_param":{"num_deleted":"0","num_feature":"2","num_nodes":"25","size_leaf_vector":"1"}},{"base_weights":[-6.212748E-3,-3.3227065E0,4.0719205E-1,-3.468864E0,-2.3615222E0,1.1284447E0,-1.1912053E0,-3.821033E-1,-3.0465548E0,-1.4229193E-1,-2.7745972E0,1.8095075E0,2.7266073E-1,-2.413212E0,-2.5050277E-1,-2.6286075E-1,-3.1704128E-1,-2.2878169E-1,-3.1524336E-1,2.0208295E-2,2.0168789E-1,-3.207124E-1,9.5691055E-2,-3.469322E-1,-1.7539003E-1,1.1482855E-1,-1.03044264E-1],"categories":[],"categories_nodes":[],"categories_segments":[],"categories_sizes":[],"default_left":[0,0,0,0,0,0,0,0,0,0,0,0,0,0,0,0,0,0,0,0,0,0,0,0,0,0,0],"id":11,"left_children":[1,3,5,7,9,11,13,-1,15,-1,17,19,21,23,25,-1,-1,-1,-1,-1,-1,-1,-1,-1,-1,-1,-1],"loss_changes":[5.5171045E3,5.4464355E1,4.1262354E3,4.5617676E1,2.009018E1,1.4367964E3,1.2788391E3,0E0,9.840088E-1,0E0,5.1257324E-1,4.5725928E2,2.6079287E3,3.3092676E2,6.884948E2,0E0,0E0,0E0,0E0,0E0,0E0,0E0,0E0,0E0,0E0,0E0,0E0],"parents":[2147483647,0,0,1,1,2,2,3,3,4,4,5,5,6,6,8,8,10,10,11,11,12,12,13,13,14,14],"right_children":[2,4,6,8,10,12,14,-1,16,-1,18,20,22,24,26,-1,-1,-1,-1,-1,-1,-1,-1,-1,-1,-1,-1],"split_conditions":[4E0,3E0,1.9E1,5E0,2E0,5E0,4E0,-3.821033E-1,1E0,-1.4229193E-1,7E0,5E0,8E0,2E0,2.1E1,-2.6286075E-1,-3.1704128E-1,-2.2878169E-1,-3.1524336E-1,2.0208295E-2,2.0168789E-1,-3.207124E-1,9.5691055E-2,-3.469322E-1,-1.7539003E-1,1.1482855E-1,-1.03044264E-1],"split_indices":[1,1,1,0,0,0,0,0,1,0,0,1,1,0,1,0,0,0,0,0,0,0,0,0,0,0,0],"split_type":[0,0,0,0,0,0,0,0,0,0,0,0,0,0,0,0,0,0,0,0,0,0,0,0,0,0,0],"sum_hessian":[4.022E3,4.45E2,3.577E3,3.84E2,6.1E1,2.465E3,1.112E3,2.05E2,1.79E2,2E1,4.1E1,1.372E3,1.093E3,4.83E2,6.29E2,4.6E1,1.33E2,2.1E1,2E1,1.57E2,1.215E3,1.79E2,9.14E2,1.84E2,2.99E2,2.25E2,4.04E2],"tree_param":{"num_deleted":"0","num_feature":"2","num_nodes":"27","size_leaf_vector":"1"}},{"base_weights":[-6.1291787E-3,-2.9941313E0,3.6632892E-1,-3.1244762E0,-2.1364396E0,8.384687E-1,-1.6217271E0,-3.4407845E0,-2.7451208E0,-1.2874031E-1,-2.5100904E0,-2.3667054E-1,1.0978957E0,-2.6092834E0,-9.2765254E-1,-3.1187567E-1,-3.6369452E-1,-2.3713394E-1,-2.8557372E-1,-2.0694342E-1,-2.852202E-1,1.1513417E-1,-2.2661352E-1,1.5088579E-1,7.5299344E-3,-1.8519823E-1,-3.147496E-1,-2.630809E-2,-1.490882E-1],"categories":[],"categories_nodes":[],"categories_segments":[],"categories_sizes":[],"default_left":[0,0,0,0,0,0,0,0,0,0,0,0,0,0,0,0,0,0,0,0,0,0,0,0,0,0,0,0,0],"id":12,"left_children":[1,3,5,7,9,11,13,15,17,-1,19,21,23,25,27,-1,-1,-1,-1,-1,-1,-1,-1,-1,-1,-1,-1,-1,-1],"loss_changes":[4.478316E3,4.318579E1,3.3598147E3,3.675171E1,1.6437592E1,8.068971E2,4.6847534E2,1.670166E0,6.7041016E-1,0E0,4.2919922E-1,1.588536E3,9.7906494E2,1.09518555E2,1.5120184E2,0E0,0E0,0E0,0E0,0E0,0E0,0E0,0E0,0E0,0E0,0E0,0E0,0E0,0E0],"parents":[2147483647,0,0,1,1,2,2,3,3,4,4,5,5,6,6,7,7,8,8,10,10,11,11,12,12,13,13,14,14],"right_children":[2,4,6,8,10,12,14,16,18,-1,20,22,24,26,28,-1,-1,-1,-1,-1,-1,-1,-1,-1,-1,-1,-1,-1,-1],"split_conditions":[4E0,3E0,2.1E1,5E0,2E0,9E0,4E0,2E0,1E0,-1.2874031E-1,7E0,5E0,1.8E1,2.2E1,2.2E1,-3.1187567E-1,-3.6369452E-1,-2.3713394E-1,-2.8557372E-1,-2.0694342E-1,-2.852202E-1,1.1513417E-1,-2.2661352E-1,1.5088579E-1,7.5299344E-3,-1.8519823E-1,-3.147496E-1,-2.630809E-2,-1.490882E-1],"split_indices":[1,1,1,0,0,1,0,0,1,0,0,0,1,1,1,0,0,0,0,0,0,0,0,0,0,0,0,0,0],"split_type":[0,0,0,0,0,0,0,0,0,0,0,0,0,0,0,0,0,0,0,0,0,0,0,0,0,0,0,0,0],"sum_hessian":[4.022E3,4.45E2,3.577E3,3.84E2,6.1E1,2.891E3,6.86E2,2.05E2,1.79E2,2E1,4.1E1,5.62E2,2.329E3,2.82E2,4.04E2,8.4E1,1.21E2,4.6E1,1.33E2,2.1E1,2E1,3.34E2,2.28E2,1.661E3,6.68E2,1.19E2,1.63E2,1.86E2,2.18E2],"tree_param":{"num_deleted":"0","num_feature":"2","num_nodes":"29","size_leaf_vector":"1"}},{"base_weights":[-6.1249738E-3,-2.698797E0,3.2952005E-1,-2.815141E0,-1.9328103E0,8.434029E-1,-1.1669974E0,-3.0999854E0,-2.4735124E0,-1.1647933E-1,-2.2707996E0,-2.1320114E-1,1.1260027E0,-2.1197104E0,-4.456643E-1,-2.81055E-1,-3.2762316E-1,-2.1392508E-1,-2.5722945E-1,-1.8718973E-1,-2.5805637E-1,1.0365516E-1,-2.0405109E-1,1.436674E-1,3.961848E-2,-1.6029471E-1,-2.8346655E-1,2.018593E-2,-1.3424748E-1],"categories":[],"categories_nodes":[],"categories_segments":[],"categories_sizes":[],"default_left":[0,0,0,0,0,0,0,0,0,0,0,0,0,0,0,0,0,0,0,0,0,0,0,0,0,0,0,0,0],"id":13,"left_children":[1,3,5,7,9,11,13,15,17,-1,19,21,23,25,27,-1,-1,-1,-1,-1,-1,-1,-1,-1,-1,-1,-1,-1,-1],"loss_changes":[3.6368042E3,3.430542E1,2.7525903E3,2.9796875E1,1.3449051E1,7.956998E2,6.27865E2,1.3005371E0,4.4067383E-1,0E0,3.591919E-1,1.2878298E3,4.7602466E2,1.4102441E2,3.033995E2,0E0,0E0,0E0,0E0,0E0,0E0,0E0,0E0,0E0,0E0,0E0,0E0,0E0,0E0],"parents":[2147483647,0,0,1,1,2,2,3,3,4,4,5,5,6,6,7,7,8,8,10,10,11,11,12,12,13,13,14,14],"right_children":[2,4,6,8,10,12,14,16,18,-1,20,22,24,26,28,-1,-1,-1,-1,-1,-1,-1,-1,-1,-1,-1,-1,-1,-1],"split_conditions":[4E0,3E0,2E1,5E0,2E0,9E0,4E0,2E0,1E0,-1.1647933E-1,7E0,5E0,1.7E1,2.2E1,2.2E1,-2.81055E-1,-3.2762316E-1,-2.1392508E-1,-2.5722945E-1,-1.8718973E-1,-2.5805637E-1,1.0365516E-1,-2.0405109E-1,1.436674E-1,3.961848E-2,-1.6029471E-1,-2.8346655E-1,2.018593E-2,-1.3424748E-1],"split_indices":[1,1,1,0,0,1,0,0,1,0,0,0,1,1,1,0,0,0,0,0,0,0,0,0,0,0,0,0,0],"split_type":[0,0,0,0,0,0,0,0,0,0,0,0,0,0,0,0,0,0,0,0,0,0,0,0,0,0,0,0,0],"sum_hessian":[4.022E3,4.45E2,3.577E3,3.84E2,6.1E1,2.663E3,9.14E2,2.05E2,1.79E2,2E1,4.1E1,5.62E2,2.101E3,3.93E2,5.21E2,8.4E1,1.21E2,4.6E1,1.33E2,2.1E1,2E1,3.34E2,2.28E2,1.473E3,6.28E2,2.3E2,1.63E2,3.03E2,2.18E2],"tree_param":{"num_deleted":"0","num_feature":"2","num_nodes":"29","size_leaf_vector":"1"}},{"base_weights":[-6.0383813E-3,-2.4325979E0,2.964355E-1,-2.5364316E0,-1.7485894E0,8.3068913E-1,-8.8754094E-1,-2.7929416E0,-2.2287788E0,-1.053861E-1,-2.0543206E0,1.3868186E0,1.3197191E-1,-2.8082958E-1,-5.0408864E-1,-2.5328016E-1,-2.9512936E-1,-1.9298774E-1,-2.316985E-1,-1.6932158E-1,-2.334796E-1,1.0536601E-1,2.3575835E-1,-2.4599214E-1,6.417083E-2,3.4386746E-3,-1.5588555E-1],"categories":[],"categories_nodes":[],"categories_segments":[],"categories_sizes":[],"default_left":[0,0,0,0,0,0,0,0,0,0,0,0,0,0,0,0,0,0,0,0,0,0,0,0,0,0,0],"id":14,"left_children":[1,3,5,7,9,11,13,15,17,-1,19,21,23,-1,25,-1,-1,-1,-1,-1,-1,-1,-1,-1,-1,-1,-1],"loss_changes":[2.953486E3,2.7240967E1,2.2639785E3,2.4157715E1,1.1003845E1,9.580486E2,8.183286E2,1.0108643E0,2.7423096E-1,0E0,3.0049133E-1,4.4157007E2,1.446952E3,0E0,5.27694E2,0E0,0E0,0E0,0E0,0E0,0E0,0E0,0E0,0E0,0E0,0E0,0E0],"parents":[2147483647,0,0,1,1,2,2,3,3,4,4,5,5,6,6,7,7,8,8,10,10,11,11,12,12,14,14],"right_children":[2,4,6,8,10,12,14,16,18,-1,20,22,24,-1,26,-1,-1,-1,-1,-1,-1,-1,-1,-1,-1,-1,-1],"split_conditions":[4E0,3E0,1.9E1,5E0,2E0,5E0,2E0,2E0,1E0,-1.053861E-1,7E0,4E0,8E0,-2.8082958E-1,2.2E1,-2.5328016E-1,-2.9512936E-1,-1.9298774E-1,-2.316985E-1,-1.6932158E-1,-2.334796E-1,1.0536601E-1,2.3575835E-1,-2.4599214E-1,6.417083E-2,3.4386746E-3,-1.5588555E-1],"split_indices":[1,1,1,0,0,0,0,0,1,0,0,0,1,0,1,0,0,0,0,0,0,0,0,0,0,0,0],"split_type":[0,0,0,0,0,0,0,0,0,0,0,0,0,0,0,0,0,0,0,0,0,0,0,0,0,0,0],"sum_hessian":[4.022E3,4.45E2,3.577E3,3.84E2,6.1E1,2.465E3,1.112E3,2.05E2,1.79E2,2E1,4.1E1,1.372E3,1.093E3,1.84E2,9.28E2,8.4E1,1.21E2,4.6E1,1.33E2,2.1E1,2E1,1.023E3,3.49E2,1.79E2,9.14E2,6.15E2,3.13E2],"tree_param":{"num_deleted":"0","num_feature":"2","num_nodes":"27","size_leaf_vector":"1"}},{"base_weights":[-5.8708307E-3,-1.7126766E0,3.4984362E-1,-2.1926594E0,-8.4607023E-1,9.26268E-1,-7.991763E-1,-2.4209082E0,-1.931613E0,2.7348384E-1,-1.2226E0,1.4331323E0,3.1084096E-1,-1.7243822E0,-8.711466E-2,-2.0019852E-1,-2.5769913E-1,-2.0615399E-1,-1.5819271E-1,-9.132046E-2,-3.7886283E-1,1.1506605E-1,2.2917774E-1,-2.4352525E-1,5.7760764E-2,-2.5289842E-1,-1.2224629E-1,9.936621E-2,-6.899997E-2],"categories":[],"categories_nodes":[],"categories_segments":[],"categories_sizes":[],"default_left":[0,0,0,0,0,0,0,0,0,0,0,0,0,0,0,0,0,0,0,0,0,0,0,0,0,0,0,0,0],"id":15,"left_children":[1,3,5,7,9,11,13,15,17,-1,19,21,23,25,27,-1,-1,-1,-1,-1,-1,-1,-1,-1,-1,-1,-1,-1,-1],"loss_changes":[2.4431052E3,2.8681836E2,2.2062764E3,2.189795E1,3.39075E2,6.9143286E2,7.3309814E2,1.0141357E1,6.4161987E0,0E0,1.7596552E2,2.9229517E2,7.3617035E2,1.923695E2,4.1118362E2,0E0,0E0,0E0,0E0,0E0,0E0,0E0,0E0,0E0,0E0,0E0,0E0,0E0,0E0],"parents":[2147483647,0,0,1,1,2,2,3,3,4,4,5,5,6,6,7,7,8,8,10,10,11,11,12,12,13,13,14,14],"right_children":[2,4,6,8,10,12,14,16,18,-1,20,22,24,26,28,-1,-1,-1,-1,-1,-1,-1,-1,-1,-1,-1,-1,-1,-1],"split_conditions":[6E0,4E0,1.9E1,2E0,2E0,5E0,4E0,1E0,3E0,2.7348384E-1,7E0,4E0,8E0,2E0,2.1E1,-2.0019852E-1,-2.5769913E-1,-2.0615399E-1,-1.5819271E-1,-9.132046E-2,-3.7886283E-1,1.1506605E-1,2.2917774E-1,-2.4352525E-1,5.7760764E-2,-2.5289842E-1,-1.2224629E-1,9.936621E-2,-6.899997E-2],"split_indices":[1,1,1,1,0,0,0,1,1,0,0,0,1,0,1,0,0,0,0,0,0,0,0,0,0,0,0,0,0],"split_type":[0,0,0,0,0,0,0,0,0,0,0,0,0,0,0,0,0,0,0,0,0,0,0,0,0,0,0,0,0],"sum_hessian":[4.022E3,6.93E2,3.329E3,4.45E2,2.48E2,2.217E3,1.112E3,2.33E2,2.12E2,2.3E1,2.25E2,1.215E3,1.002E3,4.83E2,6.29E2,6.7E1,1.66E2,1.51E2,6.1E1,2.02E2,2.3E1,9.16E2,2.99E2,8.8E1,9.14E2,1.84E2,2.99E2,2.25E2,4.04E2],"tree_param":{"num_deleted":"0","num_feature":"2","num_nodes":"29","size_leaf_vector":"1"}},{"base_weights":[-5.5833105E-3,-1.5428773E0,3.1480336E-1,-1.9752371E0,-7.6225334E-1,8.3371264E-1,-7.1956825E-1,-2.1807742E0,-1.7401623E0,2.4727502E-1,-1.1024207E0,1.2901019E0,2.7957204E-1,-1.5527189E0,-7.835482E-2,-1.8047304E-1,-2.3208354E-1,-1.8567424E-1,-1.426286E-1,-8.223342E-2,-3.4255514E-1,1.0357195E-1,2.0633638E-1,-2.194463E-1,5.1991034E-2,-2.2774532E-1,-1.10062376E-1,8.947355E-2,-6.211698E-2],"categories":[],"categories_nodes":[],"categories_segments":[],"categories_sizes":[],"default_left":[0,0,0,0,0,0,0,0,0,0,0,0,0,0,0,0,0,0,0,0,0,0,0,0,0,0,0,0,0],"id":16,"left_children":[1,3,5,7,9,11,13,15,17,-1,19,21,23,25,27,-1,-1,-1,-1,-1,-1,-1,-1,-1,-1,-1,-1,-1,-1],"loss_changes":[1.981928E3,2.3272656E2,1.7879609E3,1.7754395E1,2.7673627E2,5.6057996E2,5.944735E2,8.135986E0,5.145752E0,0E0,1.4423615E2,2.370553E2,5.9753015E2,1.5607544E2,3.3332684E2,0E0,0E0,0E0,0E0,0E0,0E0,0E0,0E0,0E0,0E0,0E0,0E0,0E0,0E0],"parents":[2147483647,0,0,1,1,2,2,3,3,4,4,5,5,6,6,7,7,8,8,10,10,11,11,12,12,13,13,14,14],"right_children":[2,4,6,8,10,12,14,16,18,-1,20,22,24,26,28,-1,-1,-1,-1,-1,-1,-1,-1,-1,-1,-1,-1,-1,-1],"split_conditions":[6E0,4E0,1.9E1,2E0,2E0,5E0,4E0,1E0,3E0,2.4727502E-1,7E0,4E0,8E0,2E0,2.1E1,-1.8047304E-1,-2.3208354E-1,-1.8567424E-1,-1.426286E-1,-8.223342E-2,-3.4255514E-1,1.0357195E-1,2.0633638E-1,-2.194463E-1,5.1991034E-2,-2.2774532E-1,-1.10062376E-1,8.947355E-2,-6.211698E-2],"split_indices":[1,1,1,1,0,0,0,1,1,0,0,0,1,0,1,0,0,0,0,0,0,0,0,0,0,0,0,0,0],"split_type":[0,0,0,0,0,0,0,0,0,0,0,0,0,0,0,0,0,0,0,0,0,0,0,0,0,0,0,0,0],"sum_hessian":[4.022E3,6.93E2,3.329E3,4.45E2,2.48E2,2.217E3,1.112E3,2.33E2,2.12E2,2.3E1,2.25E2,1.215E3,1.002E3,4.83E2,6.29E2,6.7E1,1.66E2,1.51E2,6.1E1,2.02E2,2.3E1,9.16E2,2.99E2,8.8E1,9.14E2,1.84E2,2.99E2,2.25E2,4.04E2],"tree_param":{"num_deleted":"0","num_feature":"2","num_nodes":"29","size_leaf_vector":"1"}},{"base_weights":[-5.2952194E-3,-1.3899128E0,2.8327233E-1,-1.7793746E0,-6.867408E-1,7.504053E-1,-6.478905E-1,-1.96446E0,-1.5676874E0,2.2357789E-1,-9.9405825E-1,1.1613457E0,2.5144818E-1,-1.3981448E0,-7.047619E-2,-1.6269116E-1,-2.0901418E-1,-1.6722898E-1,-1.2859577E-1,-7.405059E-2,-3.0972692E-1,3.2004836E-1,1.0784391E-1,-1.9774826E-1,4.6797648E-2,-2.0509389E-1,-9.9092804E-2,8.056577E-2,-5.5920657E-2],"categories":[],"categories_nodes":[],"categories_segments":[],"categories_sizes":[],"default_left":[0,0,0,0,0,0,0,0,0,0,0,0,0,0,0,0,0,0,0,0,0,0,0,0,0,0,0,0,0],"id":17,"left_children":[1,3,5,7,9,11,13,15,17,-1,19,21,23,25,27,-1,-1,-1,-1,-1,-1,-1,-1,-1,-1,-1,-1,-1,-1],"loss_changes":[1.6078064E3,1.8883582E2,1.4489592E3,1.4394775E1,2.2585962E2,4.5449036E2,4.820615E2,6.5266113E0,4.126526E0,0E0,1.1822641E2,2.0212317E2,4.849999E2,1.26628784E2,2.7021225E2,0E0,0E0,0E0,0E0,0E0,0E0,0E0,0E0,0E0,0E0,0E0,0E0,0E0,0E0],"parents":[2147483647,0,0,1,1,2,2,3,3,4,4,5,5,6,6,7,7,8,8,10,10,11,11,12,12,13,13,14,14],"right_children":[2,4,6,8,10,12,14,16,18,-1,20,22,24,26,28,-1,-1,-1,-1,-1,-1,-1,-1,-1,-1,-1,-1,-1,-1],"split_conditions":[6E0,4E0,1.9E1,2E0,2E0,5E0,4E0,1E0,3E0,2.2357789E-1,7E0,7E0,8E0,2E0,2.1E1,-1.6269116E-1,-2.0901418E-1,-1.6722898E-1,-1.2859577E-1,-7.405059E-2,-3.0972692E-1,3.2004836E-1,1.0784391E-1,-1.9774826E-1,4.6797648E-2,-2.0509389E-1,-9.9092804E-2,8.056577E-2,-5.5920657E-2],"split_indices":[1,1,1,1,0,0,0,1,1,0,0,1,1,0,1,0,0,0,0,0,0,0,0,0,0,0,0,0,0],"split_type":[0,0,0,0,0,0,0,0,0,0,0,0,0,0,0,0,0,0,0,0,0,0,0,0,0,0,0,0,0],"sum_hessian":[4.022E3,6.93E2,3.329E3,4.45E2,2.48E2,2.217E3,1.112E3,2.33E2,2.12E2,2.3E1,2.25E2,1.215E3,1.002E3,4.83E2,6.29E2,6.7E1,1.66E2,1.51E2,6.1E1,2.02E2,2.3E1,4.6E1,1.169E3,8.8E1,9.14E2,1.84E2,2.99E2,2.25E2,4.04E2],"tree_param":{"num_deleted":"0","num_feature":"2","num_nodes":"29","size_leaf_vector":"1"}},{"base_weights":[-4.9717827E-3,-1.2521142E0,2.5494468E-1,-1.6029339E0,-6.1871E-1,7.493431E-1,-4.6622592E-1,-1.7696025E0,-1.4123075E0,2.021517E-1,-8.9635044E-1,1.1746457E0,2.4575765E-1,-1.3207331E0,1.7305294E-1,-1.9205265E-1,-1.5157795E-1,-1.506161E-1,-1.1594361E-1,-6.6681996E-2,-2.800448E-1,8.370624E-2,1.8589169E-1,-1.7819564E-1,4.6607647E-2,-1.1015922E-1,-1.8698858E-1,9.090748E-2,-5.0342407E-2],"categories":[],"categories_nodes":[],"categories_segments":[],"categories_sizes":[],"default_left":[0,0,0,0,0,0,0,0,0,0,0,0,0,0,0,0,0,0,0,0,0,0,0,0,0,0,0,0,0],"id":18,"left_children":[1,3,5,7,9,11,13,15,17,-1,19,21,23,25,27,-1,-1,-1,-1,-1,-1,-1,-1,-1,-1,-1,-1,-1,-1],"loss_changes":[1.3043861E3,1.5322253E2,1.1876461E3,1.1670776E1,1.843374E2,4.2292334E2,7.4042224E2,6.0529785E0,3.3088074E0,0E0,9.690555E1,2.458435E2,4.0558017E2,6.77384E1,3.8682947E2,0E0,0E0,0E0,0E0,0E0,0E0,0E0,0E0,0E0,0E0,0E0,0E0,0E0,0E0],"parents":[2147483647,0,0,1,1,2,2,3,3,4,4,5,5,6,6,7,7,8,8,10,10,11,11,12,12,13,13,14,14],"right_children":[2,4,6,8,10,12,14,16,18,-1,20,22,24,26,28,-1,-1,-1,-1,-1,-1,-1,-1,-1,-1,-1,-1,-1,-1],"split_conditions":[6E0,4E0,1.8E1,2E0,2E0,5E0,4E0,5E0,3E0,2.021517E-1,7E0,1.4E1,8E0,2.2E1,2.1E1,-1.9205265E-1,-1.5157795E-1,-1.506161E-1,-1.1594361E-1,-6.6681996E-2,-2.800448E-1,8.370624E-2,1.8589169E-1,-1.7819564E-1,4.6607647E-2,-1.1015922E-1,-1.8698858E-1,9.090748E-2,-5.0342407E-2],"split_indices":[1,1,1,1,0,0,0,0,1,0,0,1,1,1,1,0,0,0,0,0,0,0,0,0,0,0,0,0,0],"split_type":[0,0,0,0,0,0,0,0,0,0,0,0,0,0,0,0,0,0,0,0,0,0,0,0,0,0,0,0,0],"sum_hessian":[4.022E3,6.93E2,3.329E3,4.45E2,2.48E2,1.975E3,1.354E3,2.33E2,2.12E2,2.3E1,2.25E2,1.07E3,9.05E2,5.79E2,7.75E2,1.42E2,9.1E1,1.51E2,6.1E1,2.02E2,2.3E1,7.18E2,3.52E2,8.8E1,8.17E2,4.16E2,1.63E2,3.71E2,4.04E2],"tree_param":{"num_deleted":"0","num_feature":"2","num_nodes":"29","size_leaf_vector":"1"}},{"base_weights":[-4.691755E-3,-1.1279904E0,2.2941454E-1,-1.4440086E0,-5.574198E-1,6.7447853E-1,-4.1979274E-1,-1.5941108E0,-1.2723281E0,1.8277879E-1,-8.082497E-1,1.0574329E0,2.2103637E-1,-1.1891724E0,1.5580003E-1,-1.3047646E-1,-1.702383E-1,-1.3565356E-1,-1.0453626E-1,-6.0046654E-2,-2.5320718E-1,7.534729E-2,1.6735514E-1,-1.6057627E-1,4.1952547E-2,-1.4228073E-1,-7.205969E-2,8.184118E-2,-4.532058E-2],"categories":[],"categories_nodes":[],"categories_segments":[],"categories_sizes":[],"default_left":[0,0,0,0,0,0,0,0,0,0,0,0,0,0,0,0,0,0,0,0,0,0,0,0,0,0,0,0,0],"id":19,"left_children":[1,3,5,7,9,11,13,15,17,-1,19,21,23,25,27,-1,-1,-1,-1,-1,-1,-1,-1,-1,-1,-1,-1,-1,-1],"loss_changes":[1.0581923E3,1.2433069E2,9.624492E2,9.464966E0,1.5044939E2,3.4289404E2,6.002462E2,5.109558E0,2.6528625E0,0E0,7.942854E1,1.9931091E2,3.2918893E2,6.247046E1,3.1351358E2,0E0,0E0,0E0,0E0,0E0,0E0,0E0,0E0,0E0,0E0,0E0,0E0,0E0,0E0],"parents":[2147483647,0,0,1,1,2,2,3,3,4,4,5,5,6,6,7,7,8,8,10,10,11,11,12,12,13,13,14,14],"right_children":[2,4,6,8,10,12,14,16,18,-1,20,22,24,26,28,-1,-1,-1,-1,-1,-1,-1,-1,-1,-1,-1,-1,-1,-1],"split_conditions":[6E0,4E0,1.8E1,2E0,2E0,5E0,4E0,1E0,3E0,1.8277879E-1,7E0,1.4E1,8E0,3E0,2.1E1,-1.3047646E-1,-1.702383E-1,-1.3565356E-1,-1.0453626E-1,-6.0046654E-2,-2.5320718E-1,7.534729E-2,1.6735514E-1,-1.6057627E-1,4.1952547E-2,-1.4228073E-1,-7.205969E-2,8.184118E-2,-4.532058E-2],"split_indices":[1,1,1,1,0,0,0,1,1,0,0,1,1,0,1,0,0,0,0,0,0,0,0,0,0,0,0,0,0],"split_type":[0,0,0,0,0,0,0,0,0,0,0,0,0,0,0,0,0,0,0,0,0,0,0,0,0,0,0,0,0],"sum_hessian":[4.022E3,6.93E2,3.329E3,4.45E2,2.48E2,1.975E3,1.354E3,2.33E2,2.12E2,2.3E1,2.25E2,1.07E3,9.05E2,5.79E2,7.75E2,6.7E1,1.66E2,1.51E2,6.1E1,2.02E2,2.3E1,7.18E2,3.52E2,8.8E1,8.17E2,3.85E2,1.94E2,3.71E2,4.04E2],"tree_param":{"num_deleted":"0","num_feature":"2","num_nodes":"29","size_leaf_vector":"1"}},{"base_weights":[-4.4028456E-3,-1.0161589E0,2.0645694E-1,-1.3008206E0,-5.022021E-1,6.573E-1,-3.1610546E-1,-1.4359848E0,-1.1462231E0,1.6526243E-1,-7.288111E-1,4.0515244E-1,1.4600345E0,-5.358479E-2,-1.1138356E0,-1.5666083E-1,-1.2173422E-1,-1.2217746E-1,-9.425127E-2,-5.40716E-2,-2.2894149E-1,4.885143E-2,-7.1177356E-2,1.7718403E-1,2.728079E-2,-1.09800376E-1,1.3270834E-2,-1.7299317E-1,-8.4199674E-2],"categories":[],"categories_nodes":[],"categories_segments":[],"categories_sizes":[],"default_left":[0,0,0,0,0,0,0,0,0,0,0,0,0,0,0,0,0,0,0,0,0,0,0,0,0,0,0,0,0],"id":20,"left_children":[1,3,5,7,9,11,13,15,17,-1,19,21,23,25,27,-1,-1,-1,-1,-1,-1,-1,-1,-1,-1,-1,-1,-1,-1],"loss_changes":[8.584713E2,1.0088153E2,7.847345E2,7.673706E0,1.22791916E2,3.6131317E2,3.2307635E2,4.77594E0,2.126648E0,0E0,6.510255E1,1.2716217E2,1.5758514E2,2.2623383E2,6.2520355E1,0E0,0E0,0E0,0E0,0E0,0E0,0E0,0E0,0E0,0E0,0E0,0E0,0E0,0E0],"parents":[2147483647,0,0,1,1,2,2,3,3,4,4,5,5,6,6,7,7,8,8,10,10,11,11,12,12,13,13,14,14],"right_children":[2,4,6,8,10,12,14,16,18,-1,20,22,24,26,28,-1,-1,-1,-1,-1,-1,-1,-1,-1,-1,-1,-1,-1,-1],"split_conditions":[6E0,4E0,1.7E1,2E0,2E0,1.5E1,2.2E1,5E0,3E0,1.6526243E-1,7E0,1.4E1,6E0,2E0,3E0,-1.5666083E-1,-1.2173422E-1,-1.2217746E-1,-9.425127E-2,-5.40716E-2,-2.2894149E-1,4.885143E-2,-7.1177356E-2,1.7718403E-1,2.728079E-2,-1.09800376E-1,1.3270834E-2,-1.7299317E-1,-8.4199674E-2],"split_indices":[1,1,1,1,0,1,1,0,1,0,0,1,0,0,0,0,0,0,0,0,0,0,0,0,0,0,0,0,0],"split_type":[0,0,0,0,0,0,0,0,0,0,0,0,0,0,0,0,0,0,0,0,0,0,0,0,0,0,0,0,0],"sum_hessian":[4.022E3,6.93E2,3.329E3,4.45E2,2.48E2,1.787E3,1.542E3,2.33E2,2.12E2,2.3E1,2.25E2,1.361E3,4.26E2,1.161E3,3.81E2,1.42E2,9.1E1,1.51E2,6.1E1,2.02E2,2.3E1,1.267E3,9.4E1,3.37E2,8.9E1,1.75E2,9.86E2,1.15E2,2.66E2],"tree_param":{"num_deleted":"0","num_feature":"2","num_nodes":"29","size_leaf_vector":"1"}},{"base_weights":[-4.1572675E-3,-9.154257E-1,1.8575999E-1,-1.1718479E0,-4.524549E-1,4.5755363E-1,-5.3209704E-1,-1.2996737E0,-1.0358279E0,1.4942479E-1,-6.571824E-1,6.677239E-1,1.934337E-1,-1.9414786E-1,-1.0031252E0,-1.4009021E-1,-2.447809E-2,-8.1399664E-2,-1.0894864E-1,-1.8325143E-1,-4.0226016E-2,8.816754E-2,-1.67948E-2,-1.4952931E-1,3.4597766E-2,-6.697462E-2,1.678829E-2,-1.5584299E-1,-7.581123E-2],"categories":[],"categories_nodes":[],"categories_segments":[],"categories_sizes":[],"default_left":[0,0,0,0,0,0,0,0,0,0,0,0,0,0,0,0,0,0,0,0,0,0,0,0,0,0,0,0,0],"id":21,"left_children":[1,3,5,7,9,11,13,15,17,-1,19,21,23,25,27,-1,-1,-1,-1,-1,-1,-1,-1,-1,-1,-1,-1,-1,-1],"loss_changes":[6.96413E2,8.1858765E1,6.499563E2,6.408203E0,1.0021934E2,1.3398337E2,1.4545822E2,2.3790558E1,1.7437592E0,0E0,6.697658E1,2.4062494E2,2.7666995E2,9.2057205E1,5.0792236E1,0E0,0E0,0E0,0E0,0E0,0E0,0E0,0E0,0E0,0E0,0E0,0E0,0E0,0E0],"parents":[2147483647,0,0,1,1,2,2,3,3,4,4,5,5,6,6,7,7,8,8,10,10,11,11,12,12,13,13,14,14],"right_children":[2,4,6,8,10,12,14,16,18,-1,20,22,24,26,28,-1,-1,-1,-1,-1,-1,-1,-1,-1,-1,-1,-1,-1,-1],"split_conditions":[6E0,4E0,2E1,5E0,2E0,5E0,2.2E1,3E0,1E0,1.4942479E-1,3E0,1.8E1,8E0,4E0,3E0,-1.4009021E-1,-2.447809E-2,-8.1399664E-2,-1.0894864E-1,-1.8325143E-1,-4.0226016E-2,8.816754E-2,-1.67948E-2,-1.4952931E-1,3.4597766E-2,-6.697462E-2,1.678829E-2,-1.5584299E-1,-7.581123E-2],"split_indices":[1,1,1,0,0,0,1,1,1,0,0,1,1,0,0,0,0,0,0,0,0,0,0,0,0,0,0,0,0],"split_type":[0,0,0,0,0,0,0,0,0,0,0,0,0,0,0,0,0,0,0,0,0,0,0,0,0,0,0,0,0],"sum_hessian":[4.022E3,6.93E2,3.329E3,4.45E2,2.48E2,2.415E3,9.14E2,2.25E2,2.2E2,2.3E1,2.25E2,1.344E3,1.071E3,5.33E2,3.81E2,2.05E2,2E1,4.6E1,1.74E2,3.9E1,1.86E2,1.07E3,2.74E2,8.8E1,9.83E2,2.3E2,3.03E2,1.15E2,2.66E2],"tree_param":{"num_deleted":"0","num_feature":"2","num_nodes":"29","size_leaf_vector":"1"}},{"base_weights":[-3.928887E-3,-8.245013E-1,1.6708648E-1,-1.0554589E0,-4.075069E-1,5.3721434E-1,-2.6191914E-1,-1.1716108E0,-9.2290026E-1,4.1188393E-2,-1.1736629E0,3.1370556E-1,1.2488811E0,-5.0804786E-2,-9.03419E-1,-1.3972625E-1,-1.0803049E-1,-9.792616E-2,-7.698386E-2,-6.691227E-2,1.544569E-1,-8.582881E-2,-2.0314626E-1,-4.5356166E-2,4.2720627E-2,1.5213807E-1,2.1161724E-2,-9.772178E-2,1.1444292E-2,-1.2857583E-1,-6.1297584E-2],"categories":[],"categories_nodes":[],"categories_segments":[],"categories_sizes":[],"default_left":[0,0,0,0,0,0,0,0,0,0,0,0,0,0,0,0,0,0,0,0,0,0,0,0,0,0,0,0,0,0,0],"id":22,"left_children":[1,3,5,7,9,11,13,15,17,19,21,23,25,27,29,-1,-1,-1,-1,-1,-1,-1,-1,-1,-1,-1,-1,-1,-1,-1,-1],"loss_changes":[5.646874E2,6.6407684E1,5.289011E2,5.7857666E0,8.564721E1,2.840141E2,2.0892233E2,3.311676E0,1.0836182E0,1.697566E2,2.314505E1,1.1880405E2,1.203714E2,1.7799963E2,4.163214E1,0E0,0E0,0E0,0E0,0E0,0E0,0E0,0E0,0E0,0E0,0E0,0E0,0E0,0E0,0E0,0E0],"parents":[2147483647,0,0,1,1,2,2,3,3,4,4,5,5,6,6,7,7,8,8,9,9,10,10,11,11,12,12,13,13,14,14],"right_children":[2,4,6,8,10,12,14,16,18,20,22,24,26,28,30,-1,-1,-1,-1,-1,-1,-1,-1,-1,-1,-1,-1,-1,-1,-1,-1],"split_conditions":[6E0,4E0,1.7E1,2E0,5E0,1.5E1,2.2E1,3E0,3E0,4E0,7E0,2E0,6E0,2E0,4E0,-1.3972625E-1,-1.0803049E-1,-9.792616E-2,-7.698386E-2,-6.691227E-2,1.544569E-1,-8.582881E-2,-2.0314626E-1,-4.5356166E-2,4.2720627E-2,1.5213807E-1,2.1161724E-2,-9.772178E-2,1.1444292E-2,-1.2857583E-1,-6.1297584E-2],"split_indices":[1,1,1,1,0,1,1,0,1,0,0,0,0,0,0,0,0,0,0,0,0,0,0,0,0,0,0,0,0,0,0],"split_type":[0,0,0,0,0,0,0,0,0,0,0,0,0,0,0,0,0,0,0,0,0,0,0,0,0,0,0,0,0,0,0],"sum_hessian":[4.022E3,6.93E2,3.329E3,4.45E2,2.48E2,1.787E3,1.542E3,2.33E2,2.12E2,1.57E2,9.1E1,1.361E3,4.26E2,1.161E3,3.81E2,6.3E1,1.7E2,1.51E2,6.1E1,1.07E2,5E1,6.8E1,2.3E1,1.75E2,1.186E3,3.37E2,8.9E1,1.75E2,9.86E2,1.63E2,2.18E2],"tree_param":{"num_deleted":"0","num_feature":"2","num_nodes":"31","size_leaf_vector":"1"}},{"base_weights":[-3.7173282E-3,-7.429505E-1,1.5034619E-1,-9.508608E-1,-3.6756513E-1,3.738634E-1,-4.4000128E-1,-1.0596106E0,-8.35348E-1,1.4151722E-1,-5.55256E-1,-2.5767455E-2,4.9586082E-1,-9.5146775E-1,-2.2102648E-1,-1.1473828E-1,-1.4815109E-2,-6.285973E-2,-8.8610195E-2,-1.5886043E-1,-3.3124965E-2,3.9785672E-2,-4.027071E-2,7.18921E-2,6.1364127E-3,-7.083802E-2,-1.2764631E-1,-7.7290605E-3,-1.09049E-1],"categories":[],"categories_nodes":[],"categories_segments":[],"categories_sizes":[],"default_left":[0,0,0,0,0,0,0,0,0,0,0,0,0,0,0,0,0,0,0,0,0,0,0,0,0,0,0,0,0],"id":23,"left_children":[1,3,5,7,9,11,13,15,17,-1,19,21,23,25,27,-1,-1,-1,-1,-1,-1,-1,-1,-1,-1,-1,-1,-1,-1],"loss_changes":[4.5828656E2,5.381476E1,4.3956738E2,4.7175293E0,8.410205E1,1.17802246E2,1.0226814E2,1.7910202E1,1.7620392E0,0E0,5.178749E1,9.053952E1,1.7935278E2,2.0742386E1,8.014845E1,0E0,0E0,0E0,0E0,0E0,0E0,0E0,0E0,0E0,0E0,0E0,0E0,0E0,0E0],"parents":[2147483647,0,0,1,1,2,2,3,3,4,4,5,5,6,6,7,7,8,8,10,10,11,11,12,12,13,13,14,14],"right_children":[2,4,6,8,10,12,14,16,18,-1,20,22,24,26,28,-1,-1,-1,-1,-1,-1,-1,-1,-1,-1,-1,-1,-1,-1],"split_conditions":[6E0,4E0,2E1,5E0,2E0,1E1,3E0,3E0,1E0,1.4151722E-1,3E0,4E0,1.7E1,2.2E1,2.3E1,-1.1473828E-1,-1.4815109E-2,-6.285973E-2,-8.8610195E-2,-1.5886043E-1,-3.3124965E-2,3.9785672E-2,-4.027071E-2,7.18921E-2,6.1364127E-3,-7.083802E-2,-1.2764631E-1,-7.7290605E-3,-1.09049E-1],"split_indices":[1,1,1,0,0,1,0,1,1,0,0,0,1,1,1,0,0,0,0,0,0,0,0,0,0,0,0,0,0],"split_type":[0,0,0,0,0,0,0,0,0,0,0,0,0,0,0,0,0,0,0,0,0,0,0,0,0,0,0,0,0],"sum_hessian":[4.022E3,6.93E2,3.329E3,4.45E2,2.48E2,2.415E3,9.14E2,2.25E2,2.2E2,2.3E1,2.25E2,5.65E2,1.85E3,2.73E2,6.41E2,2.05E2,2E1,4.6E1,1.74E2,3.9E1,1.86E2,2.66E2,2.99E2,1.222E3,6.28E2,1.58E2,1.15E2,5.51E2,9E1],"tree_param":{"num_deleted":"0","num_feature":"2","num_nodes":"29","size_leaf_vector":"1"}},{"base_weights":[-3.48688E-3,-6.691331E-1,1.3524044E-1,-8.5640484E-1,-3.310114E-1,3.3650944E-1,-3.9634547E-1,-9.564837E-1,-7.424383E-1,7.6152205E-2,-1.0266727E0,5.264923E-1,9.7830854E-2,-7.54835E-1,-1.2500213E-1,-7.5296275E-2,-1.033627E-1,-7.83123E-2,-6.307204E-2,-5.617996E-2,1.4256158E-1,-7.410584E-2,-1.805036E-1,2.5616965E-1,4.5244988E-2,-2.1180259E-1,1.857691E-2,-5.305143E-2,-1.06619634E-1,2.8502489E-2,-6.632899E-2],"categories":[],"categories_nodes":[],"categories_segments":[],"categories_sizes":[],"default_left":[0,0,0,0,0,0,0,0,0,0,0,0,0,0,0,0,0,0,0,0,0,0,0,0,0,0,0,0,0,0,0],"id":24,"left_children":[1,3,5,7,9,11,13,15,17,19,21,23,25,27,29,-1,-1,-1,-1,-1,-1,-1,-1,-1,-1,-1,-1,-1,-1,-1,-1],"loss_changes":[3.7158768E2,4.366101E1,3.564159E2,4.37677E0,7.060694E1,1.0950162E2,8.891112E1,2.8955994E0,4.7418976E-1,1.3682196E2,1.9115036E1,2.0152084E2,2.0928188E2,2.6953217E1,1.15400986E2,0E0,0E0,0E0,0E0,0E0,0E0,0E0,0E0,0E0,0E0,0E0,0E0,0E0,0E0,0E0,0E0],"parents":[2147483647,0,0,1,1,2,2,3,3,4,4,5,5,6,6,7,7,8,8,9,9,10,10,11,11,12,12,13,13,14,14],"right_children":[2,4,6,8,10,12,14,16,18,20,22,24,26,28,30,-1,-1,-1,-1,-1,-1,-1,-1,-1,-1,-1,-1,-1,-1,-1,-1],"split_conditions":[6E0,4E0,2E1,2E0,5E0,5E0,4E0,1E0,3E0,4E0,7E0,7E0,7E0,2.2E1,6E0,-7.5296275E-2,-1.033627E-1,-7.83123E-2,-6.307204E-2,-5.617996E-2,1.4256158E-1,-7.410584E-2,-1.805036E-1,2.5616965E-1,4.5244988E-2,-2.1180259E-1,1.857691E-2,-5.305143E-2,-1.06619634E-1,2.8502489E-2,-6.632899E-2],"split_indices":[1,1,1,1,0,0,0,1,1,0,0,1,1,1,0,0,0,0,0,0,0,0,0,0,0,0,0,0,0,0,0],"split_type":[0,0,0,0,0,0,0,0,0,0,0,0,0,0,0,0,0,0,0,0,0,0,0,0,0,0,0,0,0,0,0],"sum_hessian":[4.022E3,6.93E2,3.329E3,4.45E2,2.48E2,2.415E3,9.14E2,2.33E2,2.12E2,1.57E2,9.1E1,1.344E3,1.071E3,3.93E2,5.21E2,6.7E1,1.66E2,1.51E2,6.1E1,1.07E2,5E1,6.8E1,2.3E1,4.6E1,1.298E3,4E1,1.031E3,2.3E2,1.63E2,2.96E2,2.25E2],"tree_param":{"num_deleted":"0","num_feature":"2","num_nodes":"31","size_leaf_vector":"1"}},{"base_weights":[-3.281688E-3,-6.0292333E-1,1.21689655E-1,-7.714819E-1,-2.9858583E-1,4.0202275E-1,-2.0323405E-1,-8.615988E-1,-6.688582E-1,1.3333894E-1,-4.7057176E-1,2.8767505E-1,1.4886518E0,-5.473017E-1,7.0656076E-2,-4.6473484E-2,-8.985444E-2,-7.053258E-2,-5.6866545E-2,-1.0195818E-1,-1.3862508E-2,-5.885177E-3,4.7348768E-2,3.102353E-1,1.2150635E-1,8.9710586E-2,-8.078457E-2,4.2135287E-2,-4.2228006E-2],"categories":[],"categories_nodes":[],"categories_segments":[],"categories_sizes":[],"default_left":[0,0,0,0,0,0,0,0,0,0,0,0,0,0,0,0,0,0,0,0,0,0,0,0,0,0,0,0,0],"id":25,"left_children":[1,3,5,7,9,11,13,15,17,-1,19,21,23,25,27,-1,-1,-1,-1,-1,-1,-1,-1,-1,-1,-1,-1,-1,-1],"loss_changes":[3.01549E2,3.537094E1,3.03401E2,3.5483704E0,7.0515976E1,2.2173703E2,1.4544595E2,3.0134125E0,3.7715912E-1,0E0,4.104537E1,1.0427374E2,7.128369E1,2.5813562E2,1.4884708E2,0E0,0E0,0E0,0E0,0E0,0E0,0E0,0E0,0E0,0E0,0E0,0E0,0E0,0E0],"parents":[2147483647,0,0,1,1,2,2,3,3,4,4,5,5,6,6,7,7,8,8,10,10,11,11,12,12,13,13,14,14],"right_children":[2,4,6,8,10,12,14,16,18,-1,20,22,24,26,28,-1,-1,-1,-1,-1,-1,-1,-1,-1,-1,-1,-1,-1,-1],"split_conditions":[6E0,4E0,1.7E1,2E0,2E0,1.6E1,4E0,2E0,3E0,1.3333894E-1,4E0,1E1,2E0,1.8E1,6E0,-4.6473484E-2,-8.985444E-2,-7.053258E-2,-5.6866545E-2,-1.0195818E-1,-1.3862508E-2,-5.885177E-3,4.7348768E-2,3.102353E-1,1.2150635E-1,8.9710586E-2,-8.078457E-2,4.2135287E-2,-4.2228006E-2],"split_indices":[1,1,1,1,0,1,0,0,1,0,0,1,0,1,0,0,0,0,0,0,0,0,0,0,0,0,0,0,0],"split_type":[0,0,0,0,0,0,0,0,0,0,0,0,0,0,0,0,0,0,0,0,0,0,0,0,0,0,0,0,0],"sum_hessian":[4.022E3,6.93E2,3.329E3,4.45E2,2.48E2,1.787E3,1.542E3,2.33E2,2.12E2,2.3E1,2.25E2,1.618E3,1.69E2,6.83E2,8.59E2,2.1E1,2.12E2,1.51E2,6.1E1,8.4E1,1.41E2,5.65E2,1.053E3,2.3E1,1.46E2,1.04E2,5.79E2,5.02E2,3.57E2],"tree_param":{"num_deleted":"0","num_feature":"2","num_nodes":"29","size_leaf_vector":"1"}},{"base_weights":[-2.8945648E-3,-5.4298574E-1,1.0966585E-1,-6.94925E-1,-2.6865685E-1,2.1003076E-1,-6.654279E-1,-7.873536E-1,-5.9726083E-1,1.0826626E-1,-9.1306114E-1,3.6208582E-1,-2.4121113E-2,-8.643517E-1,-3.6852437E-1,-8.617758E-2,-1.9813764E-3,-4.0543836E-2,-6.4536594E-2,-4.5523535E-2,1.299441E-1,-6.5436505E-2,-1.6187683E-1,1.8317772E-2,9.319003E-2,-8.21791E-2,1.1814234E-2,-9.6412845E-2,-7.5427696E-2,4.383425E-2,-9.8782465E-2],"categories":[],"categories_nodes":[],"categories_segments":[],"categories_sizes":[],"default_left":[0,0,0,0,0,0,0,0,0,0,0,0,0,0,0,0,0,0,0,0,0,0,0,0,0,0,0,0,0,0,0],"id":26,"left_children":[1,3,5,7,9,11,13,15,17,19,21,23,25,27,29,-1,-1,-1,-1,-1,-1,-1,-1,-1,-1,-1,-1,-1,-1,-1,-1],"loss_changes":[2.446293E2,2.8740173E1,2.5918787E2,3.5557556E0,6.0578682E1,1.0500485E2,2.2242828E1,1.2892502E1,1.7776566E0,1.06645706E2,1.5736595E1,1.821059E2,1.3196E2,1.776886E0,7.788541E1,0E0,0E0,0E0,0E0,0E0,0E0,0E0,0E0,0E0,0E0,0E0,0E0,0E0,0E0,0E0,0E0],"parents":[2147483647,0,0,1,1,2,2,3,3,4,4,5,5,6,6,7,7,8,8,9,9,10,10,11,11,12,12,13,13,14,14],"right_children":[2,4,6,8,10,12,14,16,18,20,22,24,26,28,30,-1,-1,-1,-1,-1,-1,-1,-1,-1,-1,-1,-1,-1,-1,-1,-1],"split_conditions":[6E0,4E0,2.2E1,5E0,5E0,1.7E1,5E0,3E0,1E0,4E0,7E0,1.5E1,2E0,3E0,6E0,-8.617758E-2,-1.9813764E-3,-4.0543836E-2,-6.4536594E-2,-4.5523535E-2,1.299441E-1,-6.5436505E-2,-1.6187683E-1,1.8317772E-2,9.319003E-2,-8.21791E-2,1.1814234E-2,-9.6412845E-2,-7.5427696E-2,4.383425E-2,-9.8782465E-2],"split_indices":[1,1,1,0,0,1,0,1,1,0,0,1,0,0,0,0,0,0,0,0,0,0,0,0,0,0,0,0,0,0,0],"split_type":[0,0,0,0,0,0,0,0,0,0,0,0,0,0,0,0,0,0,0,0,0,0,0,0,0,0,0,0,0,0,0],"sum_hessian":[4.022E3,6.93E2,3.329E3,4.45E2,2.48E2,2.948E3,3.81E2,2.25E2,2.2E2,1.57E2,9.1E1,1.787E3,1.161E3,2.27E2,1.54E2,2.05E2,2E1,4.6E1,1.74E2,1.07E2,5E1,6.8E1,2.3E1,1.361E3,4.26E2,1.75E2,9.86E2,1.15E2,1.12E2,6.7E1,8.7E1],"tree_param":{"num_deleted":"0","num_feature":"2","num_nodes":"31","size_leaf_vector":"1"}},{"base_weights":[-2.7348225E-3,-4.8917148E-1,9.864349E-2,-6.258657E-1,-2.4236502E-1,2.2671123E-1,-3.9438382E-1,-7.090082E-1,-5.380102E-1,1.2492322E-1,-3.996923E-1,-7.126213E-2,3.0772433E-1,-2.8050575E-1,-9.703618E-1,-7.760166E-2,-1.7926308E-3,-3.6575697E-2,-5.8119815E-2,-1.2351453E-1,-2.188484E-2,2.6442071E-2,-3.6978234E-2,5.0949644E-2,1.9422055E-3,-5.5310268E-2,-5.374921E-3,-8.7426E-2,-1.0961544E-1],"categories":[],"categories_nodes":[],"categories_segments":[],"categories_sizes":[],"default_left":[0,0,0,0,0,0,0,0,0,0,0,0,0,0,0,0,0,0,0,0,0,0,0,0,0,0,0,0,0],"id":27,"left_children":[1,3,5,7,9,11,13,15,17,-1,19,21,23,25,27,-1,-1,-1,-1,-1,-1,-1,-1,-1,-1,-1,-1,-1,-1],"loss_changes":[1.9843896E2,2.326181E1,2.103486E2,2.8763733E0,5.8931873E1,6.3847427E1,4.478901E1,1.0451759E1,1.4314995E0,0E0,3.3875256E1,5.6815575E1,1.2092836E2,3.551282E1,4.0771484E-1,0E0,0E0,0E0,0E0,0E0,0E0,0E0,0E0,0E0,0E0,0E0,0E0,0E0,0E0],"parents":[2147483647,0,0,1,1,2,2,3,3,4,4,5,5,6,6,7,7,8,8,10,10,11,11,12,12,13,13,14,14],"right_children":[2,4,6,8,10,12,14,16,18,-1,20,22,24,26,28,-1,-1,-1,-1,-1,-1,-1,-1,-1,-1,-1,-1,-1,-1],"split_conditions":[6E0,4E0,2.1E1,5E0,2E0,1E1,2.3E1,3E0,1E0,1.2492322E-1,3E0,4E0,1.7E1,4E0,6E0,-7.760166E-2,-1.7926308E-3,-3.6575697E-2,-5.8119815E-2,-1.2351453E-1,-2.188484E-2,2.6442071E-2,-3.6978234E-2,5.0949644E-2,1.9422055E-3,-5.5310268E-2,-5.374921E-3,-8.7426E-2,-1.0961544E-1],"split_indices":[1,1,1,0,0,1,1,1,1,0,0,0,1,0,0,0,0,0,0,0,0,0,0,0,0,0,0,0,0],"split_type":[0,0,0,0,0,0,0,0,0,0,0,0,0,0,0,0,0,0,0,0,0,0,0,0,0,0,0,0,0],"sum_hessian":[4.022E3,6.93E2,3.329E3,4.45E2,2.48E2,2.643E3,6.86E2,2.25E2,2.2E2,2.3E1,2.25E2,5.65E2,2.078E3,5.74E2,1.12E2,2.05E2,2E1,4.6E1,1.74E2,3.9E1,1.86E2,2.66E2,2.99E2,1.222E3,8.56E2,2.6E2,3.14E2,6.8E1,4.4E1],"tree_param":{"num_deleted":"0","num_feature":"2","num_nodes":"29","size_leaf_vector":"1"}},{"base_weights":[-2.563065E-3,-4.4053465E-1,8.871467E-2,-5.6366944E-1,-2.1821079E-1,1.7130077E-1,-5.4907364E-1,-6.378861E-1,-4.7948933E-1,1.2343523E-1,-8.025788E-1,-2.446401E-1,2.4085823E-1,-7.273231E-1,-2.8333208E-1,-2.6403904E-2,-6.735047E-2,-5.384336E-2,-4.377139E-2,-3.8301643E-2,1.1935009E-1,-5.6830913E-2,-1.4426634E-1,1.7194241E-1,-4.88848E-2,4.841737E-2,1.2646996E-3,-8.076224E-2,-6.3845545E-2,4.3182086E-2,-8.327306E-2],"categories":[],"categories_nodes":[],"categories_segments":[],"categories_sizes":[],"default_left":[0,0,0,0,0,0,0,0,0,0,0,0,0,0,0,0,0,0,0,0,0,0,0,0,0,0,0,0,0,0,0],"id":28,"left_children":[1,3,5,7,9,11,13,15,17,19,21,23,25,27,29,-1,-1,-1,-1,-1,-1,-1,-1,-1,-1,-1,-1,-1,-1,-1,-1],"loss_changes":[1.6086676E2,1.8875824E1,1.7549333E2,2.480545E0,4.9811172E1,8.537877E1,1.788861E1,2.9380875E0,2.8881454E-1,8.608311E1,1.297575E1,2.0372824E2,1.4031143E2,1.1113815E0,6.125971E1,0E0,0E0,0E0,0E0,0E0,0E0,0E0,0E0,0E0,0E0,0E0,0E0,0E0,0E0,0E0,0E0],"parents":[2147483647,0,0,1,1,2,2,3,3,4,4,5,5,6,6,7,7,8,8,9,9,10,10,11,11,12,12,13,13,14,14],"right_children":[2,4,6,8,10,12,14,16,18,20,22,24,26,28,30,-1,-1,-1,-1,-1,-1,-1,-1,-1,-1,-1,-1,-1,-1,-1,-1],"split_conditions":[6E0,4E0,2.2E1,2E0,5E0,2E0,5E0,2E0,2E0,4E0,7E0,8E0,5E0,3E0,6E0,-2.6403904E-2,-6.735047E-2,-5.384336E-2,-4.377139E-2,-3.8301643E-2,1.1935009E-1,-5.6830913E-2,-1.4426634E-1,1.7194241E-1,-4.88848E-2,4.841737E-2,1.2646996E-3,-8.076224E-2,-6.3845545E-2,4.3182086E-2,-8.327306E-2],"split_indices":[1,1,1,1,0,0,0,0,0,0,0,1,0,0,0,0,0,0,0,0,0,0,0,0,0,0,0,0,0,0,0],"split_type":[0,0,0,0,0,0,0,0,0,0,0,0,0,0,0,0,0,0,0,0,0,0,0,0,0,0,0,0,0,0,0],"sum_hessian":[4.022E3,6.93E2,3.329E3,4.45E2,2.48E2,2.948E3,3.81E2,2.33E2,2.12E2,1.57E2,9.1E1,4.22E2,2.526E3,2.27E2,1.54E2,2.1E1,2.12E2,8.3E1,1.29E2,1.07E2,5E1,6.8E1,2.3E1,4.6E1,3.76E2,1.222E3,1.304E3,1.15E2,1.12E2,6.7E1,8.7E1],"tree_param":{"num_deleted":"0","num_feature":"2","num_nodes":"31","size_leaf_vector":"1"}},{"base_weights":[-2.3872214E-3,-3.9693007E-1,7.983954E-2,-5.077317E-1,-1.9687201E-1,2.7438968E-1,-1.4565332E-1,-5.801716E-1,-4.313554E-1,1.1662193E-1,-3.4075394E-1,1.7858778E-1,1.1851479E0,-4.271464E-1,7.840123E-2,-6.400731E-2,3.50607E-3,-2.64042E-2,-4.738261E-2,-1.07737504E-1,-1.8136574E-2,-9.663365E-3,3.2621276E-2,2.7137592E-1,9.2751645E-2,8.231874E-2,-6.527635E-2,-1.0095834E-1,1.9747376E-2],"categories":[],"categories_nodes":[],"categories_segments":[],"categories_sizes":[],"default_left":[0,0,0,0,0,0,0,0,0,0,0,0,0,0,0,0,0,0,0,0,0,0,0,0,0,0,0,0,0],"id":29,"left_children":[1,3,5,7,9,11,13,15,17,-1,19,21,23,25,27,-1,-1,-1,-1,-1,-1,-1,-1,-1,-1,-1,-1,-1,-1],"loss_changes":[1.3054576E2,1.528376E1,1.4612596E2,2.2173233E0,4.9232323E1,1.557956E2,9.7350204E1,8.351295E0,1.4452972E0,0E0,2.633897E1,6.581078E1,6.443207E1,1.9349141E2,1.1161158E2,0E0,0E0,0E0,0E0,0E0,0E0,0E0,0E0,0E0,0E0,0E0,0E0,0E0,0E0],"parents":[2147483647,0,0,1,1,2,2,3,3,4,4,5,5,6,6,7,7,8,8,10,10,11,11,12,12,13,13,14,14],"right_children":[2,4,6,8,10,12,14,16,18,-1,20,22,24,26,28,-1,-1,-1,-1,-1,-1,-1,-1,-1,-1,-1,-1,-1,-1],"split_conditions":[6E0,4E0,1.7E1,5E0,2E0,1.6E1,4E0,3E0,1E0,1.1662193E-1,3E0,1E1,2E0,1.8E1,1.8E1,-6.400731E-2,3.50607E-3,-2.64042E-2,-4.738261E-2,-1.07737504E-1,-1.8136574E-2,-9.663365E-3,3.2621276E-2,2.7137592E-1,9.2751645E-2,8.231874E-2,-6.527635E-2,-1.0095834E-1,1.9747376E-2],"split_indices":[1,1,1,0,0,1,0,1,1,0,0,1,0,1,1,0,0,0,0,0,0,0,0,0,0,0,0,0,0],"split_type":[0,0,0,0,0,0,0,0,0,0,0,0,0,0,0,0,0,0,0,0,0,0,0,0,0,0,0,0,0],"sum_hessian":[4.022E3,6.93E2,3.329E3,4.45E2,2.48E2,1.787E3,1.542E3,2.25E2,2.2E2,2.3E1,2.25E2,1.618E3,1.69E2,6.83E2,8.59E2,2.05E2,2E1,4.6E1,1.74E2,3.9E1,1.86E2,5.65E2,1.053E3,2.3E1,1.46E2,1.04E2,5.79E2,8.4E1,7.75E2],"tree_param":{"num_deleted":"0","num_feature":"2","num_nodes":"29","size_leaf_vector":"1"}},{"base_weights":[-2.1040784E-3,-3.5744372E-1,7.195233E-2,-4.5725948E-1,-1.7722176E-1,1.431748E-1,-4.7806603E-1,-5.563577E-1,-4.0717718E-1,1.3212658E-1,-7.065676E-1,-2.3056795E-1,2.0567974E-1,-3.2960045E-1,-8.2857615E-1,-3.8768865E-2,-9.552855E-2,-2.381994E-2,-4.3684166E-2,-3.2344323E-2,1.0942719E-1,-4.944284E-2,-1.2870274E-1,1.5605979E-1,-4.532582E-2,4.303726E-2,-5.0520815E-4,-5.763441E-2,2.1421038E-2,-7.524688E-2,-9.268614E-2],"categories":[],"categories_nodes":[],"categories_segments":[],"categories_sizes":[],"default_left":[0,0,0,0,0,0,0,0,0,0,0,0,0,0,0,0,0,0,0,0,0,0,0,0,0,0,0,0,0,0,0],"id":30,"left_children":[1,3,5,7,9,11,13,15,17,19,21,23,25,27,29,-1,-1,-1,-1,-1,-1,-1,-1,-1,-1,-1,-1,-1,-1,-1,-1],"loss_changes":[1.0589168E2,1.2403328E1,1.3051675E2,1.9869919E0,4.086767E1,6.893834E1,1.9605675E1,9.520805E0,1.3997383E0,6.9609184E1,1.0692379E1,1.6943153E2,1.1965544E2,3.6352562E1,1.4782715E-1,0E0,0E0,0E0,0E0,0E0,0E0,0E0,0E0,0E0,0E0,0E0,0E0,0E0,0E0,0E0,0E0],"parents":[2147483647,0,0,1,1,2,2,3,3,4,4,5,5,6,6,7,7,8,8,9,9,10,10,11,11,12,12,13,13,14,14],"right_children":[2,4,6,8,10,12,14,16,18,20,22,24,26,28,30,-1,-1,-1,-1,-1,-1,-1,-1,-1,-1,-1,-1,-1,-1,-1,-1],"split_conditions":[6E0,4E0,2.2E1,3E0,5E0,2E0,2.3E1,2E0,1E0,4E0,7E0,8E0,5E0,5E0,6E0,-3.8768865E-2,-9.552855E-2,-2.381994E-2,-4.3684166E-2,-3.2344323E-2,1.0942719E-1,-4.944284E-2,-1.2870274E-1,1.5605979E-1,-4.532582E-2,4.303726E-2,-5.0520815E-4,-5.763441E-2,2.1421038E-2,-7.524688E-2,-9.268614E-2],"split_indices":[1,1,1,0,0,0,1,0,1,0,0,1,0,0,0,0,0,0,0,0,0,0,0,0,0,0,0,0,0,0,0],"split_type":[0,0,0,0,0,0,0,0,0,0,0,0,0,0,0,0,0,0,0,0,0,0,0,0,0,0,0,0,0,0,0],"sum_hessian":[4.022E3,6.93E2,3.329E3,4.45E2,2.48E2,2.948E3,3.81E2,1.46E2,2.99E2,1.57E2,9.1E1,4.22E2,2.526E3,2.69E2,1.12E2,1.04E2,4.2E1,4.6E1,2.53E2,1.07E2,5E1,6.8E1,2.3E1,4.6E1,3.76E2,1.222E3,1.304E3,1.85E2,8.4E1,6.8E1,4.4E1],"tree_param":{"num_deleted":"0","num_feature":"2","num_nodes":"31","size_leaf_vector":"1"}},{"base_weights":[-1.981559E-3,-2.2942422E-1,1.01581655E-1,-1.06092945E-1,-3.977621E-1,3.9134932E-1,-1.2815744E-1,-3.892433E-1,2.1817641E-1,-6.1367416E-1,2.5458834E-1,2.8354865E-1,1.0574114E0,-3.8021687E-1,7.246676E-2,1.5635884E-3,-1.7152832E-1,-4.1039713E-2,4.100067E-2,-4.3543443E-2,-1.2316195E-1,-3.63284E-2,5.437523E-2,6.502366E-2,6.8072164E-3,2.4971287E-1,8.151623E-2,7.3437E-2,-5.8133997E-2,3.5797086E-2,-3.2887686E-2],"categories":[],"categories_nodes":[],"categories_segments":[],"categories_sizes":[],"default_left":[0,0,0,0,0,0,0,0,0,0,0,0,0,0,0,0,0,0,0,0,0,0,0,0,0,0,0,0,0,0,0],"id":31,"left_children":[1,3,5,7,9,11,13,15,17,19,21,23,25,27,29,-1,-1,-1,-1,-1,-1,-1,-1,-1,-1,-1,-1,-1,-1,-1,-1],"loss_changes":[9.478384E1,2.6096306E1,1.8411885E2,6.692769E1,7.5088615E1,8.751395E1,7.805586E1,2.0887546E2,4.1165276E1,4.352069E1,2.3960173E1,8.323506E1,5.72554E1,1.5375862E2,9.866103E1,0E0,0E0,0E0,0E0,0E0,0E0,0E0,0E0,0E0,0E0,0E0,0E0,0E0,0E0,0E0,0E0],"parents":[2147483647,0,0,1,1,2,2,3,3,4,4,5,5,6,6,7,7,8,8,9,9,10,10,11,11,12,12,13,13,14,14],"right_children":[2,4,6,8,10,12,14,16,18,20,22,24,26,28,30,-1,-1,-1,-1,-1,-1,-1,-1,-1,-1,-1,-1,-1,-1,-1,-1],"split_conditions":[1E1,5E0,1.7E1,3E0,8E0,1.6E1,4E0,8E0,2E0,6E0,6E0,1.2E1,2E0,1.8E1,6E0,1.5635884E-3,-1.7152832E-1,-4.1039713E-2,4.100067E-2,-4.3543443E-2,-1.2316195E-1,-3.63284E-2,5.437523E-2,6.502366E-2,6.8072164E-3,2.4971287E-1,8.151623E-2,7.3437E-2,-5.8133997E-2,3.5797086E-2,-3.2887686E-2],"split_indices":[1,0,1,0,1,1,0,1,1,1,0,1,0,1,0,0,0,0,0,0,0,0,0,0,0,0,0,0,0,0,0],"split_type":[0,0,0,0,0,0,0,0,0,0,0,0,0,0,0,0,0,0,0,0,0,0,0,0,0,0,0,0,0,0,0],"sum_hessian":[4.022E3,1.258E3,2.764E3,7.27E2,5.31E2,1.222E3,1.542E3,3.88E2,3.39E2,3.99E2,1.32E2,1.053E3,1.69E2,6.83E2,8.59E2,2.98E2,9E1,7.9E1,2.6E2,3.11E2,8.8E1,4.2E1,9E1,3.89E2,6.64E2,2.3E1,1.46E2,1.04E2,5.79E2,5.02E2,3.57E2],"tree_param":{"num_deleted":"0","num_feature":"2","num_nodes":"31","size_leaf_vector":"1"}},{"base_weights":[-1.757873E-3,-2.0673491E-1,9.157588E-2,-3.8374978E-1,-1.09492436E-1,3.5254398E-1,-1.15329854E-1,-5.0318855E-1,-3.2394564E-1,6.734833E-2,-3.9424053E-1,2.5526196E-1,9.536187E-1,-3.4217268E-1,6.522344E-2,-3.5083782E-2,-8.635056E-2,-1.722694E-2,-3.5073634E-2,3.6394756E-2,-5.2098352E-2,-8.5275196E-2,2.2926545E-2,5.853799E-2,6.127509E-3,1.17465995E-1,-3.1578917E-2,6.6163264E-2,-5.2330613E-2,-9.139832E-2,1.7239785E-2],"categories":[],"categories_nodes":[],"categories_segments":[],"categories_sizes":[],"default_left":[0,0,0,0,0,0,0,0,0,0,0,0,0,0,0,0,0,0,0,0,0,0,0,0,0,0,0,0,0,0,0],"id":32,"left_children":[1,3,5,7,9,11,13,15,17,19,21,23,25,27,29,-1,-1,-1,-1,-1,-1,-1,-1,-1,-1,-1,-1,-1,-1,-1,-1],"loss_changes":[7.6984055E1,2.1629608E1,1.4933904E2,3.0227432E0,4.101558E1,7.126999E1,6.3219307E1,7.766556E0,1.1586361E0,8.796248E1,8.93915E1,6.7460754E1,4.8071503E1,1.24712975E2,9.041104E1,0E0,0E0,0E0,0E0,0E0,0E0,0E0,0E0,0E0,0E0,0E0,0E0,0E0,0E0,0E0,0E0],"parents":[2147483647,0,0,1,1,2,2,3,3,4,4,5,5,6,6,7,7,8,8,9,9,10,10,11,11,12,12,13,13,14,14],"right_children":[2,4,6,8,10,12,14,16,18,20,22,24,26,28,30,-1,-1,-1,-1,-1,-1,-1,-1,-1,-1,-1,-1,-1,-1,-1,-1],"split_conditions":[1E1,4E0,1.7E1,3E0,5E0,1.6E1,4E0,2E0,1E0,8E0,8E0,1.2E1,6E0,1.8E1,1.8E1,-3.5083782E-2,-8.635056E-2,-1.722694E-2,-3.5073634E-2,3.6394756E-2,-5.2098352E-2,-8.5275196E-2,2.2926545E-2,5.853799E-2,6.127509E-3,1.17465995E-1,-3.1578917E-2,6.6163264E-2,-5.2330613E-2,-9.139832E-2,1.7239785E-2],"split_indices":[1,1,1,0,0,1,0,0,1,1,1,1,0,1,1,0,0,0,0,0,0,0,0,0,0,0,0,0,0,0,0],"split_type":[0,0,0,0,0,0,0,0,0,0,0,0,0,0,0,0,0,0,0,0,0,0,0,0,0,0,0,0,0,0,0],"sum_hessian":[4.022E3,1.258E3,2.764E3,4.45E2,8.13E2,1.222E3,1.542E3,1.46E2,2.99E2,5.02E2,3.11E2,1.053E3,1.69E2,6.83E2,8.59E2,1.04E2,4.2E1,4.6E1,2.53E2,3.34E2,1.68E2,1.79E2,1.32E2,3.89E2,6.64E2,1.44E2,2.5E1,1.04E2,5.79E2,8.4E1,7.75E2],"tree_param":{"num_deleted":"0","num_feature":"2","num_nodes":"31","size_leaf_vector":"1"}},{"base_weights":[-1.6223332E-3,3.9982803E-2,-3.9828277E-1,-1.862611E-1,1.5944636E-1,-2.5329226E-1,-7.411956E-1,-3.4576428E-1,-9.863865E-2,5.2699155E-1,8.751548E-2,-4.478266E-1,1.7537454E-1,-6.7844965E-2,-8.209352E-2,-4.5369577E-2,-2.9172534E-2,6.0582845E-3,-3.550161E-2,-9.9411376E-2,7.0853725E-2,-1.9397082E-2,1.5978178E-2,-6.951996E-3,-5.716308E-2,9.809508E-2,-5.975705E-2],"categories":[],"categories_nodes":[],"categories_segments":[],"categories_sizes":[],"default_left":[0,0,0,0,0,0,0,0,0,0,0,0,0,0,0,0,0,0,0,0,0,0,0,0,0,0,0],"id":33,"left_children":[1,3,5,7,9,11,13,15,17,19,21,23,25,-1,-1,-1,-1,-1,-1,-1,-1,-1,-1,-1,-1,-1,-1],"loss_changes":[6.640794E1,9.846532E1,1.8804962E1,1.7561756E1,6.2981705E1,2.2593948E1,8.415222E-3,2.4689445E0,3.3249645E1,1.084029E2,4.061323E1,8.671749E0,5.351281E1,0E0,0E0,0E0,0E0,0E0,0E0,0E0,0E0,0E0,0E0,0E0,0E0,0E0,0E0],"parents":[2147483647,0,0,1,1,2,2,3,3,4,4,5,5,6,6,7,7,8,8,9,9,10,10,11,11,12,12],"right_children":[2,4,6,8,10,12,14,16,18,20,22,24,26,-1,-1,-1,-1,-1,-1,-1,-1,-1,-1,-1,-1,-1,-1],"split_conditions":[2.2E1,1E1,2.3E1,4E0,1.2E1,5E0,6E0,3E0,5E0,2E0,1.5E1,2E0,6E0,-6.7844965E-2,-8.209352E-2,-4.5369577E-2,-2.9172534E-2,6.0582845E-3,-3.550161E-2,-9.9411376E-2,7.0853725E-2,-1.9397082E-2,1.5978178E-2,-6.951996E-3,-5.716308E-2,9.809508E-2,-5.975705E-2],"split_indices":[1,1,1,1,1,0,0,0,0,0,1,0,0,0,0,0,0,0,0,0,0,0,0,0,0,0,0],"split_type":[0,0,0,0,0,0,0,0,0,0,0,0,0,0,0,0,0,0,0,0,0,0,0,0,0,0,0],"sum_hessian":[4.022E3,3.641E3,3.81E2,1.258E3,2.383E3,2.69E2,1.12E2,4.45E2,8.13E2,3.89E2,1.994E3,1.85E2,8.4E1,6.8E1,4.4E1,1.46E2,2.99E2,5.02E2,3.11E2,4.1E1,3.48E2,4.07E2,1.587E3,4.6E1,1.39E2,4.1E1,4.3E1],"tree_param":{"num_deleted":"0","num_feature":"2","num_nodes":"27","size_leaf_vector":"1"}},{"base_weights":[-1.5373935E-3,3.594738E-2,-3.5891438E-1,-1.677175E-1,1.4348854E-1,-2.2805837E-1,-6.684029E-1,-3.1135508E-1,-8.8810764E-2,3.0147332E-1,-2.2913247E-2,-4.0338853E-1,1.5828829E-1,-6.1158773E-2,-7.4066624E-2,-4.0863484E-2,-2.6265016E-2,5.4536983E-3,-3.196284E-2,5.3184804E-2,6.294418E-3,-2.8759493E-2,1.9191865E-2,-6.271582E-3,-5.148759E-2,8.851915E-2,-5.3917136E-2],"categories":[],"categories_nodes":[],"categories_segments":[],"categories_sizes":[],"default_left":[0,0,0,0,0,0,0,0,0,0,0,0,0,0,0,0,0,0,0,0,0,0,0,0,0,0,0],"id":34,"left_children":[1,3,5,7,9,11,13,15,17,19,21,23,25,-1,-1,-1,-1,-1,-1,-1,-1,-1,-1,-1,-1,-1,-1],"loss_changes":[5.3905796E1,7.979246E1,1.5317963E1,1.4241817E1,6.2679768E1,1.835317E1,1.0955811E-2,2.005825E0,2.6950405E1,6.71717E1,6.6128914E1,7.0321198E0,4.357105E1,0E0,0E0,0E0,0E0,0E0,0E0,0E0,0E0,0E0,0E0,0E0,0E0,0E0,0E0],"parents":[2147483647,0,0,1,1,2,2,3,3,4,4,5,5,6,6,7,7,8,8,9,9,10,10,11,11,12,12],"right_children":[2,4,6,8,10,12,14,16,18,20,22,24,26,-1,-1,-1,-1,-1,-1,-1,-1,-1,-1,-1,-1,-1,-1],"split_conditions":[2.2E1,1E1,2.3E1,4E0,1.7E1,5E0,6E0,3E0,5E0,5E0,4E0,2E0,6E0,-6.1158773E-2,-7.4066624E-2,-4.0863484E-2,-2.6265016E-2,5.4536983E-3,-3.196284E-2,5.3184804E-2,6.294418E-3,-2.8759493E-2,1.9191865E-2,-6.271582E-3,-5.148759E-2,8.851915E-2,-5.3917136E-2],"split_indices":[1,1,1,1,1,0,0,0,0,0,0,0,0,0,0,0,0,0,0,0,0,0,0,0,0,0,0],"split_type":[0,0,0,0,0,0,0,0,0,0,0,0,0,0,0,0,0,0,0,0,0,0,0,0,0,0,0],"sum_hessian":[4.022E3,3.641E3,3.81E2,1.258E3,2.383E3,2.69E2,1.12E2,4.45E2,8.13E2,1.222E3,1.161E3,1.85E2,8.4E1,6.8E1,4.4E1,1.46E2,2.99E2,5.02E2,3.11E2,6.21E2,6.01E2,5.2E2,6.41E2,4.6E1,1.39E2,4.1E1,4.3E1],"tree_param":{"num_deleted":"0","num_feature":"2","num_nodes":"27","size_leaf_vector":"1"}},{"base_weights":[-1.4337417E-3,3.2340806E-2,-3.2343757E-1,-1.5101996E-1,1.2916079E-1,-2.0533834E-1,-6.0275936E-1,-3.0901647E-1,-8.0283254E-2,2.7137485E-1,-2.0630045E-2,-3.633602E-1,1.4286643E-1,-5.5131506E-2,-6.68246E-2,5.6163566E-3,-1.505498E-1,-2.2416292E-2,5.5079605E-2,1.8408606E-2,8.109692E-2,-5.401648E-2,7.2033326E-3,-5.65777E-3,-4.6375602E-2,7.9877995E-2,-4.864798E-2],"categories":[],"categories_nodes":[],"categories_segments":[],"categories_sizes":[],"default_left":[0,0,0,0,0,0,0,0,0,0,0,0,0,0,0,0,0,0,0,0,0,0,0,0,0,0,0],"id":35,"left_children":[1,3,5,7,9,11,13,15,17,19,21,23,25,-1,-1,-1,-1,-1,-1,-1,-1,-1,-1,-1,-1,-1,-1],"loss_changes":[4.3762733E1,6.467589E1,1.2477528E1,1.4045967E1,5.0790432E1,1.4908383E1,1.2271881E-2,1.7005077E2,7.92098E1,5.745469E1,5.597972E1,5.7024994E0,3.5476307E1,0E0,0E0,0E0,0E0,0E0,0E0,0E0,0E0,0E0,0E0,0E0,0E0,0E0,0E0],"parents":[2147483647,0,0,1,1,2,2,3,3,4,4,5,5,6,6,7,7,8,8,9,9,10,10,11,11,12,12],"right_children":[2,4,6,8,10,12,14,16,18,20,22,24,26,-1,-1,-1,-1,-1,-1,-1,-1,-1,-1,-1,-1,-1,-1],"split_conditions":[2.2E1,1E1,2.3E1,3E0,1.7E1,5E0,6E0,8E0,9E0,1.6E1,2E0,2E0,6E0,-5.5131506E-2,-6.68246E-2,5.6163566E-3,-1.505498E-1,-2.2416292E-2,5.5079605E-2,1.8408606E-2,8.109692E-2,-5.401648E-2,7.2033326E-3,-5.65777E-3,-4.6375602E-2,7.9877995E-2,-4.864798E-2],"split_indices":[1,1,1,0,1,0,0,1,1,1,0,0,0,0,0,0,0,0,0,0,0,0,0,0,0,0,0],"split_type":[0,0,0,0,0,0,0,0,0,0,0,0,0,0,0,0,0,0,0,0,0,0,0,0,0,0,0],"sum_hessian":[4.022E3,3.641E3,3.81E2,1.258E3,2.383E3,2.69E2,1.12E2,3.88E2,8.7E2,1.222E3,1.161E3,1.85E2,8.4E1,6.8E1,4.4E1,2.98E2,9E1,7.09E2,1.61E2,1.053E3,1.69E2,1.75E2,9.86E2,4.6E1,1.39E2,4.1E1,4.3E1],"tree_param":{"num_deleted":"0","num_feature":"2","num_nodes":"27","size_leaf_vector":"1"}},{"base_weights":[-1.3405517E-3,-2.144228E-1,4.3067984E-2,-1.6571395E-4,-2.6241308E-1,1.0808587E-1,-2.0722365E-1,-2.3623942E-1,1.0326637E-1,-8.5241914E-1,-1.6232479E-1,2.2155605E-1,-3.6157876E-2,-8.770388E-2,-5.359136E-1,-3.356399E-2,1.7734528E-2,-4.274232E-2,-9.9172235E-2,1.9779766E-3,-2.6394648E-2,2.018174E-1,1.6251659E-2,-1.5877141E-1,2.0419867E-3,-2.0584792E-2,3.2396257E-2,-5.103699E-2,-6.0290605E-2],"categories":[],"categories_nodes":[],"categories_segments":[],"categories_sizes":[],"default_left":[0,0,0,0,0,0,0,0,0,0,0,0,0,0,0,0,0,0,0,0,0,0,0,0,0,0,0,0,0],"id":36,"left_children":[1,3,5,7,9,11,13,15,-1,17,19,21,23,25,27,-1,-1,-1,-1,-1,-1,-1,-1,-1,-1,-1,-1,-1,-1],"loss_changes":[3.8077564E1,7.1358433E0,5.4212925E1,3.145341E1,3.3344513E1,4.328332E1,2.6941755E1,4.3761277E0,0E0,4.430786E0,8.999027E0,1.5665762E2,1.0230025E2,2.4627834E1,5.4512024E-3,0E0,0E0,0E0,0E0,0E0,0E0,0E0,0E0,0E0,0E0,0E0,0E0,0E0,0E0],"parents":[2147483647,0,0,1,1,2,2,3,3,4,4,5,5,6,6,7,7,9,9,10,10,11,11,12,12,13,13,14,14],"right_children":[2,4,6,8,10,12,14,16,-1,18,20,22,24,26,28,-1,-1,-1,-1,-1,-1,-1,-1,-1,-1,-1,-1,-1,-1],"split_conditions":[6E0,2E0,2.1E1,4E0,3E0,5E0,6E0,3E0,1.0326637E-1,1E0,5E0,7E0,7E0,5E0,2.3E1,-3.356399E-2,1.7734528E-2,-4.274232E-2,-9.9172235E-2,1.9779766E-3,-2.6394648E-2,2.018174E-1,1.6251659E-2,-1.5877141E-1,2.0419867E-3,-2.0584792E-2,3.2396257E-2,-5.103699E-2,-6.0290605E-2],"split_indices":[1,0,1,1,0,0,0,1,0,1,0,1,1,0,1,0,0,0,0,0,0,0,0,0,0,0,0,0,0],"split_type":[0,0,0,0,0,0,0,0,0,0,0,0,0,0,0,0,0,0,0,0,0,0,0,0,0,0,0,0,0],"sum_hessian":[4.022E3,6.93E2,3.329E3,1.27E2,5.66E2,2.643E3,6.86E2,1.04E2,2.3E1,8.1E1,4.85E2,1.479E3,1.164E3,5.04E2,1.82E2,8.4E1,2E1,2.1E1,6E1,1.74E2,3.11E2,4.6E1,1.433E3,4E1,1.124E3,3.92E2,1.12E2,1.38E2,4.4E1],"tree_param":{"num_deleted":"0","num_feature":"2","num_nodes":"29","size_leaf_vector":"1"}},{"base_weights":[-1.2359623E-3,1.3749741E-2,-5.1988948E-2,-1.3073146E-1,8.230914E-2,-2.9011735E-1,-5.939754E-2,2.350631E-1,-4.829911E-2,4.0327706E-3,-1.3726774E-1,-1.8402679E-2,4.8718374E-2,4.3477133E-2,2.8329573E-3,-2.4974518E-2,1.2495491E-2],"categories":[],"categories_nodes":[],"categories_segments":[],"categories_sizes":[],"default_left":[0,0,0,0,0,0,0,0,0,0,0,0,0,0,0,0,0],"id":37,"left_children":[1,3,-1,5,7,9,11,13,15,-1,-1,-1,-1,-1,-1,-1,-1],"loss_changes":[3.1275465E1,3.8751343E1,0E0,1.4297121E1,5.2941166E1,1.39211E2,5.9422184E1,5.0480934E1,4.9975025E1,0E0,0E0,0E0,0E0,0E0,0E0,0E0,0E0],"parents":[2147483647,0,0,1,1,3,3,4,4,5,5,6,6,7,7,8,8],"right_children":[2,4,-1,6,8,10,12,14,16,-1,-1,-1,-1,-1,-1,-1,-1],"split_conditions":[2.3E1,1E1,-5.1988948E-2,3E0,1.7E1,8E0,9E0,5E0,4E0,4.0327706E-3,-1.3726774E-1,-1.8402679E-2,4.8718374E-2,4.3477133E-2,2.8329573E-3,-2.4974518E-2,1.2495491E-2],"split_indices":[1,1,0,0,1,1,1,0,0,0,0,0,0,0,0,0,0],"split_type":[0,0,0,0,0,0,0,0,0,0,0,0,0,0,0,0,0],"sum_hessian":[4.022E3,3.91E3,1.12E2,1.258E3,2.652E3,3.88E2,8.7E2,1.222E3,1.43E3,2.98E2,9E1,7.09E2,1.61E2,6.21E2,6.01E2,6.61E2,7.69E2],"tree_param":{"num_deleted":"0","num_feature":"2","num_nodes":"17","size_leaf_vector":"1"}},{"base_weights":[-1.1423591E-3,7.274158E-2,-9.522895E-2,-5.476267E-2,4.5131013E-1,-3.597729E-1,-1.797672E-2,1.2156212E-1,-3.915094E-1,7.2400206E-1,-1.7032571E-1,-2.1929267E-1,-8.4820044E-1,4.62717E-1,-1.1275753E-1,-3.0400703E-2,2.707002E-2,-1.19749926E-1,-2.2916948E-2,6.016153E-3,2.2818299E-1,4.8522346E-4,-4.641603E-2,-1.1751389E-2,-3.5538957E-2,-3.5674587E-2,-1.414861E-1,2.2170423E-2,7.988019E-2,-3.659711E-2,-9.906479E-4],"categories":[],"categories_nodes":[],"categories_segments":[],"categories_sizes":[],"default_left":[0,0,0,0,0,0,0,0,0,0,0,0,0,0,0,0,0,0,0,0,0,0,0,0,0,0,0,0,0,0,0],"id":38,"left_children":[1,3,5,7,9,11,13,15,17,19,21,23,25,27,29,-1,-1,-1,-1,-1,-1,-1,-1,-1,-1,-1,-1,-1,-1,-1,-1],"loss_changes":[2.7972763E1,1.0882326E2,3.6166325E1,1.00216255E2,9.640788E1,2.7259762E1,6.251567E1,7.040546E1,7.5615265E1,4.0835168E2,8.958613E0,4.279991E0,2.428067E1,1.8129074E1,2.9841976E1,0E0,0E0,0E0,0E0,0E0,0E0,0E0,0E0,0E0,0E0,0E0,0E0,0E0,0E0,0E0,0E0],"parents":[2147483647,0,0,1,1,2,2,3,3,4,4,5,5,6,6,7,7,8,8,9,9,10,10,11,11,12,12,13,13,14,14],"right_children":[2,4,6,8,10,12,14,16,18,20,22,24,26,28,30,-1,-1,-1,-1,-1,-1,-1,-1,-1,-1,-1,-1,-1,-1,-1,-1],"split_conditions":[5E0,4E0,8E0,1.8E1,1.9E1,6E0,1.1E1,5E0,1.9E1,1.4E1,2.2E1,3E0,6E0,1E1,1.5E1,-3.0400703E-2,2.707002E-2,-1.19749926E-1,-2.2916948E-2,6.016153E-3,2.2818299E-1,4.8522346E-4,-4.641603E-2,-1.1751389E-2,-3.5538957E-2,-3.5674587E-2,-1.414861E-1,2.2170423E-2,7.988019E-2,-3.659711E-2,-9.906479E-4],"split_indices":[0,0,1,1,1,1,1,1,1,1,1,1,0,1,1,0,0,0,0,0,0,0,0,0,0,0,0,0,0,0,0],"split_type":[0,0,0,0,0,0,0,0,0,0,0,0,0,0,0,0,0,0,0,0,0,0,0,0,0,0,0,0,0,0,0],"sum_hessian":[4.022E3,2.253E3,1.769E3,1.686E3,5.67E2,3.99E2,1.37E3,1.107E3,5.79E2,3.94E2,1.73E2,3.11E2,8.8E1,2.25E2,1.145E3,2.87E2,8.2E2,9.6E1,4.83E2,2.77E2,1.17E2,1.09E2,6.4E1,1.79E2,1.32E2,4.8E1,4E1,1.32E2,9.3E1,3.3E2,8.15E2],"tree_param":{"num_deleted":"0","num_feature":"2","num_nodes":"31","size_leaf_vector":"1"}},{"base_weights":[-1.0573445E-3,1.2060656E-2,-4.550701E-1,-1.08432725E-1,6.92371E-2,-3.7374362E-1,-4.9791478E-2,-2.577181E-1,-4.163543E-2,3.801165E-1,1.5653972E-2,-4.8258726E-2,-2.3673661E-2,4.9308995E-3,-1.2636892E-1,4.4430733E-2,-1.5583496E-2,-1.05169035E-1,5.513365E-2,-5.4249477E-2,4.305004E-3],"categories":[],"categories_nodes":[],"categories_segments":[],"categories_sizes":[],"default_left":[0,0,0,0,0,0,0,0,0,0,0,0,0,0,0,0,0,0,0,0,0],"id":39,"left_children":[1,3,5,7,9,11,-1,13,15,17,19,-1,-1,-1,-1,-1,-1,-1,-1,-1,-1],"loss_changes":[2.3965431E1,2.6951883E1,2.0764351E-1,1.2543839E1,4.4187435E1,5.269842E-1,0E0,1.20209E2,4.8404892E1,9.6189865E1,3.464236E1,0E0,0E0,0E0,0E0,0E0,0E0,0E0,0E0,0E0,0E0],"parents":[2147483647,0,0,1,1,2,2,3,3,4,4,5,5,7,7,8,8,9,9,10,10],"right_children":[2,4,6,8,10,12,-1,14,16,18,20,-1,-1,-1,-1,-1,-1,-1,-1,-1,-1],"split_conditions":[2.3E1,1E1,5E0,3E0,1.2E1,2E0,-4.9791478E-2,8E0,4E0,2E0,1.3E1,-4.8258726E-2,-2.3673661E-2,4.9308995E-3,-1.2636892E-1,4.4430733E-2,-1.5583496E-2,-1.05169035E-1,5.513365E-2,-5.4249477E-2,4.305004E-3],"split_indices":[1,1,0,0,1,0,0,1,0,0,1,0,0,0,0,0,0,0,0,0,0],"split_type":[0,0,0,0,0,0,0,0,0,0,0,0,0,0,0,0,0,0,0,0,0],"sum_hessian":[4.022E3,3.91E3,1.12E2,1.258E3,2.652E3,4.2E1,7E1,3.88E2,8.7E2,3.89E2,2.263E3,2.2E1,2E1,2.98E2,9E1,1.65E2,7.05E2,4.1E1,3.48E2,1.05E2,2.158E3],"tree_param":{"num_deleted":"0","num_feature":"2","num_nodes":"21","size_leaf_vector":"1"}},{"base_weights":[-1.0297087E-3,6.601176E-2,-8.640284E-2,-4.8542388E-2,4.0612942E-1,-3.0881223E-1,-2.1450138E-2,1.1187349E-1,-3.5490835E-1,6.521155E-1,-1.5462135E-1,-1.8198141E-1,-7.4996275E-1,4.0331066E-1,-1.0519751E-1,-2.894607E-2,2.5252193E-2,-1.08324505E-1,-2.0820675E-2,1.3277414E-2,2.2682646E-1,-5.3545535E-2,-4.063631E-3,-9.033105E-3,-3.0465124E-2,-3.0653387E-2,-1.2616226E-1,2.151661E-2,6.652247E-2,-2.3063822E-2,8.442893E-3],"categories":[],"categories_nodes":[],"categories_segments":[],"categories_sizes":[],"default_left":[0,0,0,0,0,0,0,0,0,0,0,0,0,0,0,0,0,0,0,0,0,0,0,0,0,0,0,0,0,0,0],"id":40,"left_children":[1,3,5,7,9,11,13,15,17,19,21,23,25,27,29,-1,-1,-1,-1,-1,-1,-1,-1,-1,-1,-1,-1,-1,-1,-1,-1],"loss_changes":[2.3031506E1,8.783981E1,2.5562954E1,8.294895E1,7.8448975E1,2.2244114E1,4.881246E1,6.26164E1,6.1746384E1,3.3123535E2,7.531473E0,3.4802132E0,1.9806007E1,1.0993629E1,2.7279228E1,0E0,0E0,0E0,0E0,0E0,0E0,0E0,0E0,0E0,0E0,0E0,0E0,0E0,0E0,0E0,0E0],"parents":[2147483647,0,0,1,1,2,2,3,3,4,4,5,5,6,6,7,7,8,8,9,9,10,10,11,11,12,12,13,13,14,14],"right_children":[2,4,6,8,10,12,14,16,18,20,22,24,26,28,30,-1,-1,-1,-1,-1,-1,-1,-1,-1,-1,-1,-1,-1,-1,-1,-1],"split_conditions":[5E0,4E0,8E0,1.8E1,1.9E1,6E0,1.1E1,5E0,1.9E1,1.6E1,2E1,3E0,6E0,1E1,1.9E1,-2.894607E-2,2.5252193E-2,-1.08324505E-1,-2.0820675E-2,1.3277414E-2,2.2682646E-1,-5.3545535E-2,-4.063631E-3,-9.033105E-3,-3.0465124E-2,-3.0653387E-2,-1.2616226E-1,2.151661E-2,6.652247E-2,-2.3063822E-2,8.442893E-3],"split_indices":[0,0,1,1,1,1,1,1,1,1,1,1,0,1,1,0,0,0,0,0,0,0,0,0,0,0,0,0,0,0,0],"split_type":[0,0,0,0,0,0,0,0,0,0,0,0,0,0,0,0,0,0,0,0,0,0,0,0,0,0,0,0,0,0,0],"sum_hessian":[4.022E3,2.253E3,1.769E3,1.686E3,5.67E2,3.99E2,1.37E3,1.107E3,5.79E2,3.94E2,1.73E2,3.11E2,8.8E1,2.25E2,1.145E3,2.87E2,8.2E2,9.6E1,4.83E2,2.99E2,9.5E1,3.9E1,1.34E2,1.79E2,1.32E2,4.8E1,4E1,1.32E2,9.3E1,6.89E2,4.56E2],"tree_param":{"num_deleted":"0","num_feature":"2","num_nodes":"31","size_leaf_vector":"1"}},{"base_weights":[-9.447839E-4,2.1793116E-2,-2.1772616E-1,9.593754E-2,-7.1222074E-2,-1.3599023E-1,-4.1109762E-1,-2.6237706E-2,4.651819E-1,-1.3127612E-1,1.8944535E-1,-2.500379E-1,1.15172826E-1,-3.2549948E-1,-4.5714866E-2,1.0068341E-2,-3.6341365E-2,4.2637107E-3,9.806104E-2,-6.202823E-3,-5.6164194E-2,9.797891E-2,-4.7791884E-3,3.21434E-3,-3.4298424E-2,6.6550456E-2,-4.1276142E-2,-4.165113E-2,-2.1031989E-2],"categories":[],"categories_nodes":[],"categories_segments":[],"categories_sizes":[],"default_left":[0,0,0,0,0,0,0,0,0,0,0,0,0,0,0,0,0,0,0,0,0,0,0,0,0,0,0,0,0],"id":41,"left_children":[1,3,5,7,9,11,13,15,17,19,21,23,25,27,-1,-1,-1,-1,-1,-1,-1,-1,-1,-1,-1,-1,-1,-1,-1],"loss_changes":[1.9834728E1,2.51241E1,5.9817543E0,9.1455284E1,2.5321945E1,7.76283E0,2.9663086E-1,6.525578E1,1.09725174E2,3.9124886E1,5.6859013E1,4.8893814E0,2.4970509E1,3.6315584E-1,0E0,0E0,0E0,0E0,0E0,0E0,0E0,0E0,0E0,0E0,0E0,0E0,0E0,0E0,0E0],"parents":[2147483647,0,0,1,1,2,2,3,3,4,4,5,5,6,6,7,7,8,8,9,9,10,10,11,11,12,12,13,13],"right_children":[2,4,6,8,10,12,14,16,18,20,22,24,26,28,-1,-1,-1,-1,-1,-1,-1,-1,-1,-1,-1,-1,-1,-1,-1],"split_conditions":[2.2E1,5E0,2.3E1,4E0,1.9E1,5E0,5E0,1.8E1,1.4E1,1.7E1,2E1,2E0,6E0,2E0,-4.5714866E-2,1.0068341E-2,-3.6341365E-2,4.2637107E-3,9.806104E-2,-6.202823E-3,-5.6164194E-2,9.797891E-2,-4.7791884E-3,3.21434E-3,-3.4298424E-2,6.6550456E-2,-4.1276142E-2,-4.165113E-2,-2.1031989E-2],"split_indices":[1,0,1,0,1,0,0,1,1,1,1,0,0,0,0,0,0,0,0,0,0,0,0,0,0,0,0,0,0],"split_type":[0,0,0,0,0,0,0,0,0,0,0,0,0,0,0,0,0,0,0,0,0,0,0,0,0,0,0,0,0],"sum_hessian":[4.022E3,3.641E3,3.81E2,2.026E3,1.615E3,2.69E2,1.12E2,1.523E3,5.03E2,1.313E3,3.02E2,1.85E2,8.4E1,4.2E1,7E1,1.107E3,4.16E2,2.77E2,2.26E2,1.132E3,1.81E2,6.9E1,2.33E2,4.6E1,1.39E2,4.1E1,4.3E1,2.2E1,2E1],"tree_param":{"num_deleted":"0","num_feature":"2","num_nodes":"29","size_leaf_vector":"1"}},{"base_weights":[-8.5220335E-4,-2.1004014E-1,2.1279758E-2,-2.8158116E-1,3.1057873E-3,9.1694E-2,-6.9417946E-2,-1.08281314E-1,-3.3159336E-1,2.1247E-1,-1.6452008E-1,-4.314998E-1,-1.10010905E-2,-2.3214351E-2,1.4415095E-2,-2.6933296E-2,-8.80227E-2,5.5955593E-3,6.787231E-2,-4.5185696E-2,-5.1788925E-3,-2.6825914E-2,-6.705955E-2,3.6954425E-2,-8.603795E-3],"categories":[],"categories_nodes":[],"categories_segments":[],"categories_sizes":[],"default_left":[0,0,0,0,0,0,0,0,0,0,0,0,0,0,0,0,0,0,0,0,0,0,0,0,0],"id":42,"left_children":[1,3,5,7,-1,9,11,13,15,17,19,21,23,-1,-1,-1,-1,-1,-1,-1,-1,-1,-1,-1,-1],"loss_changes":[1.8629911E1,6.6493797E0,2.324651E1,2.5382233E0,0E0,6.3440254E1,3.3647587E1,2.159607E0,7.6193027E0,1.0161664E2,2.1258024E1,8.445766E0,3.91806E1,0E0,0E0,0E0,0E0,0E0,0E0,0E0,0E0,0E0,0E0,0E0,0E0],"parents":[2147483647,0,0,1,1,2,2,3,3,5,5,6,6,7,7,8,8,9,9,10,10,11,11,12,12],"right_children":[2,4,6,8,-1,10,12,14,16,18,20,22,24,-1,-1,-1,-1,-1,-1,-1,-1,-1,-1,-1,-1],"split_conditions":[3E0,7E0,5E0,1E0,3.1057873E-3,1.9E1,8E0,6E0,6E0,4E0,2E0,6E0,1.1E1,-2.3214351E-2,1.4415095E-2,-2.6933296E-2,-8.80227E-2,5.5955593E-3,6.787231E-2,-4.5185696E-2,-5.1788925E-3,-2.6825914E-2,-6.705955E-2,3.6954425E-2,-8.603795E-3],"split_indices":[1,0,0,1,0,1,1,0,0,0,0,1,1,0,0,0,0,0,0,0,0,0,0,0,0],"split_type":[0,0,0,0,0,0,0,0,0,0,0,0,0,0,0,0,0,0,0,0,0,0,0,0,0],"sum_hessian":[4.022E3,3.84E2,3.638E3,2.96E2,8.8E1,2.048E3,1.59E3,6.7E1,2.29E2,1.392E3,6.56E2,2.2E2,1.37E3,4.5E1,2.2E1,2.07E2,2.2E1,1.043E3,3.49E2,1.84E2,4.72E2,1.32E2,8.8E1,2.25E2,1.145E3],"tree_param":{"num_deleted":"0","num_feature":"2","num_nodes":"25","size_leaf_vector":"1"}},{"base_weights":[-8.076926E-4,-9.1979444E-2,4.0706247E-2,-2.3375364E-1,-2.855564E-2,3.0588517E-1,-2.837725E-3,5.47652E-2,-1.1791754E0,3.9193037E-1,-1.2738301E-1,-9.8896734E-2,4.6083623E-1,-2.3834051E-1,4.596267E-2,-2.4755945E-2,7.485134E-2,-2.576632E-1,1.839038E-2,-1.0059717E-2,1.8959925E-1,-2.3437159E-3,-2.48475E-2,7.654299E-2,2.5799567E-2,4.8236493E-2,-6.125428E-2,3.7914373E-2,-4.6269526E-3],"categories":[],"categories_nodes":[],"categories_segments":[],"categories_sizes":[],"default_left":[0,0,0,0,0,0,0,0,0,0,0,0,0,0,0,0,0,0,0,0,0,0,0,0,0,0,0,0,0],"id":43,"left_children":[1,3,5,7,9,11,13,15,17,19,21,-1,23,25,27,-1,-1,-1,-1,-1,-1,-1,-1,-1,-1,-1,-1,-1,-1],"loss_changes":[1.5230392E1,1.1314077E1,3.1928167E1,1.0617287E2,3.624479E1,7.8704865E1,2.7317438E1,6.2896713E1,1.7381462E2,1.231622E2,8.880606E0,0E0,2.136512E1,1.1032884E2,6.052495E1,0E0,0E0,0E0,0E0,0E0,0E0,0E0,0E0,0E0,0E0,0E0,0E0,0E0,0E0],"parents":[2147483647,0,0,1,1,2,2,3,3,4,4,5,5,6,6,7,7,8,8,9,9,10,10,12,12,13,13,14,14],"right_children":[2,4,6,8,10,12,14,16,18,20,22,-1,24,26,28,-1,-1,-1,-1,-1,-1,-1,-1,-1,-1,-1,-1,-1,-1],"split_conditions":[1E1,3E0,1.2E1,8E0,4E0,2E0,1.5E1,5E0,2E0,8E0,5E0,-9.8896734E-2,5E0,4E0,1.7E1,-2.4755945E-2,7.485134E-2,-2.576632E-1,1.839038E-2,-1.0059717E-2,1.8959925E-1,-2.3437159E-3,-2.48475E-2,7.654299E-2,2.5799567E-2,4.8236493E-2,-6.125428E-2,3.7914373E-2,-4.6269526E-3],"split_indices":[1,0,1,1,0,0,1,1,0,1,1,0,0,0,1,0,0,0,0,0,0,0,0,0,0,0,0,0,0],"split_type":[0,0,0,0,0,0,0,0,0,0,0,0,0,0,0,0,0,0,0,0,0,0,0,0,0,0,0,0,0],"sum_hessian":[4.022E3,1.258E3,2.764E3,3.88E2,8.7E2,3.89E2,2.375E3,2.98E2,9E1,1.65E2,7.05E2,4.1E1,3.48E2,4.07E2,1.968E3,2.08E2,9E1,4.4E1,4.6E1,1.25E2,4E1,3.8E2,3.25E2,1.38E2,2.1E2,1.39E2,2.68E2,4.26E2,1.542E3],"tree_param":{"num_deleted":"0","num_feature":"2","num_nodes":"29","size_leaf_vector":"1"}},{"base_weights":[-7.301457E-4,9.399496E-3,-3.5131687E-1,-8.2810976E-2,5.3155087E-2,-2.643608E-1,-3.9903227E-2,-2.108648E-1,-2.5525382E-2,5.4346037E-1,3.5130925E-2,-3.2902423E-2,-1.8095035E-2,4.945589E-3,-1.063887E-1,3.5381854E-2,-1.1468341E-2,7.4008755E-2,3.3960752E-2,9.705332E-3,-5.036154E-3],"categories":[],"categories_nodes":[],"categories_segments":[],"categories_sizes":[],"default_left":[0,0,0,0,0,0,0,0,0,0,0,0,0,0,0,0,0,0,0,0,0],"id":44,"left_children":[1,3,5,7,9,11,-1,13,15,17,19,-1,-1,-1,-1,-1,-1,-1,-1,-1,-1],"loss_changes":[1.4290254E1,1.5784206E1,3.6336517E-1,9.230186E0,2.342637E1,1.7238784E-1,0E0,8.64337E1,2.9499151E1,3.5164661E0,1.3557266E1,0E0,0E0,0E0,0E0,0E0,0E0,0E0,0E0,0E0,0E0],"parents":[2147483647,0,0,1,1,2,2,3,3,4,4,5,5,7,7,8,8,9,9,10,10],"right_children":[2,4,6,8,10,12,-1,14,16,18,20,-1,-1,-1,-1,-1,-1,-1,-1,-1,-1],"split_conditions":[2.3E1,1E1,5E0,3E0,1.1E1,2E0,-3.9903227E-2,8E0,4E0,6E0,5E0,-3.2902423E-2,-1.8095035E-2,4.945589E-3,-1.063887E-1,3.5381854E-2,-1.1468341E-2,7.4008755E-2,3.3960752E-2,9.705332E-3,-5.036154E-3],"split_indices":[1,1,0,0,1,0,0,1,0,0,0,0,0,0,0,0,0,0,0,0,0],"split_type":[0,0,0,0,0,0,0,0,0,0,0,0,0,0,0,0,0,0,0,0,0],"sum_hessian":[4.022E3,3.91E3,1.12E2,1.258E3,2.652E3,4.2E1,7E1,3.88E2,8.7E2,9.3E1,2.559E3,2.2E1,2E1,2.98E2,9E1,1.65E2,7.05E2,4.6E1,4.7E1,1.484E3,1.075E3],"tree_param":{"num_deleted":"0","num_feature":"2","num_nodes":"21","size_leaf_vector":"1"}},{"base_weights":[-6.7096594E-4,-1.770662E-1,1.7991535E-2,-2.894814E-1,-4.7429573E-2,2.6204154E-2,-6.536124E-1,-2.1643656E-1,-3.380005E-1,-1.3308308E-1,4.1644047E-3,6.024216E-2,-1.1801244E-1,-4.6879597E-2,-7.880928E-2,8.335755E-3,-3.16109E-2,-5.4789644E-2,-2.2095641E-2,5.122942E-3,-3.2672565E-2,-8.6677494E-4,1.117023E-2,-5.150661E-4,-4.2881675E-2],"categories":[],"categories_nodes":[],"categories_segments":[],"categories_sizes":[],"default_left":[0,0,0,0,0,0,0,0,0,0,0,0,0,0,0,0,0,0,0,0,0,0,0,0,0],"id":45,"left_children":[1,3,5,7,9,11,13,15,17,19,-1,21,23,-1,-1,-1,-1,-1,-1,-1,-1,-1,-1,-1,-1],"loss_changes":[1.3246806E1,5.5969257E0,2.0088495E1,6.569214E-1,1.3788464E0,1.7659317E1,7.2413063E-1,2.5662522E0,2.8761225E0,3.3002868E0,0E0,1.0320159E1,2.4096325E1,0E0,0E0,0E0,0E0,0E0,0E0,0E0,0E0,0E0,0E0,0E0,0E0],"parents":[2147483647,0,0,1,1,2,2,3,3,4,4,5,5,6,6,7,7,8,8,9,9,11,11,12,12],"right_children":[2,4,6,8,10,12,14,16,18,20,-1,22,24,-1,-1,-1,-1,-1,-1,-1,-1,-1,-1,-1,-1],"split_conditions":[3E0,5E0,7E0,2E0,7E0,2.1E1,4E0,2E0,3E0,6E0,4.1644047E-3,4E0,6E0,-4.6879597E-2,-7.880928E-2,8.335755E-3,-3.16109E-2,-5.4789644E-2,-2.2095641E-2,5.122942E-3,-3.2672565E-2,-8.6677494E-4,1.117023E-2,-5.150661E-4,-4.2881675E-2],"split_indices":[1,0,0,0,0,1,1,1,0,0,0,0,0,0,0,0,0,0,0,0,0,0,0,0,0],"split_type":[0,0,0,0,0,0,0,0,0,0,0,0,0,0,0,0,0,0,0,0,0,0,0,0,0],"sum_hessian":[4.022E3,3.84E2,3.638E3,2.05E2,1.79E2,3.595E3,4.3E1,8.4E1,1.21E2,9.1E1,8.8E1,2.909E3,6.86E2,2E1,2.3E1,2.1E1,6.3E1,4.2E1,7.9E1,4.7E1,4.4E1,1.244E3,1.665E3,5.04E2,1.82E2],"tree_param":{"num_deleted":"0","num_feature":"2","num_nodes":"25","size_leaf_vector":"1"}},{"base_weights":[-6.7399634E-4,1.6168097E-2,-1.6124527E-1,-3.9796293E-2,8.858035E-2,-1.0258416E-1,-2.9998204E-1,-2.9860676E-4,-8.546928E-1,-1.06803454E-1,2.4271938E-1,-2.1469484E-1,1.4394724E-1,-2.386077E-1,-3.3292733E-2,-1.974508E-2,7.983442E-3,-2.0660989E-1,2.768947E-2,1.7516462E-2,-6.9253184E-2,5.3936344E-2,-1.9385679E-2,6.8755685E-3,-3.0831968E-2,6.1887424E-2,-3.1266373E-2,-2.9705975E-2,-1.6322654E-2],"categories":[],"categories_nodes":[],"categories_segments":[],"categories_sizes":[],"default_left":[0,0,0,0,0,0,0,0,0,0,0,0,0,0,0,0,0,0,0,0,0,0,0,0,0,0,0,0,0],"id":46,"left_children":[1,3,5,7,9,11,13,15,17,19,21,23,25,27,-1,-1,-1,-1,-1,-1,-1,-1,-1,-1,-1,-1,-1,-1,-1],"loss_changes":[1.0882233E1,1.4762757E1,3.0781155E0,6.614307E1,4.7850563E1,7.4933815E0,1.490469E-1,3.099643E1,1.3079922E2,1.1589614E2,1.15107414E2,4.9572697E0,1.8626335E1,1.4097786E-1,0E0,0E0,0E0,0E0,0E0,0E0,0E0,0E0,0E0,0E0,0E0,0E0,0E0,0E0,0E0],"parents":[2147483647,0,0,1,1,2,2,3,3,4,4,5,5,6,6,7,7,8,8,9,9,10,10,11,11,12,12,13,13],"right_children":[2,4,6,8,10,12,14,16,18,20,22,24,26,28,-1,-1,-1,-1,-1,-1,-1,-1,-1,-1,-1,-1,-1,-1,-1],"split_conditions":[2.2E1,1.5E1,2.3E1,1.4E1,4E0,5E0,5E0,3E0,6E0,3E0,6E0,2E0,6E0,2E0,-3.3292733E-2,-1.974508E-2,7.983442E-3,-2.0660989E-1,2.768947E-2,1.7516462E-2,-6.9253184E-2,5.3936344E-2,-1.9385679E-2,6.8755685E-3,-3.0831968E-2,6.1887424E-2,-3.1266373E-2,-2.9705975E-2,-1.6322654E-2],"split_indices":[1,1,1,1,0,0,0,0,0,0,0,0,0,0,0,0,0,0,0,0,0,0,0,0,0,0,0,0,0],"split_type":[0,0,0,0,0,0,0,0,0,0,0,0,0,0,0,0,0,0,0,0,0,0,0,0,0,0,0,0,0],"sum_hessian":[4.022E3,3.641E3,3.81E2,2.054E3,1.587E3,2.69E2,1.12E2,1.96E3,9.4E1,7E2,8.87E2,1.85E2,8.4E1,4.2E1,7E1,5.66E2,1.394E3,4.5E1,4.9E1,4.73E2,2.27E2,5.28E2,3.59E2,4.6E1,1.39E2,4.1E1,4.3E1,2.2E1,2E1],"tree_param":{"num_deleted":"0","num_feature":"2","num_nodes":"29","size_leaf_vector":"1"}},{"base_weights":[-6.764156E-4,-1.5856828E-1,1.602846E-2,-2.1443142E-1,2.9633082E-3,2.354827E-2,-5.989093E-1,-5.5741258E-2,-2.604162E-1,5.3092156E-2,-1.0162823E-1,-4.317516E-2,-7.202178E-2,-1.6599499E-2,1.6718972E-2,-2.0400977E-2,-7.592041E-2,1.1114351E-2,-2.36576E-3,-7.525906E-4,-3.6075417E-2],"categories":[],"categories_nodes":[],"categories_segments":[],"categories_sizes":[],"default_left":[0,0,0,0,0,0,0,0,0,0,0,0,0,0,0,0,0,0,0,0,0],"id":47,"left_children":[1,3,5,7,-1,9,11,13,15,17,19,-1,-1,-1,-1,-1,-1,-1,-1,-1,-1],"loss_changes":[1.0613462E1,4.054059E0,1.6841623E1,2.152792E0,0E0,1.3304124E1,5.812626E-1,1.6991227E0,6.3161297E0,1.2967923E1,1.6749334E1,0E0,0E0,0E0,0E0,0E0,0E0,0E0,0E0,0E0,0E0],"parents":[2147483647,0,0,1,1,2,2,3,3,5,5,6,6,7,7,8,8,9,9,10,10],"right_children":[2,4,6,8,-1,10,12,14,16,18,20,-1,-1,-1,-1,-1,-1,-1,-1,-1,-1],"split_conditions":[3E0,7E0,7E0,1E0,2.9633082E-3,2.1E1,4E0,6E0,6E0,5E0,6E0,-4.317516E-2,-7.202178E-2,-1.6599499E-2,1.6718972E-2,-2.0400977E-2,-7.592041E-2,1.1114351E-2,-2.36576E-3,-7.525906E-4,-3.6075417E-2],"split_indices":[1,0,0,1,0,1,1,0,0,0,0,0,0,0,0,0,0,0,0,0,0],"split_type":[0,0,0,0,0,0,0,0,0,0,0,0,0,0,0,0,0,0,0,0,0],"sum_hessian":[4.022E3,3.84E2,3.638E3,2.96E2,8.8E1,3.595E3,4.3E1,6.7E1,2.29E2,2.909E3,6.86E2,2E1,2.3E1,4.5E1,2.2E1,2.07E2,2.2E1,1.656E3,1.253E3,5.04E2,1.82E2],"tree_param":{"num_deleted":"0","num_feature":"2","num_nodes":"21","size_leaf_vector":"1"}},{"base_weights":[-6.67609E-4,-1.4295366E-1,1.4386198E-2,-2.3208952E-1,-4.0148452E-2,2.1185588E-2,-5.416364E-1,-1.5539292E-1,-2.836233E-1,-1.0438339E-1,2.6702813E-3,4.7785893E-2,-9.151903E-2,-3.906323E-2,-6.511968E-2,1.1372194E-2,-2.4547312E-2,-4.5702506E-2,-1.8687459E-2,5.647141E-3,-2.7364222E-2,1.0003608E-2,-2.129413E-3,-6.7748874E-4,-3.248757E-2],"categories":[],"categories_nodes":[],"categories_segments":[],"categories_sizes":[],"default_left":[0,0,0,0,0,0,0,0,0,0,0,0,0,0,0,0,0,0,0,0,0,0,0,0,0],"id":48,"left_children":[1,3,5,7,9,11,13,15,17,19,-1,21,23,-1,-1,-1,-1,-1,-1,-1,-1,-1,-1,-1,-1],"loss_changes":[8.619108E0,3.5186796E0,1.3769133E1,7.701349E-1,7.7574086E-1,1.0785098E1,4.735613E-1,2.0884788E0,1.9613142E0,2.5202537E0,0E0,1.0505611E1,1.3583643E1,0E0,0E0,0E0,0E0,0E0,0E0,0E0,0E0,0E0,0E0,0E0,0E0],"parents":[2147483647,0,0,1,1,2,2,3,3,4,4,5,5,6,6,7,7,8,8,9,9,11,11,12,12],"right_children":[2,4,6,8,10,12,14,16,18,20,-1,22,24,-1,-1,-1,-1,-1,-1,-1,-1,-1,-1,-1,-1],"split_conditions":[3E0,5E0,7E0,2E0,7E0,2.1E1,4E0,2E0,3E0,6E0,2.6702813E-3,5E0,6E0,-3.906323E-2,-6.511968E-2,1.1372194E-2,-2.4547312E-2,-4.5702506E-2,-1.8687459E-2,5.647141E-3,-2.7364222E-2,1.0003608E-2,-2.129413E-3,-6.7748874E-4,-3.248757E-2],"split_indices":[1,0,0,0,0,1,1,1,0,0,0,0,0,0,0,0,0,0,0,0,0,0,0,0,0],"split_type":[0,0,0,0,0,0,0,0,0,0,0,0,0,0,0,0,0,0,0,0,0,0,0,0,0],"sum_hessian":[4.022E3,3.84E2,3.638E3,2.05E2,1.79E2,3.595E3,4.3E1,8.4E1,1.21E2,9.1E1,8.8E1,2.909E3,6.86E2,2E1,2.3E1,2.1E1,6.3E1,4.2E1,7.9E1,4.7E1,4.4E1,1.656E3,1.253E3,5.04E2,1.82E2],"tree_param":{"num_deleted":"0","num_feature":"2","num_nodes":"25","size_leaf_vector":"1"}},{"base_weights":[-6.573768E-4,-6.4909086E-2,2.8598882E-2,-1.5870129E-1,-2.2945736E-2,2.4317764E-1,-6.6344147E-3,1.6862495E-1,-7.758086E-1,3.072641E-1,-1.0055464E-1,-9.023948E-2,3.8034344E-1,-5.0327814E-1,1.654959E-2,-1.6907945E-2,1.666744E-1,-1.3329922E-1,-2.2353163E-2,-1.3175509E-2,1.6489507E-1,1.311349E-3,-2.3309147E-2,6.5619074E-2,1.968216E-2,4.1530047E-2,-1.18772626E-1,1.3727779E-2,-4.0499927E-3],"categories":[],"categories_nodes":[],"categories_segments":[],"categories_sizes":[],"default_left":[0,0,0,0,0,0,0,0,0,0,0,0,0,0,0,0,0,0,0,0,0,0,0,0,0,0,0,0,0],"id":49,"left_children":[1,3,5,7,9,11,13,15,17,19,21,-1,23,25,27,-1,-1,-1,-1,-1,-1,-1,-1,-1,-1,-1,-1,-1,-1],"loss_changes":[7.564149E0,4.951575E0,2.0905888E1,7.870703E1,2.2352207E1,6.162523E1,2.7366045E1,1.2929176E2,4.1244186E1,9.79956E1,1.0639095E1,0E0,1.753862E1,6.713752E1,1.56470375E1,0E0,0E0,0E0,0E0,0E0,0E0,0E0,0E0,0E0,0E0,0E0,0E0,0E0,0E0],"parents":[2147483647,0,0,1,1,2,2,3,3,4,4,5,5,6,6,7,7,8,8,9,9,10,10,12,12,13,13,14,14],"right_children":[2,4,6,8,10,12,14,16,18,20,22,-1,24,26,28,-1,-1,-1,-1,-1,-1,-1,-1,-1,-1,-1,-1,-1,-1],"split_conditions":[1E1,3E0,1.2E1,7E0,4E0,2E0,1.3E1,5E0,2E0,8E0,5E0,-9.023948E-2,5E0,4E0,1.7E1,-1.6907945E-2,1.666744E-1,-1.3329922E-1,-2.2353163E-2,-1.3175509E-2,1.6489507E-1,1.311349E-3,-2.3309147E-2,6.5619074E-2,1.968216E-2,4.1530047E-2,-1.18772626E-1,1.3727779E-2,-4.0499927E-3],"split_indices":[1,0,1,1,0,0,1,1,0,1,1,0,0,0,1,0,0,0,0,0,0,0,0,0,0,0,0,0,0],"split_type":[0,0,0,0,0,0,0,0,0,0,0,0,0,0,0,0,0,0,0,0,0,0,0,0,0,0,0,0,0],"sum_hessian":[4.022E3,1.258E3,2.764E3,3.88E2,8.7E2,3.89E2,2.375E3,2.54E2,1.34E2,1.65E2,7.05E2,4.1E1,3.48E2,1.05E2,2.27E3,2.08E2,4.6E1,6.6E1,6.8E1,1.25E2,4E1,3.8E2,3.25E2,1.38E2,2.1E2,4.5E1,6E1,7.28E2,1.542E3],"tree_param":{"num_deleted":"0","num_feature":"2","num_nodes":"29","size_leaf_vector":"1"}}]},"name":"gbtree"},"learner_model_param":{"base_score":"[1.3992541E1]","boost_from_average":"1","num_class":"0","num_feature":"2","num_target":"1"},"objective":{"name":"reg:squarederror","reg_loss_param":{"scale_pos_weight":"1"}}},"version":[3,2,0]}